SNNS network definition file V1.4-3D
generated at Fri Jul 10 17:03:17 2015

network name : 2000net
source files :
no. of units : 201
no. of connections : 8978
no. of unit types : 0
no. of site types : 0


learning function : Std_Backpropagation
update function   : Topological_Order


unit default section :

act      | bias     | st | subnet | layer | act func     | out func
---------|----------|----|--------|-------|--------------|-------------
 0.00000 |  0.00000 | h  |      0 |     1 | Act_Logistic | Out_Identity 
---------|----------|----|--------|-------|--------------|-------------


unit definition section :

no. | typeName | unitName | act      | bias     | st | position    | act func | out func | sites
----|----------|----------|----------|----------|----|-------------|----------|----------|-------
  1 |          | noName   |  0.09060 | -0.50114 | i  |   1,  1,  1 |||
  2 |          | noName   |  0.01050 | -0.86173 | i  |   1,  2,  1 |||
  3 |          | noName   |  0.16986 |  0.73721 | i  |   1,  3,  1 |||
  4 |          | noName   |  0.21869 |  0.01768 | i  |   1,  4,  1 |||
  5 |          | noName   |  0.19578 | -0.89101 | i  |   1,  5,  1 |||
  6 |          | noName   |  0.16450 | -0.49516 | i  |   1,  6,  1 |||
  7 |          | noName   |  0.12466 |  0.88099 | i  |   1,  7,  1 |||
  8 |          | noName   |  0.08696 |  0.27468 | i  |   1,  8,  1 |||
  9 |          | noName   |  0.09596 | -0.81274 | i  |   1,  9,  1 |||
 10 |          | noName   |  0.17478 | -0.28924 | i  |   1, 10,  1 |||
 11 |          | noName   |  0.12410 |  0.56279 | i  |   1, 11,  1 |||
 12 |          | noName   |  0.10856 | -0.29843 | i  |   1, 12,  1 |||
 13 |          | noName   |  0.12352 |  0.27969 | i  |   1, 13,  1 |||
 14 |          | noName   |  0.14061 |  0.97041 | i  |   1, 14,  1 |||
 15 |          | noName   |  0.16255 | -0.04716 | i  |   1, 15,  1 |||
 16 |          | noName   |  0.18625 | -0.81404 | i  |   1, 16,  1 |||
 17 |          | noName   |  0.21247 | -0.75445 | i  |   1, 17,  1 |||
 18 |          | noName   |  0.23616 | -0.99735 | i  |   1, 18,  1 |||
 19 |          | noName   |  0.04001 |  0.96044 | i  |   1, 19,  1 |||
 20 |          | noName   |  0.02331 |  0.26181 | i  |   1, 20,  1 |||
 21 |          | noName   |  0.02399 |  0.80627 | i  |   1, 21,  1 |||
 22 |          | noName   |  0.02240 | -0.02239 | i  |   1, 22,  1 |||
 23 |          | noName   |  0.02065 |  0.02167 | i  |   1, 23,  1 |||
 24 |          | noName   |  0.01493 |  0.86310 | i  |   1, 24,  1 |||
 25 |          | noName   |  0.01493 |  0.38270 | i  |   1, 25,  1 |||
 26 |          | noName   |  0.01017 | -0.10176 | i  |   1, 26,  1 |||
 27 |          | noName   |  0.01493 |  0.58358 | i  |   1, 27,  1 |||
 28 |          | noName   |  0.21828 |  0.97632 | i  |   1, 28,  1 |||
 29 |          | noName   |  0.27420 | -0.14383 | i  |   1, 29,  1 |||
 30 |          | noName   |  0.27674 |  0.26338 | i  |   1, 30,  1 |||
 31 |          | noName   |  0.34850 |  0.66480 | i  |   1, 31,  1 |||
 32 |          | noName   |  0.26658 |  0.07731 | i  |   1, 32,  1 |||
 33 |          | noName   |  0.04490 |  0.71350 | i  |   1, 33,  1 |||
 34 |          | noName   |  0.03088 | -0.04764 | i  |   1, 34,  1 |||
 35 |          | noName   |  0.01008 |  0.73715 | i  |   1, 35,  1 |||
 36 |          | noName   |  0.00000 | -0.60581 | i  |   1, 36,  1 |||
 37 |          | noName   |  0.00000 |  0.11671 | i  |   1, 37,  1 |||
 38 |          | noName   |  0.00000 |  0.45373 | i  |   1, 38,  1 |||
 39 |          | noName   |  0.00285 | -0.77234 | i  |   1, 39,  1 |||
 40 |          | noName   |  0.02563 | -0.34822 | i  |   1, 40,  1 |||
 41 |          | noName   |  0.06249 |  0.33941 | i  |   1, 41,  1 |||
 42 |          | noName   |  0.07323 |  0.35812 | i  |   1, 42,  1 |||
 43 |          | noName   |  0.14013 |  0.45404 | i  |   1, 43,  1 |||
 44 |          | noName   |  0.19150 |  0.19052 | i  |   1, 44,  1 |||
 45 |          | noName   |  0.20837 |  0.82916 | i  |   1, 45,  1 |||
 46 |          | noName   |  0.23981 |  0.87920 | i  |   1, 46,  1 |||
 47 |          | noName   |  0.17981 | -0.17344 | i  |   1, 47,  1 |||
 48 |          | noName   |  0.07630 | -0.46361 | i  |   1, 48,  1 |||
 49 |          | noName   |  0.06307 |  0.01531 | i  |   1, 49,  1 |||
 50 |          | noName   |  0.04007 |  0.89530 | i  |   1, 50,  1 |||
 51 |          | noName   |  0.18779 | -0.99334 | i  |   1, 51,  1 |||
 52 |          | noName   |  0.21430 |  0.60572 | i  |   1, 52,  1 |||
 53 |          | noName   |  0.06985 | -0.45641 | i  |   1, 53,  1 |||
 54 |          | noName   |  0.06039 |  0.36065 | i  |   1, 54,  1 |||
 55 |          | noName   |  0.05925 | -0.48172 | i  |   1, 55,  1 |||
 56 |          | noName   |  0.06380 |  0.89641 | i  |   1, 56,  1 |||
 57 |          | noName   |  0.07345 | -0.42897 | i  |   1, 57,  1 |||
 58 |          | noName   |  0.08367 | -0.92826 | i  |   1, 58,  1 |||
 59 |          | noName   |  0.23474 |  0.45432 | i  |   1, 59,  1 |||
 60 |          | noName   |  0.21165 |  0.03379 | i  |   1, 60,  1 |||
 61 |          | noName   |  0.39995 | -0.68115 | i  |   1, 61,  1 |||
 62 |          | noName   |  0.00000 | -0.25494 | i  |   1, 62,  1 |||
 63 |          | noName   |  0.00000 | -0.41800 | i  |   1, 63,  1 |||
 64 |          | noName   |  0.00000 |  0.85450 | i  |   1, 64,  1 |||
 65 |          | noName   |  0.23526 |  0.50783 | i  |   1, 65,  1 |||
 66 |          | noName   |  0.47053 |  0.63275 | i  |   1, 66,  1 |||
 67 |          | noName   |  0.09411 |  0.78223 | i  |   1, 67,  1 |||
 68 |          | noName   |  0.07058 | -0.57281 | i  |   1, 68,  1 |||
 69 |          | noName   |  0.04705 |  0.37499 | i  |   1, 69,  1 |||
 70 |          | noName   |  0.16468 |  0.84005 | i  |   1, 70,  1 |||
 71 |          | noName   |  0.07058 |  0.59512 | i  |   1, 71,  1 |||
 72 |          | noName   |  0.04705 |  0.78552 | i  |   1, 72,  1 |||
 73 |          | noName   |  0.00000 | -0.49505 | i  |   1, 73,  1 |||
 74 |          | noName   |  0.18821 | -0.11104 | i  |   1, 74,  1 |||
 75 |          | noName   |  0.00000 |  0.20523 | i  |   1, 75,  1 |||
 76 |          | noName   |  0.11763 | -0.89777 | i  |   1, 76,  1 |||
 77 |          | noName   |  0.07058 |  0.05123 | i  |   1, 77,  1 |||
 78 |          | noName   |  0.07058 |  0.57741 | i  |   1, 78,  1 |||
 79 |          | noName   |  0.00000 | -0.21643 | i  |   1, 79,  1 |||
 80 |          | noName   |  0.02353 |  0.13532 | i  |   1, 80,  1 |||
 81 |          | noName   |  0.00000 | -0.55193 | i  |   1, 81,  1 |||
 82 |          | noName   |  0.00000 | -0.09874 | i  |   1, 82,  1 |||
 83 |          | noName   |  0.04705 | -0.71019 | i  |   1, 83,  1 |||
 84 |          | noName   |  0.02353 | -0.74280 | i  |   1, 84,  1 |||
 85 |          | noName   |  0.47053 |  0.33075 | i  |   1, 85,  1 |||
 86 |          | noName   |  0.23526 |  0.73033 | i  |   1, 86,  1 |||
 87 |          | noName   |  0.02353 | -0.01144 | i  |   1, 87,  1 |||
 88 |          | noName   |  0.00000 |  0.62013 | i  |   1, 88,  1 |||
 89 |          | noName   |  0.07058 |  0.03091 | i  |   1, 89,  1 |||
 90 |          | noName   |  0.51758 |  0.46133 | i  |   1, 90,  1 |||
 91 |          | noName   |  0.02353 | -0.30967 | i  |   1, 91,  1 |||
 92 |          | noName   |  0.04705 |  0.05661 | i  |   1, 92,  1 |||
 93 |          | noName   |  0.21174 |  0.16433 | i  |   1, 93,  1 |||
 94 |          | noName   |  0.02353 | -0.68463 | i  |   1, 94,  1 |||
 95 |          | noName   |  0.07058 | -0.48473 | i  |   1, 95,  1 |||
 96 |          | noName   |  0.00000 |  0.35970 | i  |   1, 96,  1 |||
 97 |          | noName   |  0.14116 |  0.98335 | i  |   1, 97,  1 |||
 98 |          | noName   |  0.11763 |  0.01957 | i  |   1, 98,  1 |||
 99 |          | noName   |  0.09411 |  0.50039 | i  |   1, 99,  1 |||
100 |          | noName   |  0.00000 | -0.51159 | i  |   1,100,  1 |||
101 |          | noName   |  0.11763 |  0.35800 | i  |   1,101,  1 |||
102 |          | noName   |  0.00000 |  0.92949 | i  |   1,102,  1 |||
103 |          | noName   |  0.02353 | -0.88438 | i  |   1,103,  1 |||
104 |          | noName   |  0.04705 |  0.00780 | i  |   1,104,  1 |||
105 |          | noName   |  0.00000 | -0.45614 | i  |   1,105,  1 |||
106 |          | noName   |  0.00000 |  0.23755 | i  |   1,106,  1 |||
107 |          | noName   |  0.11763 | -0.51191 | i  |   1,107,  1 |||
108 |          | noName   |  0.00000 | -0.63297 | i  |   1,108,  1 |||
109 |          | noName   |  0.59875 | -4.25491 | h  |   2,  1,  1 |||
110 |          | noName   |  0.07486 | -7.91909 | h  |   2,  2,  1 |||
111 |          | noName   |  0.02204 |  1.16726 | h  |   2,  3,  1 |||
112 |          | noName   |  0.98871 | -6.03627 | h  |   2,  4,  1 |||
113 |          | noName   |  0.00565 | -3.29475 | h  |   2,  5,  1 |||
114 |          | noName   |  0.87887 |  0.63361 | h  |   2,  6,  1 |||
115 |          | noName   |  0.81424 | -0.40618 | h  |   2,  7,  1 |||
116 |          | noName   |  0.38775 |  1.14784 | h  |   2,  8,  1 |||
117 |          | noName   |  0.00909 | -1.49653 | h  |   2,  9,  1 |||
118 |          | noName   |  0.32810 |  0.02522 | h  |   2, 10,  1 |||
119 |          | noName   |  0.29394 | -0.98609 | h  |   2, 11,  1 |||
120 |          | noName   |  0.95803 | -4.58702 | h  |   2, 12,  1 |||
121 |          | noName   |  0.00029 | -5.85164 | h  |   2, 13,  1 |||
122 |          | noName   |  0.95338 | -2.20255 | h  |   2, 14,  1 |||
123 |          | noName   |  0.03156 |  2.18300 | h  |   2, 15,  1 |||
124 |          | noName   |  0.01082 | -6.63231 | h  |   2, 16,  1 |||
125 |          | noName   |  0.00037 | -3.26094 | h  |   2, 17,  1 |||
126 |          | noName   |  0.00355 | -3.08809 | h  |   2, 18,  1 |||
127 |          | noName   |  0.41721 | -0.34823 | h  |   2, 19,  1 |||
128 |          | noName   |  0.57649 | -0.71654 | h  |   2, 20,  1 |||
129 |          | noName   |  0.01531 |  3.14021 | h  |   2, 21,  1 |||
130 |          | noName   |  0.41484 | -3.26841 | h  |   2, 22,  1 |||
131 |          | noName   |  0.00024 | -3.40513 | h  |   2, 23,  1 |||
132 |          | noName   |  0.00315 | -0.71151 | h  |   2, 24,  1 |||
133 |          | noName   |  0.78329 | -1.29124 | h  |   2, 25,  1 |||
134 |          | noName   |  0.00073 | -1.85811 | h  |   2, 26,  1 |||
135 |          | noName   |  0.63476 |  0.98429 | h  |   2, 27,  1 |||
136 |          | noName   |  0.99957 |  1.63296 | h  |   2, 28,  1 |||
137 |          | noName   |  0.00248 | -3.25638 | h  |   2, 29,  1 |||
138 |          | noName   |  0.00045 | -3.61812 | h  |   2, 30,  1 |||
139 |          | noName   |  0.00548 |  1.03094 | h  |   2, 31,  1 |||
140 |          | noName   |  0.07561 | -4.03659 | h  |   2, 32,  1 |||
141 |          | noName   |  0.00008 | -10.01374 | h  |   2, 33,  1 |||
142 |          | noName   |  0.07636 | -2.96073 | h  |   2, 34,  1 |||
143 |          | noName   |  0.53628 | -3.90371 | h  |   2, 35,  1 |||
144 |          | noName   |  0.58373 |  4.19759 | h  |   2, 36,  1 |||
145 |          | noName   |  0.06922 |  0.32098 | h  |   2, 37,  1 |||
146 |          | noName   |  0.00413 | -5.79719 | h  |   2, 38,  1 |||
147 |          | noName   |  0.02429 | -2.68022 | h  |   2, 39,  1 |||
148 |          | noName   |  0.01799 | -3.15797 | h  |   2, 40,  1 |||
149 |          | noName   |  0.89199 |  0.88858 | h  |   2, 41,  1 |||
150 |          | noName   |  0.78068 | -6.17595 | h  |   2, 42,  1 |||
151 |          | noName   |  0.00474 | -2.53955 | h  |   2, 43,  1 |||
152 |          | noName   |  0.00222 | -3.35924 | h  |   2, 44,  1 |||
153 |          | noName   |  0.85530 | -2.78660 | h  |   2, 45,  1 |||
154 |          | noName   |  0.87900 | -3.60963 | h  |   2, 46,  1 |||
155 |          | noName   |  0.00354 | -8.91989 | h  |   2, 47,  1 |||
156 |          | noName   |  0.02035 | -1.39954 | h  |   2, 48,  1 |||
157 |          | noName   |  0.00044 | -3.57694 | h  |   2, 49,  1 |||
158 |          | noName   |  0.04353 | -5.89269 | h  |   2, 50,  1 |||
159 |          | noName   |  0.99696 | -1.21383 | h  |   2, 51,  1 |||
160 |          | noName   |  0.32966 | -4.84527 | h  |   2, 52,  1 |||
161 |          | noName   |  0.25141 |  2.46266 | h  |   2, 53,  1 |||
162 |          | noName   |  0.00949 |  2.55433 | h  |   2, 54,  1 |||
163 |          | noName   |  0.01453 | -1.75233 | h  |   2, 55,  1 |||
164 |          | noName   |  0.00034 | -5.46447 | h  |   2, 56,  1 |||
165 |          | noName   |  0.00012 | -4.32735 | h  |   2, 57,  1 |||
166 |          | noName   |  0.01625 | -4.43423 | h  |   2, 58,  1 |||
167 |          | noName   |  0.32300 |  0.09704 | h  |   2, 59,  1 |||
168 |          | noName   |  0.98407 |  1.41455 | h  |   2, 60,  1 |||
169 |          | noName   |  0.00760 | -2.82842 | h  |   2, 61,  1 |||
170 |          | noName   |  0.93973 | -6.57282 | h  |   2, 62,  1 |||
171 |          | noName   |  0.14409 |  3.86503 | h  |   2, 63,  1 |||
172 |          | noName   |  0.76760 |  3.31614 | h  |   2, 64,  1 |||
173 |          | noName   |  0.01274 |  1.01377 | h  |   2, 65,  1 |||
174 |          | noName   |  0.01518 | -6.27100 | h  |   2, 66,  1 |||
175 |          | noName   |  0.98971 | -4.22694 | h  |   2, 67,  1 |||
176 |          | noName   |  0.00000 |  1.79272 | o  |   3,  1,  1 |||
177 |          | noName   |  0.00000 |  0.81616 | o  |   3,  2,  1 |||
178 |          | noName   |  0.00000 | -3.14601 | o  |   3,  3,  1 |||
179 |          | noName   |  0.00000 | -4.12329 | o  |   3,  4,  1 |||
180 |          | noName   |  0.00000 | -4.37663 | o  |   3,  5,  1 |||
181 |          | noName   |  0.00000 | -3.67203 | o  |   3,  6,  1 |||
182 |          | noName   |  0.00000 | -4.03945 | o  |   3,  7,  1 |||
183 |          | noName   |  0.00000 |  0.33526 | o  |   3,  8,  1 |||
184 |          | noName   |  0.00000 | -0.90280 | o  |   3,  9,  1 |||
185 |          | noName   |  0.00000 | -4.47775 | o  |   3, 10,  1 |||
186 |          | noName   |  0.00000 | -5.54929 | o  |   3, 11,  1 |||
187 |          | noName   |  0.00000 | -7.25584 | o  |   3, 12,  1 |||
188 |          | noName   |  0.00000 | -2.49355 | o  |   3, 13,  1 |||
189 |          | noName   |  0.00000 | -4.66834 | o  |   3, 14,  1 |||
190 |          | noName   |  0.00000 |  3.22821 | o  |   3, 15,  1 |||
191 |          | noName   |  0.00000 | -0.97566 | o  |   3, 16,  1 |||
192 |          | noName   |  0.00000 |  4.13002 | o  |   3, 17,  1 |||
193 |          | noName   |  0.00000 | -1.99892 | o  |   3, 18,  1 |||
194 |          | noName   |  0.00000 | -3.88083 | o  |   3, 19,  1 |||
195 |          | noName   |  0.00000 | -3.05211 | o  |   3, 20,  1 |||
196 |          | noName   |  0.00000 |  2.31323 | o  |   3, 21,  1 |||
197 |          | noName   |  0.00000 | -0.85448 | o  |   3, 22,  1 |||
198 |          | noName   |  0.00000 | -4.83201 | o  |   3, 23,  1 |||
199 |          | noName   |  0.00000 |  1.42564 | o  |   3, 24,  1 |||
200 |          | noName   |  0.00000 | -3.20685 | o  |   3, 25,  1 |||
201 |          | noName   |  1.00000 | -4.31552 | o  |   3, 26,  1 |||
----|----------|----------|----------|----------|----|-------------|----------|----------|-------


connection definition section :

target | site | source:weight
-------|------|----------------------------------------------------------------------------------------------------------------
   109 |      | 108: 6.02803, 107:-0.11883, 106:-0.48127, 105:-4.84538, 104:-3.49061, 103:-1.20453, 102: 2.73455, 101: 2.87394,
                100:-6.15276,  99: 1.00896,  98: 0.15689,  97: 4.52594,  96:-1.38847,  95:-1.20196,  94: 3.68809,  93: 1.20033,
                 92:-1.25815,  91: 8.63200,  90: 2.34857,  89:-1.77106,  88:-1.21602,  87:-4.90068,  86: 2.10495,  85: 0.43068,
                 84: 5.58163,  83: 0.14888,  82:-3.73974,  81:-4.76563,  80:-1.18073,  79:-3.86054,  78: 1.76455,  77: 2.54381,
                 76:-0.87968,  75: 3.95818,  74: 8.13079,  73: 3.68017,  72:-3.45144,  71: 0.64977,  70: 7.61481,  69:-1.14312,
                 68:-2.78843,  67:-1.07618,  66:-0.17009,  65:-0.46369,  64:-0.86889,  63:-1.59653,  62: 1.37693,  61: 4.28268,
                 60:-0.15597,  59: 0.94230,  58: 3.36305,  57:-0.21779,  56: 0.64780,  55: 0.87615,  54:-4.33241,  53: 0.92980,
                 52: 2.71450,  51: 0.86145,  50: 4.83539,  49: 5.57545,  48: 2.35167,  47:-3.55565,  46:-3.22520,  45:-6.22747,
                 44:-1.65017,  43:-0.65692,  42:-1.21886,  41: 1.73410,  40:-0.68459,  39: 0.10311,  38: 0.09210,  37:-2.79733,
                 36:-0.05158,  35:-1.55698,  34:-2.72761,  33: 1.92006,  32: 0.55438,  31:-1.63310,  30: 1.37698,  29: 1.82516,
                 28: 0.42818,  27:-2.51494,  26:-5.55995,  25:-1.04627,  24: 0.79684,  23:-2.66647,  22: 2.70246,  21:-1.66488,
                 20:-5.89534,  19:-3.98243,  18: 5.99837,  17: 4.53702,  16: 2.00592,  15:-1.01628,  14:-6.08489,  13:-9.40278,
                 12:-4.32180,  11:-1.53979,  10: 1.10994,   9:-0.18840,   8:-0.17944,   7:-1.84796,   6:-2.98511,   5:-1.63897,
                  4:-1.16386,   3:-0.27769,   2:-4.40032,   1: 0.58421
   110 |      | 108: 2.51994, 107: 1.71257, 106:-0.40085, 105:10.38527, 104:-1.81959, 103: 3.43498, 102:-0.70915, 101: 0.57399,
                100:-0.52453,  99: 1.20174,  98:-1.00095,  97:-4.71130,  96:-1.16138,  95: 3.47931,  94:-0.20586,  93:-3.20279,
                 92: 1.61899,  91: 2.54259,  90: 0.63591,  89: 2.40167,  88:-4.70963,  87:-5.94036,  86:-2.02232,  85: 0.25789,
                 84: 2.41296,  83: 6.45785,  82:-0.65991,  81: 0.55627,  80: 1.12047,  79: 1.40662,  78:-3.98702,  77:-0.33494,
                 76: 2.69106,  75: 1.75391,  74:-2.36125,  73: 2.37455,  72: 4.31903,  71: 2.40531,  70: 0.50261,  69:-1.38238,
                 68: 0.46585,  67:-4.04684,  66: 0.49992,  65:-0.03384,  64:-6.20628,  63: 1.47557,  62:-1.50853,  61: 0.29173,
                 60: 7.92297,  59: 2.77967,  58: 0.23739,  57: 0.24332,  56:-6.19066,  55:-0.71676,  54: 3.64078,  53: 3.46143,
                 52: 4.30136,  51: 2.80983,  50:-2.54628,  49: 1.55646,  48: 1.11549,  47:-4.94404,  46:-2.77809,  45: 0.63289,
                 44:-1.12854,  43:-0.66448,  42: 0.94456,  41:-2.90192,  40:-1.42055,  39: 1.20331,  38:-2.59027,  37:-0.51579,
                 36: 1.38091,  35:-0.36879,  34: 1.46928,  33: 2.63424,  32: 1.32884,  31:-1.85248,  30: 0.09728,  29:-0.16678,
                 28: 2.48277,  27: 7.21820,  26: 5.39718,  25:-3.79283,  24:-1.21193,  23: 4.68245,  22: 6.42668,  21: 0.90515,
                 20: 2.73535,  19: 0.27286,  18: 0.88206,  17: 2.20248,  16: 2.34261,  15: 3.84911,  14: 0.08671,  13:-2.97326,
                 12: 0.92306,  11:-0.19662,  10:-2.40594,   9: 0.59046,   8: 0.07038,   7:-2.68870,   6: 2.81867,   5: 3.24079,
                  4: 2.28661,   3: 1.73776,   2: 2.07361,   1: 2.47436
   111 |      | 108: 6.12035, 107:-6.66629, 106:-2.19561, 105:-2.43393, 104: 0.47503, 103:-0.15479, 102: 3.76804, 101: 4.44923,
                100:-0.78550,  99: 2.11196,  98:-0.56751,  97: 0.69043,  96: 1.36765,  95:-4.81158,  94:-1.49139,  93:-5.77850,
                 92:-0.41680,  91: 1.08458,  90:-1.72437,  89:-1.47707,  88: 1.14096,  87: 0.49045,  86: 0.39461,  85: 2.57982,
                 84: 5.31183,  83:-3.09434,  82:-1.05066,  81:-1.12225,  80: 1.16361,  79: 0.10240,  78:-0.47745,  77:-1.38456,
                 76:-3.24044,  75: 0.65783,  74: 3.61841,  73: 1.68910,  72:-0.91134,  71:-0.61854,  70:-3.47408,  69:-1.31515,
                 68: 1.81238,  67:-3.11097,  66:-1.63621,  65: 0.64085,  64: 5.99925,  63: 1.23899,  62: 2.24948,  61: 0.05837,
                 60:-2.73546,  59:-0.24250,  58:-2.23783,  57: 1.01494,  56: 3.05163,  55: 3.62744,  54:-1.92444,  53:-5.89025,
                 52:-2.08851,  51: 1.58205,  50: 0.46401,  49: 1.38322,  48:-0.99579,  47:-1.87489,  46: 2.24793,  45:-6.02817,
                 44:-1.76388,  43: 3.70219,  42: 1.05782,  41:-3.52839,  40: 3.04030,  39:-1.69525,  38:-4.61533,  37: 0.05638,
                 36: 2.18593,  35: 1.46447,  34:-0.38482,  33:-0.17231,  32:-4.33387,  31: 1.81286,  30: 1.09141,  29: 6.84360,
                 28: 6.61934,  27: 1.06373,  26:-3.19168,  25:-1.19677,  24:-1.67731,  23: 0.73297,  22:-4.76181,  21:-1.37116,
                 20:-1.07741,  19: 1.50676,  18: 0.18616,  17:-0.33561,  16:-0.12057,  15: 1.32674,  14:-1.59528,  13:-2.91500,
                 12:-2.99317,  11: 1.49587,  10:-3.94346,   9:-1.07730,   8: 5.83681,   7: 0.57790,   6: 0.34661,   5:-7.11995,
                  4:-1.63012,   3:-4.16195,   2: 0.11635,   1:-2.39125
   112 |      | 108:-6.82611, 107: 0.05718, 106: 2.55851, 105: 3.96456, 104: 0.21470, 103: 0.48990, 102:-1.43184, 101:-5.20634,
                100:-3.02913,  99:-2.15798,  98:-1.44164,  97: 2.93589,  96:-0.95543,  95:-1.68456,  94: 3.63353,  93:-2.92173,
                 92: 0.75766,  91:-0.13647,  90: 2.21445,  89: 4.95133,  88:-0.97338,  87: 0.66275,  86:-1.14144,  85: 1.32398,
                 84: 0.58139,  83: 2.12997,  82:-4.47211,  81:-3.85593,  80:-6.98269,  79:-2.25096,  78:-0.72276,  77:-5.63280,
                 76: 2.98895,  75: 3.06507,  74: 4.54636,  73:-1.47906,  72:-8.21709,  71:-3.24006,  70: 2.11689,  69: 2.62792,
                 68: 5.86460,  67:-0.42938,  66:-1.35318,  65:-0.63057,  64:-0.28667,  63:-4.01342,  62:-3.03025,  61:-0.45390,
                 60: 5.79913,  59: 6.72174,  58: 4.40157,  57:-4.73908,  56:-12.74045,  55:-5.27466,  54:-1.00371,  53: 0.75723,
                 52: 3.11459,  51: 1.48546,  50:-0.81796,  49: 2.81645,  48: 7.63245,  47: 1.60992,  46:-0.10084,  45:-0.19482,
                 44:-1.70293,  43:-0.20462,  42:-2.65470,  41: 0.82506,  40:-0.72350,  39: 3.05930,  38: 4.19723,  37: 2.41653,
                 36: 2.45291,  35: 2.84855,  34:-1.58796,  33:-2.83680,  32: 4.18668,  31:-0.62572,  30: 1.91327,  29: 5.94538,
                 28: 4.04396,  27:-0.58435,  26: 2.99221,  25: 4.03629,  24: 9.57224,  23: 1.36971,  22: 2.80578,  21: 3.34896,
                 20: 0.97870,  19:-3.42755,  18: 1.07772,  17: 0.96775,  16: 5.70311,  15: 0.47394,  14: 2.55853,  13: 5.18648,
                 12: 3.51558,  11:-0.95903,  10:-1.51214,   9:-0.11341,   8: 1.96662,   7: 4.31967,   6:-0.01121,   5:-0.98364,
                  4:-1.44893,   3: 2.29225,   2:-1.09703,   1:-5.39237
   113 |      | 108:-1.41193, 107: 0.96684, 106: 3.09402, 105: 8.99954, 104: 5.23622, 103: 2.30945, 102:-1.66379, 101: 0.81628,
                100: 2.04504,  99: 0.11011,  98: 0.88394,  97: 3.21896,  96: 1.04101,  95: 2.59751,  94:-5.59006,  93:-2.40740,
                 92: 5.05826,  91: 1.01004,  90:-0.14121,  89: 3.29093,  88: 2.62113,  87: 2.95210,  86:-3.88137,  85:-3.79651,
                 84: 4.28580,  83: 1.06245,  82: 5.54771,  81: 4.57216,  80: 4.48348,  79:-1.33833,  78:-0.87603,  77:-4.84909,
                 76: 2.51490,  75: 3.50014,  74:-0.35754,  73: 4.30019,  72: 1.63262,  71: 3.56935,  70:-0.52045,  69:-7.51760,
                 68: 5.02850,  67: 4.56984,  66:-0.14085,  65: 3.12774,  64:-0.50211,  63:-3.93765,  62:-1.21227,  61:-2.43925,
                 60: 0.25596,  59: 4.00078,  58:-1.60417,  57:-0.28206,  56:-3.70330,  55:-9.98369,  54:-4.45058,  53: 2.04898,
                 52: 1.67418,  51:-4.16429,  50: 2.50950,  49:-2.93706,  48:-4.97576,  47:-1.30088,  46: 1.78918,  45: 1.95450,
                 44: 2.58275,  43:-1.98382,  42:-5.66720,  41:-0.75322,  40: 3.71855,  39: 1.22777,  38: 1.62242,  37: 3.66234,
                 36: 5.09694,  35: 0.51246,  34:-3.37353,  33:-0.91292,  32:-0.29573,  31:-0.49799,  30: 1.17617,  29: 2.02240,
                 28: 2.22615,  27:-0.15479,  26:-1.72905,  25: 1.18672,  24: 0.96530,  23: 1.68086,  22:-2.12142,  21: 4.30678,
                 20:-2.65328,  19:-1.48802,  18:-2.24219,  17:-3.25757,  16: 0.87159,  15:-1.49871,  14: 1.36228,  13: 3.02303,
                 12:-2.21691,  11:-2.13831,  10: 0.30260,   9:-3.14876,   8: 1.15998,   7: 1.67367,   6: 1.78327,   5: 3.13894,
                  4: 0.86586,   3:-4.37809,   2: 0.93924,   1:-3.57698
   114 |      | 108: 6.02641, 107:-0.21039, 106:-1.22566, 105:-0.69103, 104:-1.53779, 103:-2.51654, 102: 1.38776, 101: 0.65881,
                100:-0.48665,  99:-1.15179,  98:-2.84428,  97: 3.29440,  96: 3.02613,  95:-0.69746,  94: 2.38617,  93:-1.78800,
                 92: 1.21659,  91: 0.37890,  90: 0.14842,  89: 0.84170,  88: 2.57927,  87:-0.11530,  86:-2.44339,  85:-3.67720,
                 84: 1.31816,  83: 3.67331,  82:-6.98947,  81: 2.27265,  80:-0.93138,  79:-1.06787,  78: 2.54774,  77:-0.96993,
                 76:-3.91393,  75: 0.96135,  74: 0.06523,  73:-2.78800,  72: 4.22840,  71: 4.08937,  70:-1.06674,  69: 2.61763,
                 68: 1.99498,  67:-1.50495,  66:-1.09698,  65:-4.12932,  64:-0.47582,  63:-4.61858,  62:-3.01953,  61: 3.20816,
                 60: 4.84008,  59:12.30421,  58: 9.65865,  57:-0.04035,  56:-2.10736,  55:-5.14013,  54:-0.46145,  53:-3.63285,
                 52: 2.96902,  51:-1.61327,  50:-7.20990,  49:-2.63746,  48:-0.17719,  47:-1.89933,  46:-2.56649,  45:-2.62741,
                 44: 1.21636,  43:-1.26656,  42:-2.42314,  41: 1.99569,  40:-1.89540,  39: 4.57205,  38: 0.20979,  37: 0.19983,
                 36:-1.96844,  35:-2.86056,  34: 0.88425,  33:-5.17068,  32:-2.39692,  31: 1.47247,  30:-4.30809,  29:-2.90844,
                 28:-1.76432,  27: 3.48720,  26: 3.63626,  25: 5.55916,  24:-0.82636,  23:-1.70256,  22:-0.65455,  21:-5.25373,
                 20:-1.58038,  19:-0.73514,  18: 0.28413,  17: 0.81208,  16: 3.31603,  15: 9.44600,  14: 0.92071,  13: 0.71787,
                 12: 0.07389,  11: 1.28691,  10:-0.10293,   9:-1.56632,   8:-3.03535,   7:-0.85773,   6: 0.97359,   5: 1.59367,
                  4: 4.25721,   3: 4.70733,   2:-3.16642,   1:-1.21001
   115 |      | 108:-8.97910, 107:-4.73433, 106: 5.15791, 105: 2.79827, 104: 0.66514, 103: 2.68949, 102:-2.76853, 101: 0.88197,
                100:-3.53764,  99:-0.01294,  98:-0.10213,  97: 6.62381,  96: 4.65233,  95: 5.17802,  94: 1.09488,  93:-6.46458,
                 92:-3.60696,  91:-2.52640,  90:-3.29942,  89: 8.78082,  88:-4.25224,  87:-1.47563,  86: 3.45623,  85:-1.01515,
                 84:-0.32618,  83:-4.18723,  82: 3.53263,  81: 0.27159,  80:-1.89331,  79: 7.34369,  78:-4.56023,  77:-4.12100,
                 76: 5.50586,  75:-1.66206,  74: 0.04453,  73: 2.96075,  72:-1.96922,  71: 5.11352,  70: 0.78759,  69:-5.44120,
                 68:-0.90590,  67:-5.07449,  66:-1.52356,  65: 1.21256,  64:-0.99269,  63: 7.16558,  62: 5.38662,  61: 5.46578,
                 60: 0.00933,  59: 4.87257,  58:-3.29295,  57:-0.25553,  56: 3.93722,  55: 3.94095,  54: 0.13369,  53:-14.58056,
                 52:-2.17055,  51: 3.85516,  50:-3.18296,  49: 8.39452,  48: 4.09335,  47: 2.09494,  46:-2.59057,  45:-3.19691,
                 44: 3.12671,  43: 8.07240,  42:-2.04643,  41:-4.30679,  40:-2.98915,  39: 5.15673,  38:-2.80593,  37:-1.44538,
                 36:-7.29325,  35: 1.45179,  34:-1.24980,  33: 3.80377,  32: 5.79006,  31:-1.79894,  30: 3.46956,  29:-1.36782,
                 28: 1.71950,  27:-0.74205,  26: 2.38633,  25:-0.20337,  24: 0.68859,  23: 3.67301,  22:-4.60444,  21: 1.17957,
                 20: 0.14302,  19:-3.66349,  18:-4.20262,  17:-0.92677,  16:-0.35633,  15: 0.65305,  14:-1.21406,  13: 1.45992,
                 12:-4.21717,  11:-1.07627,  10:-2.67982,   9:-6.41907,   8:-8.24627,   7: 3.18224,   6:14.16654,   5:11.68558,
                  4:-5.81578,   3:-8.68915,   2: 0.03028,   1:-1.19095
   116 |      | 108: 1.87519, 107:-1.87153, 106: 3.05816, 105: 3.26335, 104:-0.53698, 103:-1.92606, 102:-2.78076, 101:-5.43403,
                100:-0.96708,  99:-5.10487,  98:-0.77165,  97:-0.32348,  96: 2.17473,  95: 1.71018,  94: 1.99342,  93: 2.48488,
                 92: 0.58986,  91: 1.63278,  90: 0.49644,  89: 1.24142,  88:-0.04639,  87: 0.62287,  86:-3.69411,  85: 0.39692,
                 84:-0.82189,  83:-2.04683,  82: 2.33525,  81: 2.11156,  80:-4.76103,  79: 0.93843,  78: 4.26259,  77:-3.35145,
                 76: 0.63053,  75:-0.09737,  74: 0.00804,  73:-1.70602,  72: 2.04618,  71:-2.45028,  70:-4.25569,  69: 1.86788,
                 68:-0.08920,  67: 3.73135,  66:-3.63561,  65: 3.22305,  64:-1.85881,  63: 3.78075,  62: 0.15162,  61: 3.02382,
                 60: 2.29140,  59: 4.50251,  58:-0.24030,  57:-0.85515,  56:-1.56056,  55:-3.86553,  54:-3.53715,  53:-1.04586,
                 52: 0.41128,  51:-0.44222,  50: 4.58857,  49: 8.11100,  48: 3.56143,  47:-1.22777,  46:-3.54567,  45: 1.99119,
                 44: 2.39988,  43: 2.23047,  42:-1.16012,  41: 0.92115,  40: 1.91283,  39:-1.79218,  38:-6.21494,  37:-4.85293,
                 36:-3.98560,  35: 1.42091,  34: 2.69953,  33:-1.41889,  32:-1.29400,  31:-1.94325,  30: 3.46283,  29: 1.69710,
                 28: 0.69347,  27:-0.86051,  26:-2.16102,  25:-1.64457,  24:-1.90629,  23:-2.81850,  22: 3.24690,  21: 1.10465,
                 20: 1.86790,  19:-4.46086,  18:-2.83820,  17:-4.69997,  16:-4.90719,  15:-2.20941,  14: 0.78350,  13: 1.20462,
                 12: 3.92801,  11: 1.69807,  10:-0.79566,   9: 0.66817,   8: 1.84850,   7:-0.48614,   6:-3.66562,   5:-0.76225,
                  4: 2.04069,   3: 0.26870,   2:-2.81877,   1:-3.99751
   117 |      | 108:-2.60293, 107:-6.68004, 106:-1.70825, 105: 4.72544, 104: 0.07217, 103:-2.10495, 102: 0.96742, 101: 1.47838,
                100: 0.22141,  99:-0.86229,  98: 0.54324,  97: 3.25044,  96: 3.85961,  95:-2.81217,  94:-2.77001,  93:-1.25722,
                 92: 4.57655,  91:-3.93227,  90: 4.02619,  89: 3.23940,  88: 2.61537,  87:-4.55373,  86: 1.93749,  85: 0.07992,
                 84:-4.60099,  83:-4.05054,  82:-10.88364,  81:-1.39964,  80:-1.10807,  79: 4.49780,  78:-1.86472,  77:-1.22282,
                 76:-0.90868,  75: 1.04688,  74: 1.94758,  73: 1.80743,  72: 3.48376,  71: 0.47824,  70: 6.85856,  69: 2.95366,
                 68:-5.03844,  67: 1.97830,  66:-7.42964,  65:-5.63715,  64:-0.40445,  63:-2.39908,  62:-3.23607,  61:-0.18276,
                 60: 0.99574,  59:-0.77335,  58:-8.67974,  57:-4.13252,  56: 0.46938,  55: 3.05951,  54: 3.00562,  53: 5.59745,
                 52: 1.12004,  51: 3.10881,  50:-0.13301,  49: 6.45087,  48: 3.68309,  47:-1.02756,  46:-0.31417,  45:-3.32015,
                 44:-0.86178,  43:-2.36451,  42: 0.10104,  41: 3.93114,  40: 2.84414,  39:-0.99153,  38:-1.09606,  37:-4.12402,
                 36:-0.56397,  35:-0.68655,  34:-1.31535,  33: 2.26247,  32: 0.17051,  31:-1.73475,  30: 5.49227,  29: 1.96971,
                 28:-10.47657,  27:-9.40064,  26:-4.00817,  25: 0.74046,  24:-1.78035,  23: 3.94531,  22:-1.22048,  21: 5.16403,
                 20:-0.40368,  19:-2.05764,  18: 2.02297,  17:-0.46785,  16: 3.78529,  15: 3.97913,  14:-3.29681,  13:-11.41058,
                 12:-7.11169,  11: 0.04291,  10:-0.48574,   9:-1.62070,   8: 0.21670,   7: 1.74950,   6: 1.27984,   5:-1.33310,
                  4: 0.82310,   3:-1.12233,   2:-3.48737,   1: 3.30782
   118 |      | 108:-0.30577, 107:-1.20418, 106: 3.14717, 105:-0.49479, 104:-0.56163, 103:-0.20351, 102: 0.93762, 101: 2.85494,
                100: 0.01374,  99: 4.32589,  98:-3.59511,  97:-2.69282,  96: 2.32257,  95:-0.58928,  94:-3.04696,  93: 0.64367,
                 92:-5.16824,  91:-1.36624,  90: 1.50204,  89: 2.34493,  88: 1.34377,  87: 0.48359,  86:-2.65748,  85:-4.23106,
                 84: 0.64118,  83:-1.12854,  82: 0.15753,  81: 0.36724,  80:-2.48118,  79:-1.20691,  78: 1.75237,  77: 2.47409,
                 76:-1.79460,  75: 0.45089,  74: 0.01631,  73:-3.61237,  72:-0.90191,  71: 3.83399,  70: 2.84121,  69:-2.77717,
                 68:-5.41766,  67: 1.13808,  66: 0.50094,  65:-4.14551,  64:-2.86424,  63:-1.19912,  62:-3.72215,  61:-0.79962,
                 60: 1.73368,  59: 3.20703,  58:-0.28288,  57: 2.71497,  56: 3.87704,  55:-0.83275,  54: 0.03441,  53:-0.69353,
                 52:-1.64161,  51:-0.83961,  50:-0.83750,  49:-5.20763,  48:-4.52266,  47:-3.02661,  46: 0.31235,  45: 2.43771,
                 44: 3.72483,  43: 1.76594,  42: 1.17064,  41: 4.06584,  40: 1.18923,  39: 1.01371,  38:-0.13322,  37: 0.74171,
                 36:-2.08876,  35:-5.03549,  34:-1.98641,  33:-3.02417,  32:-3.69994,  31: 2.38917,  30: 0.33212,  29: 2.48424,
                 28: 5.21552,  27: 2.32828,  26:-3.32010,  25:-5.64190,  24:-3.90460,  23: 2.32362,  22:-1.60886,  21:-8.15745,
                 20: 3.77159,  19: 3.58721,  18:-2.61709,  17: 2.04770,  16:-1.55098,  15: 3.94247,  14: 5.84453,  13: 3.52964,
                 12: 0.79715,  11:-3.74919,  10: 1.77342,   9: 1.47189,   8: 1.75615,   7:-0.65374,   6:-0.36371,   5:-2.89066,
                  4:-5.60941,   3:-1.80849,   2:-0.72571,   1:-2.67232
   119 |      | 108: 3.54237, 107:-0.80016, 106: 2.39021, 105:-0.70024, 104: 1.62339, 103:-1.76285, 102:-2.70100, 101: 0.90593,
                100: 4.18910,  99: 2.71067,  98:-0.52011,  97: 1.37938,  96:-1.61178,  95:-1.99178,  94: 1.02844,  93:-1.30890,
                 92: 1.06769,  91:-2.52185,  90:-1.50008,  89: 3.89755,  88:-3.85032,  87:-0.41236,  86: 4.97788,  85:-0.71422,
                 84:-3.57552,  83: 3.88052,  82: 4.24466,  81: 6.24994,  80:-2.39543,  79:-6.51075,  78:-5.60439,  77:-0.31004,
                 76:-1.41174,  75: 2.80436,  74: 1.77783,  73: 0.41284,  72:-0.51354,  71: 1.27726,  70:-0.76166,  69: 0.00062,
                 68:-0.70206,  67: 0.94535,  66: 2.29771,  65:-1.49014,  64: 0.67847,  63: 1.74817,  62:-4.62387,  61:-1.07299,
                 60: 0.61102,  59: 2.98151,  58: 0.53856,  57: 1.05612,  56: 0.02995,  55: 1.74283,  54:-1.79505,  53:-3.10788,
                 52: 0.60940,  51: 1.43705,  50: 3.34477,  49:-3.68942,  48:-6.34180,  47:-1.26058,  46:-4.32724,  45:-4.32418,
                 44:-3.68089,  43: 4.55719,  42: 5.44652,  41: 8.26515,  40:-0.07779,  39:-0.36399,  38:-2.86613,  37:-0.16650,
                 36: 0.15669,  35: 4.04720,  34: 0.72739,  33:-0.06710,  32:-3.48292,  31: 1.87403,  30:-3.25170,  29: 1.94099,
                 28: 3.22322,  27:-2.97148,  26:-0.52308,  25: 3.99219,  24: 1.04858,  23:-4.05428,  22:-4.07215,  21:-6.70373,
                 20: 2.42251,  19: 0.56989,  18: 4.79405,  17: 6.64290,  16:-0.58999,  15:-4.11650,  14: 0.48451,  13: 1.52925,
                 12:-1.91647,  11:-1.38501,  10: 0.78683,   9:-3.42637,   8: 0.04470,   7:-0.62451,   6:-2.67713,   5: 1.85429,
                  4:-2.08300,   3:-2.97556,   2:-1.02248,   1: 2.54494
   120 |      | 108:-1.10269, 107: 0.19891, 106:-2.24096, 105: 1.16875, 104: 0.10922, 103: 3.09031, 102:-2.29996, 101:-0.84032,
                100:-0.15450,  99:-1.10436,  98: 4.00918,  97: 1.84385,  96: 2.09426,  95: 0.64517,  94:-1.55084,  93: 1.89858,
                 92: 2.39345,  91:-3.83209,  90: 2.14274,  89: 3.00926,  88:-7.43877,  87: 1.31270,  86: 1.12205,  85: 3.31879,
                 84:-1.86194,  83:-1.48430,  82:-1.72177,  81:-0.97632,  80:-3.04076,  79: 3.22756,  78: 1.63892,  77:-1.00408,
                 76: 2.11113,  75:-2.84062,  74: 2.20802,  73: 1.23183,  72:-3.28971,  71: 3.66233,  70:-0.22789,  69: 3.68463,
                 68: 1.71653,  67:-0.73503,  66:-2.24111,  65: 1.90609,  64:-6.99793,  63:-1.49507,  62: 0.71708,  61: 0.77540,
                 60: 3.56915,  59:-1.59845,  58:-3.10384,  57:-2.64280,  56:-4.67916,  55:-5.32383,  54: 1.04370,  53: 2.64716,
                 52:-0.31894,  51:-4.81555,  50:-6.64109,  49:-3.89667,  48:-0.82599,  47: 0.98609,  46:-0.90207,  45:-0.78830,
                 44: 0.64235,  43:-1.56602,  42:-5.80940,  41:-2.54756,  40: 2.41123,  39:-0.73686,  38: 2.39222,  37: 3.05391,
                 36: 2.22087,  35: 3.96978,  34: 0.57716,  33:-4.05057,  32: 0.89101,  31: 1.58811,  30: 0.33748,  29: 1.11948,
                 28: 5.82443,  27: 5.58503,  26:10.07805,  25: 2.16376,  24: 3.40541,  23:-1.95611,  22: 0.63715,  21:-0.46646,
                 20:-1.47771,  19: 1.62100,  18: 1.88264,  17: 1.60816,  16:-6.33252,  15:-0.75388,  14: 2.48566,  13: 7.80579,
                 12: 5.20985,  11: 6.01504,  10: 1.41495,   9:-1.21773,   8: 0.62802,   7: 2.06643,   6: 4.45979,   5: 1.40288,
                  4:-2.44253,   3:-0.65557,   2: 0.99201,   1: 2.64171
   121 |      | 108: 4.41561, 107:-1.58460, 106:-1.03175, 105:-2.91080, 104: 3.34207, 103:-2.69590, 102: 4.58158, 101: 4.80899,
                100: 3.91561,  99: 5.13867,  98:-5.07794,  97:-0.51072,  96:-3.32382,  95: 2.63580,  94: 0.92578,  93: 2.68230,
                 92: 1.16942,  91: 3.37380,  90:-1.34473,  89: 0.55475,  88:-2.32689,  87: 0.31818,  86:-0.50573,  85: 0.81059,
                 84: 4.06323,  83:-3.79225,  82: 4.64930,  81:-2.13355,  80:-1.17724,  79:-3.31212,  78: 0.33418,  77: 3.06433,
                 76: 4.01125,  75: 2.76343,  74: 1.15168,  73:-0.34194,  72: 2.20258,  71: 4.66452,  70:-1.42643,  69: 2.07308,
                 68:-2.42476,  67: 0.58054,  66: 2.57628,  65: 1.55925,  64:-0.20838,  63:-3.14462,  62: 1.37410,  61:-2.37042,
                 60: 1.15799,  59: 2.47224,  58: 0.44552,  57: 2.38148,  56: 6.42341,  55: 3.29490,  54:-4.44589,  53:-1.06568,
                 52: 0.03680,  51: 5.94395,  50: 5.91600,  49:-1.46938,  48:-4.34939,  47:-1.94073,  46:-1.44215,  45:-3.34231,
                 44:-3.90579,  43:-1.50971,  42:-1.09044,  41:-2.49203,  40:-1.31483,  39: 0.83532,  38:-5.71348,  37:-5.38533,
                 36:-0.64746,  35:-3.76797,  34: 1.65621,  33: 1.51869,  32:-3.20922,  31:-3.28183,  30:-1.87715,  29:-3.93138,
                 28:-3.16670,  27:-3.63013,  26:-2.39441,  25:-0.33022,  24:-3.29257,  23:-7.03956,  22:-1.72607,  21:-2.21906,
                 20: 7.51719,  19: 2.74706,  18:-0.91715,  17: 0.64374,  16: 2.93853,  15: 1.21209,  14:-5.33237,  13:-6.42603,
                 12:-1.88723,  11: 7.99697,  10: 9.54348,   9:-3.75411,   8: 5.65154,   7:-2.57377,   6:-3.11848,   5:-3.77738,
                  4:-2.50832,   3:-0.40752,   2:-3.07770,   1: 5.11066
   122 |      | 108:-3.10674, 107:-0.47104, 106:-4.22353, 105: 2.99429, 104: 2.62672, 103:-2.57788, 102:-5.21070, 101:-0.56799,
                100:-2.18658,  99:-3.36647,  98:-1.27623,  97:-3.34543,  96:-0.01977,  95: 0.45393,  94:-0.14109,  93:-1.58465,
                 92:-0.78559,  91:-1.76607,  90: 5.80224,  89: 3.51538,  88: 1.74117,  87: 2.49683,  86: 1.23706,  85:-0.98416,
                 84: 0.11641,  83: 1.83139,  82:-5.49849,  81:-0.62610,  80: 3.87585,  79: 0.33992,  78:-8.09253,  77:-1.25406,
                 76: 0.43148,  75:-2.12658,  74:-3.47908,  73:-5.76096,  72:-0.14840,  71:-2.35249,  70: 1.51788,  69: 3.43725,
                 68:-1.07836,  67:-0.87636,  66: 2.78376,  65: 4.45330,  64: 2.00472,  63: 1.79551,  62: 2.43321,  61: 0.91516,
                 60: 3.45931,  59: 5.67964,  58:-2.44955,  57:-1.03072,  56: 0.20363,  55: 1.14855,  54: 2.62306,  53: 4.31238,
                 52: 1.12094,  51:-0.39412,  50: 4.94339,  49: 1.60954,  48:-0.22350,  47:-2.69330,  46: 1.15468,  45: 4.66390,
                 44: 2.93355,  43: 5.25284,  42: 4.27629,  41: 3.24629,  40: 1.93344,  39: 1.54779,  38:-3.28212,  37:-1.72766,
                 36:-1.55273,  35:-1.94248,  34: 1.62176,  33: 0.02435,  32:-2.60454,  31:-0.54669,  30: 2.69449,  29:-3.38072,
                 28:-0.82386,  27:-2.91937,  26:-5.48954,  25:-2.13356,  24:-1.88020,  23:-1.79393,  22: 2.01359,  21: 0.47132,
                 20:-3.71132,  19:-8.22898,  18:-1.64517,  17: 2.28521,  16:-6.39816,  15:-4.96464,  14:-1.92429,  13:-1.61802,
                 12:-2.24730,  11: 3.12312,  10: 4.53351,   9: 0.48331,   8:-1.06271,   7:-3.81280,   6: 1.54932,   5: 1.51402,
                  4:-2.43549,   3: 0.60283,   2: 3.37937,   1:-0.98388
   123 |      | 108: 5.76926, 107: 0.95732, 106: 3.09069, 105: 3.50400, 104: 1.72460, 103:-3.01220, 102:-3.16135, 101:-3.27063,
                100: 0.41172,  99:-0.52402,  98: 0.13822,  97:-1.15216,  96:-7.81984,  95:-2.12121,  94:-7.41721,  93:-1.33926,
                 92: 8.44455,  91: 0.94823,  90:-1.34084,  89:-4.82288,  88:-0.39315,  87: 2.00614,  86: 6.71317,  85: 0.04360,
                 84:-3.23582,  83:-1.87339,  82: 3.08528,  81: 2.29859,  80: 4.03295,  79:-2.46209,  78: 0.58836,  77:-1.12267,
                 76:-1.11129,  75: 0.63322,  74:-4.63503,  73: 2.78911,  72:-5.40844,  71: 1.60232,  70:-3.41832,  69:-2.46163,
                 68: 0.45374,  67: 2.23696,  66:-3.60843,  65:-7.28889,  64: 2.52826,  63:-2.45940,  62: 4.02605,  61:-0.65955,
                 60:-0.29554,  59:-3.37057,  58: 0.27572,  57:-2.07964,  56:-3.09880,  55:-0.96964,  54: 3.04090,  53: 1.95820,
                 52: 3.95209,  51: 2.83700,  50:-0.11394,  49:-4.06030,  48:-0.70456,  47:-0.24060,  46: 0.08849,  45:-1.26467,
                 44: 0.20570,  43: 0.11765,  42:-3.58754,  41:-4.12400,  40:-0.37926,  39: 0.54175,  38:-2.27364,  37:-0.33646,
                 36:-0.36603,  35: 1.40545,  34: 0.57473,  33: 3.20535,  32: 3.95673,  31: 0.09876,  30:-1.61342,  29:-3.04625,
                 28: 1.16814,  27: 1.17048,  26:-1.87412,  25:-1.57272,  24: 2.13819,  23:-0.75257,  22: 2.73028,  21:-0.66400,
                 20:-2.28975,  19:-1.16562,  18:-0.46965,  17: 2.50749,  16: 5.69280,  15: 4.35522,  14:-7.54698,  13:-4.71443,
                 12:-2.92099,  11:-4.37545,  10: 0.09175,   9:-0.39971,   8: 1.52119,   7: 5.89452,   6: 3.64877,   5: 0.55433,
                  4:-1.25295,   3:-3.16697,   2:-0.75769,   1:-2.13284
   124 |      | 108: 5.80983, 107: 2.09274, 106: 4.23457, 105:-0.80123, 104:-0.48052, 103:-4.71872, 102: 6.15348, 101: 0.75247,
                100:-1.37273,  99:-1.03469,  98:-1.77718,  97: 0.93475,  96: 0.29847,  95:-5.04633,  94:-2.77923,  93:-2.65383,
                 92: 0.93684,  91:-2.10064,  90: 5.17426,  89:-4.07101,  88: 1.85222,  87: 8.68170,  86: 0.50485,  85:-4.20329,
                 84: 4.88784,  83: 4.74663,  82: 5.34025,  81:-0.17536,  80:-1.06526,  79:-5.64980,  78: 2.31600,  77: 2.53532,
                 76:-4.17722,  75:-8.91086,  74: 2.53878,  73:-2.15221,  72:-2.84533,  71:-0.84685,  70: 2.94366,  69:-3.12629,
                 68: 0.98063,  67:-1.05135,  66:-1.05102,  65: 0.37291,  64:-0.81061,  63: 1.62944,  62: 1.34336,  61:-0.07603,
                 60: 2.76098,  59: 2.22718,  58:-4.94683,  57:-6.92129,  56:-3.05778,  55:-2.55928,  54: 3.21511,  53: 9.61650,
                 52:-1.45810,  51:-0.49517,  50:-2.84107,  49:-3.82117,  48: 0.06688,  47: 8.10873,  46: 0.05156,  45: 1.95717,
                 44:-1.54734,  43: 0.86052,  42: 9.52801,  41: 0.71852,  40: 0.97863,  39: 4.80080,  38: 5.81244,  37: 0.56794,
                 36: 2.82333,  35:-0.61962,  34:-2.77281,  33:-4.14610,  32:-6.73018,  31: 6.28545,  30:-0.88771,  29:-1.59744,
                 28:-1.93737,  27:-0.87336,  26: 0.91467,  25: 2.92182,  24: 2.40422,  23:-0.80580,  22: 2.90358,  21: 6.16683,
                 20: 5.25014,  19:-0.16037,  18:-2.18343,  17: 0.06553,  16: 0.67158,  15: 0.40918,  14: 6.04253,  13: 0.06369,
                 12:-0.53659,  11: 0.11283,  10:-1.06591,   9:-3.54913,   8:-0.43941,   7:-0.68305,   6: 0.81787,   5:-0.57060,
                  4:-0.50219,   3: 3.04284,   2: 0.53141,   1:-1.06606
   125 |      | 108:-4.88889, 107: 1.76475, 106: 1.75566, 105: 4.48861, 104:-0.12675, 103: 4.43898, 102:-1.78619, 101:-2.23160,
                100: 1.72074,  99: 0.29776,  98: 0.59103,  97: 2.21773,  96: 3.75073,  95:-0.24837,  94:-0.02586,  93: 3.49476,
                 92:-0.73443,  91:-0.38952,  90:-6.22145,  89: 6.41144,  88: 0.29467,  87:-0.28375,  86: 0.12649,  85: 4.32974,
                 84:-3.57643,  83:-1.05944,  82: 4.54112,  81: 3.20986,  80:-4.57075,  79: 1.71839,  78:-0.33317,  77: 1.89566,
                 76: 4.66041,  75: 0.28298,  74: 0.68177,  73: 3.13614,  72: 3.76985,  71: 1.40050,  70:-1.42409,  69:-0.83367,
                 68:-3.22029,  67: 1.06087,  66:-3.72232,  65:-1.12408,  64:-0.33966,  63:-0.84510,  62: 2.39983,  61:-0.00263,
                 60: 4.98692,  59: 2.27890,  58:-5.93268,  57:-1.12457,  56: 4.05318,  55: 5.67461,  54: 2.23341,  53: 0.76308,
                 52:-0.97313,  51: 2.28021,  50: 5.91086,  49: 0.56899,  48: 1.82652,  47:-2.58272,  46:-0.65237,  45: 1.08527,
                 44:-5.06973,  43:-6.11043,  42: 2.20795,  41: 4.09032,  40:-1.25662,  39: 0.16989,  38: 2.75806,  37: 2.98265,
                 36:-6.54230,  35:-5.08652,  34:-0.85963,  33:-7.19292,  32:-4.03764,  31: 1.06924,  30:-6.37529,  29:-1.61709,
                 28:-0.45196,  27: 1.08903,  26: 0.77730,  25: 1.95934,  24:-3.17525,  23:-0.28896,  22:-1.73804,  21:-2.34969,
                 20: 7.56216,  19: 1.33877,  18:-4.45019,  17:-3.15471,  16:-3.75121,  15:-3.22145,  14: 9.56767,  13: 6.05536,
                 12: 1.80209,  11: 3.48762,  10: 1.82435,   9:-3.45346,   8: 0.19944,   7:-2.97985,   6:-3.34229,   5: 2.18793,
                  4:-0.58013,   3: 0.14486,   2:-7.35970,   1: 1.10861
   126 |      | 108:-0.37931, 107: 0.20297, 106: 2.66151, 105: 0.64755, 104: 1.48537, 103: 0.90383, 102: 2.13403, 101:-0.32126,
                100: 0.68410,  99: 1.68612,  98:-0.70059,  97:-1.88727,  96:-3.59155,  95: 0.49658,  94: 7.24458,  93:-3.06300,
                 92:-2.32433,  91: 0.00953,  90:-4.94290,  89:-6.25309,  88:-1.39317,  87: 3.40470,  86: 1.74355,  85: 2.44249,
                 84: 3.99592,  83:-3.03082,  82: 2.22670,  81: 5.88536,  80: 1.22635,  79:-0.47987,  78:-1.24259,  77:-1.80369,
                 76:-0.28255,  75: 2.32569,  74: 1.44795,  73: 0.56253,  72:-3.95193,  71: 0.66873,  70: 1.98393,  69:-0.42204,
                 68:-0.43384,  67:-4.51372,  66: 1.03263,  65: 0.46102,  64:-0.46629,  63:-3.35890,  62: 3.04858,  61:-0.27742,
                 60:-10.84237,  59:-8.52717,  58: 2.30969,  57: 2.26332,  56: 1.42095,  55: 7.55191,  54:-3.23782,  53:-0.61623,
                 52:-0.53786,  51: 1.27503,  50:-3.06522,  49:-4.42505,  48:-3.27911,  47: 0.27813,  46: 3.87818,  45: 3.38117,
                 44: 3.24101,  43: 0.58811,  42: 1.47629,  41:-0.07130,  40:-4.16977,  39:-5.42225,  38:-0.85127,  37: 3.60271,
                 36: 4.67227,  35: 5.02596,  34: 6.33145,  33: 2.02040,  32:-1.66372,  31: 5.47259,  30:-0.17130,  29:-0.57269,
                 28:-1.00168,  27:-1.53522,  26: 0.90574,  25: 1.69293,  24:-2.77153,  23:-2.01627,  22:-0.92649,  21:-2.19625,
                 20:-0.93548,  19: 2.51799,  18: 2.77678,  17:-2.94857,  16: 2.65262,  15: 3.03424,  14:-4.64894,  13:-5.58989,
                 12:-1.20564,  11:-0.19316,  10:-0.22261,   9: 1.46646,   8: 1.49985,   7: 0.32249,   6:-2.19485,   5:-1.64881,
                  4: 0.62185,   3: 1.51656,   2:-1.38300,   1: 3.03074
   127 |      | 108:-0.08494, 107: 3.05937, 106: 0.99344, 105: 1.62269, 104:-1.02310, 103:-0.38652, 102:-0.47827, 101:-2.28651,
                100:-1.87264,  99: 1.92102,  98: 1.83461,  97:-0.81760,  96: 2.68352,  95:-4.51769,  94: 0.67911,  93:-1.96438,
                 92: 4.67700,  91: 2.32280,  90:-0.12101,  89: 3.57236,  88: 0.53644,  87: 4.12681,  86:-3.38149,  85: 0.56059,
                 84: 0.28429,  83:-0.10938,  82:-0.38877,  81: 3.28641,  80: 1.92232,  79:-3.49961,  78:-1.30066,  77: 4.10608,
                 76: 2.18560,  75: 3.75478,  74: 4.14532,  73: 3.52388,  72:-0.07484,  71:-1.98727,  70: 1.88351,  69:-7.43466,
                 68: 0.80200,  67: 1.62516,  66: 6.32302,  65: 1.41381,  64: 4.76670,  63: 4.33049,  62:-5.38895,  61: 3.08838,
                 60: 4.15458,  59:-0.16709,  58:-1.64273,  57:-6.24139,  56:-1.13911,  55:-3.11089,  54:-3.14627,  53:-0.62229,
                 52:-3.00457,  51: 0.25115,  50: 0.00601,  49: 1.25032,  48:-3.88862,  47: 2.43478,  46: 2.78390,  45:-2.70893,
                 44:-1.47859,  43:-12.15008,  42:-4.70532,  41:-1.58648,  40:-0.80523,  39:-2.59420,  38:-2.59698,  37:-4.47999,
                 36:-3.35617,  35:-0.67593,  34:-2.43639,  33: 0.00183,  32: 0.49052,  31: 1.64614,  30: 0.78921,  29:-2.62209,
                 28:-5.91242,  27:-3.19576,  26: 0.65614,  25: 4.20638,  24: 2.81448,  23: 5.70768,  22:-0.21058,  21:-1.07758,
                 20: 0.24503,  19:-0.26907,  18:-3.59423,  17:-1.68651,  16:-1.26466,  15: 0.65903,  14:-1.25664,  13: 0.64321,
                 12: 0.82439,  11:-0.76093,  10: 0.81233,   9: 0.60722,   8: 0.89820,   7: 0.02977,   6: 0.44241,   5:-0.41784,
                  4:-0.72496,   3: 0.81465,   2: 1.05079,   1:-3.19140
   128 |      | 108: 3.14110, 107: 3.80824, 106:-1.17155, 105:-7.12235, 104: 4.52750, 103:-2.81890, 102:-2.22052, 101:-0.31124,
                100: 1.14662,  99:-2.59708,  98:-2.51699,  97: 1.25002,  96:-3.30755,  95:-1.75511,  94: 0.41443,  93:-1.03248,
                 92:-7.45923,  91: 1.47701,  90: 6.24789,  89:-2.52473,  88: 0.39482,  87:-3.01522,  86:-0.88431,  85:-1.97665,
                 84:-1.31671,  83: 0.92603,  82: 5.18705,  81:-2.38168,  80: 5.51650,  79: 1.43234,  78:-6.44710,  77:-1.72562,
                 76:-1.97831,  75:-2.08566,  74: 2.47297,  73:-1.15150,  72: 7.63848,  71:-0.01015,  70: 0.23058,  69:-4.38810,
                 68:-6.24126,  67:-4.16563,  66:-1.93649,  65:-1.37389,  64: 0.00588,  63:-0.05113,  62: 1.09470,  61: 2.55220,
                 60: 1.92191,  59:-1.31245,  58:-1.85909,  57:-0.43600,  56:-0.18805,  55: 1.34710,  54:-0.46249,  53: 3.04339,
                 52: 2.05392,  51: 1.22137,  50:-2.05860,  49:-9.56118,  48:-5.91768,  47:-3.88698,  46: 2.63291,  45: 4.21240,
                 44: 2.52703,  43: 2.42360,  42:-0.52149,  41:-1.18958,  40: 0.76976,  39: 1.84238,  38:-2.00734,  37:-2.64807,
                 36: 0.25795,  35: 0.65944,  34:-1.58115,  33: 1.28769,  32:-5.14815,  31:-0.18403,  30:-4.17169,  29: 1.81652,
                 28: 1.25424,  27:-0.72925,  26: 1.61529,  25: 2.72640,  24:-3.60195,  23: 0.53859,  22: 2.12497,  21:-1.97484,
                 20: 3.26693,  19:-6.26464,  18: 0.01564,  17: 6.05807,  16:-1.42743,  15:-2.37340,  14:-0.42580,  13: 4.00593,
                 12: 4.53899,  11: 1.55689,  10: 5.22986,   9: 0.31181,   8: 0.52065,   7:-4.86883,   6:-5.31538,   5:-5.09875,
                  4:-3.50871,   3: 7.40671,   2: 2.34513,   1: 7.03759
   129 |      | 108: 3.50593, 107:-2.56580, 106: 1.09418, 105: 1.60756, 104:-0.65088, 103: 0.12732, 102: 0.32462, 101: 3.75554,
                100: 6.20723,  99: 0.93293,  98: 4.68978,  97:-5.19625,  96:-0.24470,  95:-0.20422,  94:-6.25371,  93: 0.92842,
                 92:-1.31484,  91:-4.32023,  90:-4.67666,  89: 1.41110,  88:-3.23023,  87:-4.15795,  86: 0.38251,  85:-0.48038,
                 84: 1.87124,  83: 0.58802,  82: 5.74510,  81: 0.40104,  80:-2.21772,  79: 2.14177,  78: 3.13970,  77: 1.91652,
                 76: 6.34698,  75:-5.12586,  74:-4.23667,  73: 3.64830,  72: 0.46734,  71: 0.59474,  70:-3.59913,  69: 0.05042,
                 68:-4.08359,  67:-1.37908,  66:-0.98513,  65:-2.65718,  64:-2.29858,  63:-3.40123,  62:-1.19792,  61:-0.36892,
                 60: 2.19218,  59: 2.42610,  58: 2.61988,  57: 3.53216,  56:-0.97880,  55:-5.71536,  54:-6.39814,  53:-0.26189,
                 52: 3.27027,  51: 1.85883,  50:-3.54634,  49:-1.17335,  48:-2.19251,  47: 0.89144,  46: 1.22581,  45:-0.61599,
                 44:-4.60816,  43:-7.43265,  42:-2.89778,  41: 2.41373,  40:-4.26495,  39: 0.32658,  38: 1.34864,  37: 2.87107,
                 36:-0.01164,  35:-3.96338,  34:-5.97510,  33:-0.34630,  32:-0.89341,  31:-3.51302,  30:-3.51374,  29: 1.73450,
                 28: 4.38864,  27:-1.83943,  26: 2.06139,  25:-1.12627,  24:-2.10126,  23:-4.92682,  22:-1.75847,  21: 0.81385,
                 20:-0.03054,  19: 4.97336,  18: 3.02609,  17:-0.28405,  16:-5.30667,  15:-4.19013,  14:-0.03599,  13: 1.58286,
                 12: 4.39172,  11: 2.21799,  10:-3.29322,   9:-2.63532,   8: 1.72687,   7:-0.99583,   6:-2.43484,   5:-0.49937,
                  4:-1.76469,   3: 3.71099,   2: 2.01929,   1:-0.68490
   130 |      | 108:-4.16769, 107:-0.05459, 106:-2.59721, 105: 2.37374, 104:-3.18344, 103: 1.83461, 102:-2.69235, 101:-2.24573,
                100:-1.00226,  99:-2.44287,  98: 2.03225,  97:-0.43990,  96:-0.80800,  95: 4.45436,  94: 3.22962,  93: 2.26083,
                 92: 1.02161,  91:-0.43750,  90:-6.58436,  89: 3.43618,  88:-3.56617,  87:-2.51798,  86:-0.50083,  85: 1.99497,
                 84:-1.41508,  83:-1.82496,  82: 0.57961,  81:-0.31488,  80: 0.52941,  79: 1.72098,  78:-2.73411,  77:-0.92309,
                 76: 0.33139,  75: 2.09811,  74: 2.59169,  73:-1.47725,  72: 1.35009,  71:-0.72517,  70: 0.43282,  69: 0.90560,
                 68: 2.05428,  67:-2.43051,  66: 1.55737,  65:-4.22798,  64:-1.13338,  63: 1.80363,  62:-2.50106,  61: 6.27447,
                 60: 2.02433,  59: 1.43210,  58: 2.10653,  57:-3.48726,  56:-2.67291,  55: 2.22073,  54: 1.40496,  53:-4.08701,
                 52:-5.17034,  51:-1.50691,  50:-4.40354,  49:-5.96283,  48:-0.38382,  47: 4.48882,  46: 4.43259,  45: 2.76107,
                 44: 5.36324,  43: 3.78465,  42:-2.00602,  41:-4.35727,  40: 0.64687,  39: 2.08694,  38: 1.37069,  37:-0.41275,
                 36:-4.89741,  35:-1.51984,  34: 0.77640,  33: 2.94792,  32: 0.79176,  31:-7.54104,  30: 1.74900,  29: 1.54406,
                 28: 5.52338,  27: 4.08244,  26: 3.31798,  25:-5.37145,  24:-5.49912,  23: 1.46596,  22: 0.62389,  21:-0.85960,
                 20: 7.17482,  19: 2.72494,  18: 1.17580,  17:-1.59038,  16:-4.24320,  15: 3.35110,  14: 1.87975,  13:-0.70902,
                 12:-1.28037,  11: 0.84960,  10:-0.93860,   9:-2.23362,   8:-6.46958,   7:-1.19460,   6: 2.55715,   5: 2.36613,
                  4: 3.11038,   3: 0.43992,   2:-1.67156,   1:-1.29316
   131 |      | 108:-7.80308, 107: 0.38497, 106:-0.11008, 105:-4.91828, 104: 0.49708, 103:-2.53740, 102:-1.43613, 101:-3.10493,
                100:-6.73587,  99: 3.79299,  98: 0.58258,  97: 3.52174,  96: 2.03790,  95:-2.85740,  94:-7.10653,  93: 1.17612,
                 92: 3.96977,  91:-0.72630,  90:-1.87973,  89: 2.56704,  88: 7.50400,  87:-2.25938,  86: 3.18969,  85:-5.39334,
                 84:-4.72444,  83:-3.14131,  82: 1.70294,  81: 4.61473,  80: 0.67696,  79: 2.06222,  78:-3.22624,  77:-1.25618,
                 76:-6.11568,  75:-1.07244,  74: 1.32376,  73:-0.97565,  72:-1.78958,  71: 1.30312,  70:-6.92017,  69:-3.97477,
                 68:-0.54856,  67: 1.73301,  66: 3.09337,  65: 5.96002,  64: 8.30273,  63: 3.43924,  62: 4.37820,  61:-1.66797,
                 60:-1.08217,  59:-4.49378,  58: 0.80831,  57: 2.17288,  56: 5.92340,  55: 7.67848,  54:-0.28776,  53:-6.30082,
                 52:-2.32805,  51: 0.21218,  50: 0.85899,  49: 6.35726,  48:-0.85594,  47: 3.04597,  46:-2.23334,  45:-3.14583,
                 44:-2.15279,  43: 1.26619,  42: 3.94735,  41: 1.69417,  40: 2.73209,  39: 6.47726,  38: 2.35384,  37:-4.67410,
                 36:-2.38682,  35:-0.92841,  34: 0.22227,  33: 5.79429,  32: 0.02206,  31:-2.82863,  30: 1.59960,  29:-0.96718,
                 28:-1.85077,  27:-1.67137,  26:-2.01702,  25: 0.87143,  24:-0.04405,  23:-1.07286,  22:-0.04307,  21:-1.79838,
                 20:-2.65634,  19:-2.54082,  18:-2.19379,  17:-3.28238,  16:-2.13020,  15:-1.22785,  14: 4.83846,  13:-0.00146,
                 12:-0.84148,  11:-5.24139,  10: 3.83689,   9:-1.00217,   8:-3.77037,   7: 0.30342,   6: 6.07495,   5: 5.43784,
                  4:-1.66003,   3:-3.60742,   2: 1.50953,   1: 0.01102
   132 |      | 108:-1.95154, 107:-1.64320, 106: 2.23503, 105: 2.83007, 104:-2.58180, 103: 2.95555, 102: 2.16015, 101:-0.53736,
                100:-1.62599,  99:-0.57800,  98:-2.57140,  97:-1.80572,  96: 5.43139,  95: 3.72028,  94:-3.77635,  93:-1.00072,
                 92: 2.07844,  91:-5.93766,  90: 0.41115,  89:-1.56852,  88: 1.68232,  87: 1.65942,  86: 3.11785,  85: 1.65745,
                 84: 2.26794,  83:-0.23448,  82: 0.64716,  81: 0.92450,  80: 0.09497,  79:-2.00419,  78: 1.69725,  77: 1.26767,
                 76:-1.49180,  75:-2.95780,  74:-1.56705,  73:-1.48221,  72: 0.33718,  71: 2.09568,  70: 2.11517,  69:-2.94330,
                 68:-0.25280,  67: 4.13576,  66: 2.13620,  65:-0.02439,  64:-0.18298,  63:-0.38293,  62: 2.20684,  61:-1.41917,
                 60:-1.33963,  59:-5.50527,  58:-6.40141,  57:-3.63433,  56:-2.56830,  55:-1.98399,  54:-6.24162,  53: 0.05908,
                 52:-3.44575,  51: 7.51871,  50: 8.15486,  49: 6.14201,  48: 6.61119,  47: 1.65943,  46:-4.96565,  45:-5.00544,
                 44: 2.89012,  43: 0.26398,  42:-6.77747,  41:-3.27732,  40: 1.67495,  39: 6.00389,  38: 6.05349,  37: 1.70514,
                 36: 3.43775,  35:-0.79136,  34: 5.85431,  33: 0.32172,  32: 2.32261,  31:-2.44434,  30: 5.02996,  29:-0.00506,
                 28:-10.76827,  27:-7.94872,  26:-1.44596,  25: 1.40314,  24: 6.26941,  23: 2.97645,  22: 3.25594,  21: 8.05589,
                 20:-4.08916,  19: 0.10361,  18:-1.22503,  17: 0.29461,  16: 4.11427,  15: 0.85777,  14: 0.07949,  13:-7.11140,
                 12:-1.04387,  11:-0.10626,  10:-4.50660,   9:-2.84753,   8:-3.37180,   7: 1.38150,   6: 4.22792,   5: 3.44840,
                  4:-6.39988,   3:-6.00411,   2:-3.02093,   1:-1.85373
   133 |      | 108: 2.46771, 107:-4.50044, 106: 0.12103, 105:-1.73952, 104:-1.37689, 103:-1.70991, 102: 1.17499, 101: 1.68686,
                100:-4.45623,  99: 1.24837,  98:-1.69956,  97: 1.96595,  96: 1.97238,  95: 0.23455,  94:-3.27291,  93: 4.32166,
                 92: 0.71660,  91:-1.48717,  90: 0.57099,  89: 3.55148,  88: 0.59513,  87: 0.58860,  86: 3.94423,  85: 2.51086,
                 84: 2.59045,  83:-1.21258,  82: 3.90052,  81:-5.39901,  80:-3.22310,  79:-2.61769,  78: 1.80603,  77: 1.09538,
                 76:-0.00717,  75: 3.92147,  74: 0.27568,  73: 3.01046,  72: 1.60823,  71:-3.30013,  70:-5.80100,  69: 2.52434,
                 68:-0.32778,  67: 0.02578,  66: 2.72402,  65: 2.94608,  64: 4.32597,  63: 2.13528,  62: 3.57722,  61: 1.48407,
                 60: 2.85926,  59: 6.48304,  58:-0.51311,  57: 0.16489,  56: 4.28506,  55: 6.57535,  54:-4.17367,  53:-8.90811,
                 52: 0.15345,  51:-0.74002,  50:-3.50147,  49: 0.70617,  48:-4.91704,  47:-3.18259,  46:-0.37284,  45:-4.42767,
                 44: 1.65081,  43: 6.02820,  42: 1.32121,  41:-4.56034,  40:-4.32364,  39:-0.38017,  38:-0.02653,  37: 0.63179,
                 36:-3.20290,  35:-4.32660,  34: 3.49171,  33: 5.49140,  32: 0.88371,  31:-7.47551,  30: 2.03472,  29: 0.45570,
                 28:-5.09585,  27:-5.54878,  26:-4.52995,  25:-3.24386,  24:-3.86916,  23: 2.36320,  22: 3.45862,  21:-0.31778,
                 20:-2.41037,  19:-6.54958,  18:-2.64586,  17:-0.99268,  16: 2.35624,  15: 2.73881,  14: 1.59947,  13:-0.26266,
                 12:-1.62468,  11:-1.07004,  10: 2.10272,   9:-5.54829,   8:-3.72354,   7: 3.36141,   6: 6.31346,   5: 4.61670,
                  4:-2.43557,   3:-5.63514,   2:-2.18637,   1:-4.43199
   134 |      | 108: 1.55329, 107:-0.20271, 106:-2.78092, 105:-3.23818, 104: 7.15873, 103: 0.44184, 102:-2.17759, 101: 0.88022,
                100: 2.92561,  99: 0.51535,  98:-1.93569,  97:-0.53319,  96: 5.11977,  95:-1.78557,  94:-4.04567,  93:-1.99503,
                 92:-1.02595,  91: 1.46630,  90:-2.40251,  89:-2.70544,  88: 0.21464,  87: 3.56367,  86: 1.86000,  85: 3.84517,
                 84:-2.43946,  83: 1.35926,  82:-3.37606,  81:-2.42233,  80: 3.79133,  79:-0.37608,  78: 1.05149,  77: 1.54637,
                 76:-0.53788,  75:-0.94401,  74: 1.34530,  73: 1.23611,  72: 0.15968,  71: 3.24372,  70:-1.70736,  69: 2.14406,
                 68:-2.49467,  67:-1.38228,  66:-7.39282,  65:-0.98554,  64: 4.80942,  63: 0.65907,  62:-2.13112,  61: 0.82800,
                 60:-2.56134,  59:-6.93982,  58:-12.65178,  57: 1.32354,  56: 5.04836,  55:-2.81064,  54:-5.12243,  53:-4.96759,
                 52: 3.51018,  51:-2.53568,  50:-2.02184,  49:-0.32186,  48: 2.88553,  47: 0.45435,  46:-2.94100,  45:-3.67985,
                 44:-4.12700,  43:-6.64744,  42:-2.98058,  41:-2.35571,  40:-2.20520,  39: 4.33690,  38: 4.71284,  37: 4.87183,
                 36:-2.53351,  35: 0.39708,  34: 2.21161,  33:-2.72510,  32:-0.86025,  31: 0.54781,  30: 0.94986,  29:-0.88370,
                 28: 4.48786,  27: 0.51449,  26: 2.07169,  25: 2.09066,  24:-0.56132,  23: 1.99026,  22: 1.35136,  21:-0.70081,
                 20: 5.61491,  19: 1.60990,  18: 1.65621,  17:-1.21838,  16:-5.04998,  15:-4.98094,  14: 5.54550,  13:11.33792,
                 12: 5.15098,  11:-2.98705,  10: 5.06911,   9:-0.22738,   8: 6.70723,   7: 0.55080,   6:-1.02008,   5:-0.97637,
                  4: 3.30270,   3:-0.76794,   2:-1.01691,   1: 4.91118
   135 |      | 108:-1.16737, 107: 0.02272, 106:-1.83377, 105: 0.53780, 104: 0.75555, 103:-0.08200, 102: 0.94377, 101:-2.78170,
                100: 3.58455,  99:-0.03056,  98:-0.59053,  97: 0.05234,  96: 1.50726,  95: 0.71684,  94:-3.04522,  93: 3.42506,
                 92:-5.93837,  91: 1.66457,  90: 2.01680,  89: 0.91303,  88: 3.31548,  87:-1.03613,  86: 3.41341,  85: 2.39734,
                 84: 2.44911,  83: 0.25858,  82:-1.74582,  81:-0.33221,  80: 0.15405,  79:-3.39260,  78:-0.89413,  77:-1.27757,
                 76: 0.66930,  75: 4.38327,  74:-1.21189,  73:-6.42508,  72: 0.67132,  71:-0.44139,  70: 2.42929,  69:-1.11436,
                 68: 3.63875,  67: 2.81446,  66: 0.35222,  65: 5.79454,  64:-2.25413,  63: 0.70725,  62: 2.82497,  61:-4.09523,
                 60: 2.64266,  59: 5.70767,  58: 5.18501,  57:-1.69452,  56:-5.09446,  55:-10.16270,  54:-8.48602,  53:-0.92150,
                 52: 2.43642,  51:-2.09215,  50:-0.05021,  49: 3.97838,  48: 3.56111,  47: 1.58700,  46:-0.17505,  45: 1.94514,
                 44:-5.26508,  43:-8.11347,  42:-3.68795,  41: 1.30968,  40:-1.29438,  39:-1.00875,  38:-1.68706,  37:-0.62431,
                 36: 1.54513,  35: 0.75926,  34:-5.01376,  33:-6.83865,  32:-3.44184,  31: 3.04785,  30:-1.71330,  29:-2.33243,
                 28: 3.29280,  27: 0.43637,  26: 4.72618,  25:-0.73219,  24:-2.80221,  23:-1.52226,  22: 0.47722,  21: 2.84181,
                 20:-2.37705,  19:-1.44161,  18:-0.55970,  17: 0.53496,  16:-3.97795,  15:-0.82937,  14: 0.78135,  13: 2.45560,
                 12: 1.85678,  11:-3.78870,  10: 0.14944,   9: 5.22489,   8: 0.62460,   7:-4.74994,   6:-6.13783,   5:-3.58432,
                  4: 1.91955,   3:-0.71412,   2: 0.87589,   1:-8.69349
   136 |      | 108: 4.42664, 107: 1.90211, 106: 3.74216, 105: 5.47288, 104:-1.04096, 103:-2.23840, 102:-1.50103, 101:-2.25108,
                100:-1.88647,  99:-1.96725,  98: 1.31599,  97: 2.56154,  96: 4.74790,  95:-3.48183,  94:-3.99321,  93: 0.03110,
                 92:-0.05961,  91: 0.74707,  90: 2.09823,  89:-2.10238,  88:-1.65705,  87:-3.50513,  86: 0.22328,  85:-1.89417,
                 84: 5.85712,  83: 1.18077,  82: 6.40081,  81: 1.88222,  80:-3.68513,  79: 2.20312,  78: 1.49010,  77: 1.63640,
                 76: 0.34203,  75:-1.72927,  74:-1.81298,  73: 0.08405,  72:-2.88441,  71:-5.08853,  70: 1.71466,  69:-2.10643,
                 68: 2.05882,  67:-2.58589,  66: 2.67529,  65:-0.83746,  64:-0.16611,  63:-1.20283,  62:-1.70314,  61: 5.93853,
                 60: 1.87531,  59: 1.42970,  58: 4.08729,  57: 4.59649,  56:-0.32686,  55: 5.51050,  54: 1.76026,  53:-2.48367,
                 52:-2.35485,  51: 1.26412,  50: 3.53337,  49: 2.99914,  48:-0.77596,  47:-2.71609,  46: 0.48761,  45: 3.83651,
                 44: 2.84844,  43:-0.60931,  42:-6.85322,  41:-6.16018,  40:-1.42856,  39:-0.06651,  38:-1.83343,  37:-3.05597,
                 36:-4.65250,  35:-1.23618,  34: 5.40489,  33:11.10071,  32: 6.58561,  31:-1.83564,  30:-1.94150,  29:-1.94212,
                 28: 0.61054,  27: 0.47653,  26: 1.61085,  25: 2.01136,  24: 3.44434,  23: 4.13269,  22:-2.60403,  21:-1.18557,
                 20: 1.61226,  19:-0.50182,  18:-3.29767,  17:-0.78256,  16: 1.70318,  15: 4.12795,  14:-3.43413,  13: 0.87658,
                 12: 0.91564,  11: 4.07104,  10: 1.98124,   9: 0.84353,   8: 4.05140,   7: 1.41957,   6: 0.07100,   5:-0.19010,
                  4:-1.63669,   3:-2.96893,   2:-0.51587,   1: 2.90001
   137 |      | 108: 2.09257, 107:-9.19668, 106:-4.72590, 105:-12.63277, 104:-1.08437, 103:-4.27108, 102:-2.21298, 101: 3.84831,
                100:-1.31079,  99:-0.86885,  98: 0.07749,  97: 2.63559,  96: 2.81778,  95: 2.88186,  94:-0.95422,  93: 2.55374,
                 92:-4.48140,  91:-1.14703,  90: 3.90847,  89:-3.77944,  88: 2.93931,  87:-4.28975,  86: 4.60404,  85:-8.73235,
                 84:-0.74418,  83:-2.36717,  82:-6.80280,  81:-6.98188,  80:-3.25633,  79:-2.86518,  78:-2.33481,  77:-0.68825,
                 76: 0.77041,  75:-0.98111,  74:-0.78462,  73:-0.23302,  72: 2.60370,  71: 1.42052,  70: 1.27880,  69: 1.56629,
                 68:-5.69581,  67: 2.89258,  66:-2.78478,  65: 0.67856,  64: 1.30399,  63: 1.93265,  62:-0.83700,  61:-1.19031,
                 60: 2.47486,  59:-0.62988,  58:-2.87327,  57: 0.46561,  56: 0.01467,  55:-1.59548,  54:-3.45893,  53:-8.26596,
                 52:-4.32448,  51: 2.39341,  50: 3.58564,  49: 2.23573,  48: 4.12070,  47:-1.72020,  46:-5.98768,  45:-0.53705,
                 44: 2.03998,  43: 2.17524,  42: 6.54035,  41:-3.00351,  40:-0.02716,  39:-1.21052,  38: 1.94822,  37: 0.41821,
                 36:-3.05018,  35: 0.70925,  34: 2.16815,  33:-5.42368,  32:-0.12638,  31: 1.23044,  30: 3.22851,  29: 1.36975,
                 28:-0.62393,  27: 0.42979,  26:-0.19803,  25: 2.37149,  24: 1.57747,  23: 2.18866,  22: 2.33792,  21: 6.61251,
                 20:-1.28948,  19:-5.66939,  18: 0.29325,  17: 1.52553,  16: 2.44997,  15: 0.91001,  14:-1.99712,  13:-0.96344,
                 12: 0.33192,  11: 0.52016,  10: 6.12875,   9: 0.50030,   8:-3.74627,   7:-2.35050,   6:-4.12699,   5:-5.38362,
                  4:-3.11054,   3: 4.98701,   2: 2.56373,   1: 8.09503
   138 |      | 108: 4.89866, 107:-2.28063, 106:-0.68859, 105: 2.16817, 104:-2.47766, 103:-0.25713, 102:-3.33102, 101:-1.34707,
                100:-0.52323,  99: 4.62615,  98: 0.87120,  97: 1.09386,  96:-1.86170,  95:-4.31035,  94: 5.34219,  93: 3.42970,
                 92: 3.17636,  91: 2.12410,  90:-2.85433,  89:-2.78039,  88:-7.04008,  87:-5.94463,  86:-1.79028,  85:-3.88526,
                 84:-4.99466,  83: 1.97689,  82:-0.95349,  81:-2.35692,  80:-0.31010,  79: 2.79160,  78:-1.48471,  77: 1.37173,
                 76: 0.93228,  75: 6.58295,  74:-1.58120,  73: 3.25694,  72: 2.54587,  71: 0.47025,  70: 1.39441,  69: 1.72084,
                 68:-4.62516,  67:-1.00400,  66: 0.60775,  65:-7.02053,  64:-0.29064,  63:-7.01645,  62:-1.96792,  61:-1.23968,
                 60: 6.78956,  59: 6.07925,  58: 3.34560,  57: 2.71630,  56: 2.03341,  55: 8.45998,  54:10.41334,  53:11.14232,
                 52: 0.43839,  51:-3.01087,  50:-1.74571,  49:-1.72478,  48:-2.40166,  47:-6.75799,  46:-3.07772,  45:-3.09801,
                 44:-2.91567,  43:-4.90506,  42: 1.57396,  41: 4.20417,  40: 2.74456,  39: 0.92869,  38: 1.13464,  37:-0.91996,
                 36: 0.00318,  35:-4.69034,  34:-4.22819,  33:-0.58999,  32: 0.36325,  31:-0.41613,  30:-6.58974,  29:-1.16313,
                 28:-0.57060,  27: 2.28505,  26: 2.15529,  25: 0.12011,  24:-2.54201,  23:-3.59407,  22:-4.23876,  21:-0.61401,
                 20:-1.70170,  19:-1.70186,  18: 0.32029,  17:-2.07249,  16: 4.66774,  15: 8.98021,  14: 5.02814,  13:-2.84636,
                 12:-3.31256,  11: 4.12108,  10: 2.54805,   9: 4.51344,   8: 0.60503,   7:-0.38365,   6:-3.42717,   5:-5.97279,
                  4:-1.11723,   3: 7.09714,   2: 3.49422,   1: 1.58441
   139 |      | 108: 2.16743, 107: 4.89602, 106: 7.28473, 105: 8.46483, 104: 6.52692, 103: 4.91909, 102:-1.31025, 101: 0.64958,
                100: 5.64668,  99: 1.21277,  98:-3.22844,  97:-6.97976,  96:-4.29611,  95:-1.94957,  94:-2.75875,  93:-2.89036,
                 92: 1.57192,  91:-2.14604,  90: 2.28705,  89: 5.56119,  88:-1.41423,  87:-1.30139,  86: 4.06075,  85:-0.63883,
                 84:-4.52231,  83: 6.40686,  82: 5.50703,  81: 6.16283,  80: 1.32416,  79: 4.67262,  78:-3.75441,  77:-1.07180,
                 76: 1.30432,  75: 5.83244,  74:-0.52339,  73:-3.93714,  72:-0.14864,  71: 1.40721,  70:-1.20587,  69:-3.80661,
                 68: 1.74309,  67: 1.23260,  66:-5.26143,  65:-4.15154,  64:-5.80841,  63:-1.08573,  62:-2.21666,  61:-0.84426,
                 60: 2.01017,  59:-2.04866,  58: 5.07642,  57: 3.49701,  56: 3.76471,  55: 2.23385,  54: 4.35495,  53:-4.16844,
                 52: 1.40433,  51:-2.27262,  50: 4.44786,  49: 3.29567,  48:-2.42710,  47:-5.00866,  46: 0.98066,  45:-1.69560,
                 44:-5.56299,  43:-6.66939,  42: 0.32385,  41:-2.63636,  40: 0.74709,  39: 1.82051,  38: 1.54266,  37:-2.21191,
                 36:-2.26465,  35:-2.74144,  34:-0.84512,  33: 3.10905,  32:-1.31175,  31: 0.44099,  30: 1.13446,  29: 3.14687,
                 28:-1.78623,  27:-2.47186,  26: 2.85174,  25: 1.81553,  24: 0.66649,  23: 1.09141,  22:-1.67008,  21: 0.36351,
                 20: 0.33088,  19: 3.16538,  18:-3.45553,  17:-5.59894,  16: 3.16245,  15:-0.22760,  14: 0.78560,  13: 3.56694,
                 12:-0.65053,  11: 5.23449,  10:-2.37562,   9:-0.99672,   8:-1.02879,   7:-3.28745,   6:-1.63615,   5:-3.13490,
                  4:-0.21653,   3:-2.04673,   2: 3.71974,   1: 2.85263
   140 |      | 108: 4.67051, 107:-3.19252, 106: 0.99173, 105:-0.01579, 104: 0.35824, 103:-1.74676, 102: 2.00992, 101: 5.88116,
                100: 2.35341,  99: 3.45151,  98: 2.23446,  97: 1.67135,  96:-0.64205,  95: 3.81042,  94:-4.96341,  93: 3.31545,
                 92:-3.58714,  91: 1.14212,  90: 3.21924,  89:-0.91028,  88: 5.78132,  87:-3.62068,  86:-0.80717,  85:-2.34868,
                 84: 4.00940,  83: 4.30154,  82: 3.84481,  81:-3.88318,  80:-1.24864,  79:-0.95878,  78:-0.17039,  77: 3.23237,
                 76: 2.62946,  75: 0.37096,  74:-1.43718,  73: 2.36519,  72: 0.37376,  71: 0.14208,  70: 3.60425,  69: 4.14445,
                 68: 3.19670,  67:-2.26911,  66: 3.03234,  65: 2.99176,  64: 0.36530,  63:-0.95421,  62:-3.76167,  61:-2.63560,
                 60:-1.45765,  59: 2.05958,  58: 2.10300,  57: 7.69989,  56: 6.40604,  55: 3.40648,  54:-6.83044,  53:-10.30310,
                 52:-9.96112,  51:-1.40077,  50:-3.81020,  49:-4.53655,  48:-3.16682,  47: 1.14006,  46: 3.17118,  45:-1.38182,
                 44: 0.14673,  43: 0.78914,  42:-5.35471,  41: 1.36377,  40:-4.34147,  39:-0.78414,  38:-4.31450,  37:-3.52805,
                 36:-1.23285,  35: 3.15565,  34: 1.88990,  33: 3.37513,  32:-0.11940,  31:-4.81257,  30: 1.74579,  29:-3.23403,
                 28: 0.63848,  27: 0.50410,  26: 3.18951,  25: 2.46193,  24: 0.51449,  23:-1.67865,  22:-3.73329,  21:-2.87831,
                 20: 4.28902,  19: 0.25814,  18:-2.57029,  17:-1.37300,  16: 4.05420,  15: 8.98664,  14: 0.22173,  13:-6.06593,
                 12:-3.04739,  11: 3.36026,  10: 0.27533,   9:-2.03616,   8:-3.52703,   7:-0.35404,   6: 6.56972,   5: 1.93429,
                  4: 0.95532,   3:-4.39365,   2:-3.11129,   1:-0.09535
   141 |      | 108: 3.19877, 107: 6.49132, 106:-5.48262, 105:-0.54571, 104:-5.73504, 103:-1.91110, 102: 0.84427, 101: 1.02550,
                100: 5.27428,  99:-1.49464,  98: 3.84329,  97: 2.30779,  96: 1.44612,  95:-5.70242,  94: 0.28251,  93: 1.13246,
                 92: 4.79877,  91: 2.19882,  90:-1.24487,  89: 1.58746,  88: 2.00448,  87:-1.35467,  86:-3.42308,  85:-1.97697,
                 84: 0.56934,  83:-1.86310,  82:-5.99851,  81:-0.35663,  80:-0.23429,  79:-1.03497,  78: 5.68374,  77: 2.05581,
                 76:-0.28475,  75: 1.98078,  74: 0.11938,  73: 0.33912,  72: 2.59510,  71: 2.36377,  70: 1.93650,  69: 4.57689,
                 68: 3.30547,  67:-3.75416,  66:-2.99361,  65:-1.59016,  64: 1.54352,  63:-3.73791,  62:-0.38233,  61:-4.42874,
                 60: 2.76004,  59:-3.60954,  58: 1.98623,  57: 1.83273,  56: 3.77685,  55: 1.63168,  54: 0.15612,  53:-0.77086,
                 52:-0.69639,  51: 2.56368,  50: 3.43373,  49: 4.01853,  48: 3.80054,  47: 3.03653,  46:-0.92399,  45:-2.35207,
                 44:-2.53327,  43:-0.04549,  42: 7.32800,  41: 0.86274,  40:-0.78719,  39:-3.79543,  38: 3.33091,  37: 2.93500,
                 36:-1.24741,  35:-3.21988,  34: 0.14809,  33: 1.56090,  32:-1.02443,  31: 1.68945,  30: 0.87880,  29:-1.13439,
                 28:-2.30882,  27: 2.05705,  26: 1.62141,  25:-2.39345,  24:-0.16494,  23:-1.38151,  22: 2.66349,  21: 1.45592,
                 20:-3.14764,  19:-1.65269,  18: 3.61265,  17: 1.74173,  16:-0.05228,  15: 1.67877,  14:-0.28590,  13:-0.68231,
                 12:-0.73756,  11: 1.18190,  10:-0.93613,   9: 2.76463,   8: 2.84903,   7:-0.48930,   6:-2.23492,   5: 0.75146,
                  4: 2.91952,   3: 2.53685,   2: 0.10691,   1: 3.93559
   142 |      | 108: 0.55362, 107: 5.26615, 106: 1.53373, 105:-0.67037, 104: 3.29412, 103: 0.63650, 102: 1.56456, 101:-1.95404,
                100: 2.69954,  99: 0.65064,  98:-7.41944,  97:-0.88812,  96:-4.05461,  95:-5.65157,  94: 0.26219,  93:-3.12055,
                 92:-5.20580,  91: 2.30149,  90: 1.25469,  89: 1.98507,  88: 2.09429,  87:-2.81695,  86: 1.02436,  85: 0.25250,
                 84:-4.85904,  83: 0.73709,  82: 6.05449,  81: 0.88662,  80:-0.90832,  79: 0.16523,  78: 2.77902,  77: 2.20144,
                 76: 1.40469,  75: 1.31874,  74:-0.02348,  73:-0.76798,  72: 2.57902,  71:-3.73845,  70:-4.89102,  69:-6.67646,
                 68:-3.87958,  67:-1.41417,  66:-4.39515,  65: 0.01046,  64:-7.55335,  63:-1.04994,  62: 5.04850,  61: 1.43639,
                 60: 3.72856,  59: 4.05697,  58: 6.29158,  57:-1.43024,  56:-3.37889,  55: 1.46178,  54: 0.06702,  53: 0.63116,
                 52: 4.19868,  51:-1.01614,  50:-2.36695,  49:-3.44426,  48:-6.47889,  47:-4.06958,  46: 1.23487,  45: 1.24456,
                 44: 1.66926,  43: 1.06461,  42:-4.09361,  41:-1.89098,  40: 2.03946,  39: 1.03260,  38: 3.12229,  37: 2.39013,
                 36:-2.22304,  35:-3.09114,  34:-2.05201,  33:-0.55294,  32: 1.15195,  31: 3.64032,  30:-2.75120,  29: 1.84832,
                 28:-4.03538,  27: 0.80287,  26: 0.99681,  25: 5.97634,  24: 3.01107,  23: 1.34139,  22: 0.30844,  21: 4.45601,
                 20:-0.25159,  19: 3.60146,  18: 0.30780,  17: 1.64355,  16:-6.73803,  15:-4.10079,  14: 2.93962,  13: 8.50597,
                 12: 1.38896,  11:-1.48939,  10: 5.51694,   9: 4.26557,   8: 0.62448,   7:-0.56323,   6: 0.22072,   5:-1.60396,
                  4:-0.37828,   3:-1.46711,   2:-1.57619,   1: 4.65599
   143 |      | 108:-1.62093, 107:-1.23403, 106: 0.87604, 105: 0.16444, 104: 0.85957, 103: 4.90248, 102: 0.99245, 101:-1.00277,
                100:-4.69586,  99:-4.71510,  98: 1.64857,  97: 4.42922,  96: 5.03069,  95: 5.99770,  94:-5.84036,  93:-1.85151,
                 92: 1.87335,  91:-1.24258,  90: 2.88346,  89: 1.33537,  88: 3.54350,  87: 1.66687,  86: 0.78904,  85: 0.63707,
                 84: 6.56736,  83:-0.86478,  82:-5.98873,  81:-4.28069,  80: 0.97165,  79: 0.79172,  78: 1.01184,  77: 1.79888,
                 76:-3.68090,  75:-1.29610,  74: 3.95965,  73: 3.22663,  72:-0.59011,  71:-1.25679,  70: 3.19373,  69:-3.63590,
                 68: 3.34663,  67: 2.92097,  66:-0.62134,  65: 0.48777,  64: 3.98441,  63: 0.77626,  62:-1.67796,  61: 2.43934,
                 60:-2.28507,  59:-7.13612,  58:-5.24017,  57:-4.78961,  56:-3.02965,  55:-3.35017,  54:-3.31772,  53:-1.98177,
                 52:-1.72645,  51:-0.34753,  50:-2.32361,  49: 4.88108,  48: 3.77975,  47: 1.09721,  46: 3.52779,  45:-0.91684,
                 44:-5.12272,  43: 4.24495,  42: 0.99740,  41:-2.86444,  40: 1.74866,  39: 0.91158,  38: 2.52867,  37: 6.66604,
                 36: 2.62523,  35: 4.35997,  34: 3.76197,  33: 2.03778,  32: 5.67581,  31:-0.27734,  30: 5.18343,  29: 0.58110,
                 28:-1.33210,  27: 0.83355,  26: 1.39079,  25: 2.80352,  24:-0.76063,  23: 2.36323,  22: 2.06004,  21: 4.27851,
                 20:-4.22698,  19:-1.59969,  18:-0.01844,  17: 5.56439,  16: 3.38266,  15: 1.07769,  14:-0.92425,  13: 0.84883,
                 12:-3.01687,  11:-1.56104,  10:-5.26343,   9:-2.03542,   8: 1.63156,   7: 3.42471,   6: 1.59608,   5:-0.30314,
                  4:-1.22594,   3:-6.80623,   2:-3.45229,   1: 0.33257
   144 |      | 108: 0.51866, 107: 1.61343, 106:-1.50069, 105:-4.16345, 104:-1.80239, 103:-2.49881, 102: 2.86108, 101: 1.84281,
                100: 0.42617,  99:-1.22461,  98: 0.51939,  97:-0.19043,  96:-5.50477,  95:-3.40918,  94: 0.22685,  93: 2.83867,
                 92: 6.02635,  91:-0.24349,  90: 0.88901,  89:-1.01353,  88: 1.40268,  87:-2.18283,  86:-0.33891,  85:-4.86517,
                 84:-2.27134,  83:-1.00990,  82:-0.35889,  81:-1.68869,  80: 2.65121,  79: 0.71961,  78:-2.38285,  77: 1.85496,
                 76:-2.65032,  75: 1.10985,  74:-3.03339,  73:-1.38531,  72: 0.33454,  71:-4.89281,  70:-0.94853,  69: 1.68204,
                 68: 1.93851,  67: 2.12553,  66: 4.74544,  65: 2.93570,  64:-3.78330,  63:-4.14510,  62:-2.05512,  61:-2.66006,
                 60:-1.01109,  59:-1.59385,  58:10.48492,  57: 8.94087,  56:-4.23292,  55:-15.63870,  54:-13.82629,  53:-5.26837,
                 52:-2.44645,  51: 2.09692,  50: 4.20458,  49: 3.23533,  48:-3.23824,  47:-5.15770,  46:-0.88442,  45:-2.39905,
                 44: 0.32064,  43: 1.12254,  42: 0.82713,  41: 1.44073,  40: 0.14745,  39: 3.12763,  38:-1.25463,  37:-1.53182,
                 36:-2.17943,  35:-1.15232,  34: 0.34357,  33: 2.30717,  32: 3.37539,  31:-3.31570,  30: 2.99687,  29:-0.19638,
                 28: 1.11470,  27: 2.11882,  26:-0.99056,  25:-2.67235,  24: 2.26412,  23: 2.65170,  22: 1.95085,  21:-0.61766,
                 20:-8.22777,  19:-3.81144,  18: 0.87381,  17:-0.63843,  16: 1.15314,  15:-0.64778,  14:-6.31722,  13:-5.35688,
                 12:-3.36146,  11: 1.37615,  10:-3.48908,   9: 1.73256,   8:-4.44744,   7:-0.74332,   6: 2.48247,   5: 1.09904,
                  4: 3.61370,   3:-1.68290,   2:-0.93536,   1:-0.22402
   145 |      | 108: 1.92110, 107: 1.48626, 106:-0.95387, 105:-1.62029, 104: 0.79446, 103:-0.25253, 102: 1.51864, 101:-0.84791,
                100:-2.84119,  99:-0.90848,  98:-3.39391,  97: 2.84749,  96:-4.41880,  95:-0.16123,  94: 1.08054,  93: 0.48698,
                 92: 1.34014,  91:-1.85750,  90:-1.45329,  89: 1.15979,  88:-1.18064,  87:-2.87376,  86: 2.20584,  85:-0.96855,
                 84: 1.60145,  83: 0.02805,  82:-0.83203,  81: 0.50314,  80: 3.12594,  79:-0.89801,  78: 2.18000,  77: 5.18773,
                 76: 0.45595,  75: 1.15034,  74:-2.72687,  73: 0.62659,  72:-5.88096,  71:-7.69786,  70:-3.37684,  69:-4.57385,
                 68: 1.22392,  67:-0.80560,  66: 5.11392,  65: 0.75445,  64:-0.08117,  63: 2.74709,  62: 1.84247,  61: 4.68510,
                 60:-9.57814,  59:-13.77649,  58:-5.44526,  57: 0.15618,  56:-1.35929,  55: 5.85421,  54: 3.77492,  53: 2.65730,
                 52:-2.57969,  51:-0.67021,  50:-1.04583,  49: 1.86504,  48:-2.49105,  47:-2.81853,  46: 0.24012,  45: 1.54628,
                 44: 1.26102,  43: 2.41077,  42: 0.32880,  41:-0.19413,  40: 3.26798,  39:-2.64819,  38: 0.63885,  37: 4.10567,
                 36: 2.13888,  35:-2.14693,  34: 2.32991,  33: 3.55688,  32:-2.04771,  31:-1.79347,  30: 1.57933,  29: 0.06508,
                 28:-0.37051,  27:-0.84837,  26:-2.28052,  25: 0.38076,  24:-0.39704,  23:-0.55658,  22: 1.15255,  21: 2.69216,
                 20:-3.37921,  19:-2.44587,  18:-2.43111,  17:-0.08998,  16: 0.69154,  15:-1.13605,  14: 0.28327,  13:-0.80500,
                 12: 0.19597,  11:-1.48341,  10: 0.45017,   9:-3.07293,   8:-5.30694,   7: 3.88564,   6: 5.82602,   5: 4.98144,
                  4: 0.53695,   3:-3.19409,   2:-2.81182,   1: 1.49706
   146 |      | 108: 4.39659, 107: 2.39631, 106: 5.54023, 105: 0.81668, 104: 1.16326, 103: 1.57275, 102:-0.11063, 101: 0.47382,
                100: 1.73004,  99:-0.14062,  98: 2.13966,  97: 2.82039,  96: 2.35132,  95:-7.85798,  94:-3.97100,  93:-5.11730,
                 92:-2.63334,  91: 5.17555,  90:-0.19356,  89: 2.04019,  88: 3.64667,  87:-0.53074,  86: 1.76326,  85:-1.36427,
                 84: 0.19856,  83: 3.71050,  82: 0.81685,  81: 2.64340,  80: 6.48947,  79: 1.57077,  78: 4.80409,  77:-0.37687,
                 76:-0.30034,  75: 0.68621,  74: 0.46306,  73:-1.94715,  72:-2.95694,  71: 0.41172,  70:-3.77851,  69:-4.32882,
                 68: 3.52473,  67:-2.81691,  66:-1.43291,  65: 0.42138,  64:-0.21797,  63: 5.00891,  62: 0.41163,  61: 0.70952,
                 60: 2.88872,  59: 2.30339,  58: 4.13581,  57: 0.70686,  56:-0.09542,  55:-1.62450,  54:-4.54806,  53:-6.42517,
                 52:-3.94092,  51: 1.39264,  50:-0.52082,  49: 2.36820,  48: 0.74180,  47: 2.71921,  46:-0.69560,  45: 1.34351,
                 44: 0.31521,  43:-3.83420,  42:-4.46616,  41:-1.63857,  40: 3.72873,  39: 3.60501,  38: 1.23287,  37: 0.28789,
                 36: 0.54387,  35: 3.09487,  34:-1.38363,  33:-1.00598,  32: 2.37338,  31: 3.34610,  30: 0.08911,  29: 2.91844,
                 28: 1.39835,  27: 1.97017,  26: 5.73371,  25: 4.38933,  24: 1.55911,  23: 1.38129,  22:-2.74449,  21:-4.34981,
                 20: 2.35432,  19: 4.93041,  18: 4.10442,  17: 1.43628,  16:-2.08153,  15: 3.24428,  14: 2.66777,  13:-1.52199,
                 12:-6.59053,  11:-2.43696,  10:-3.51254,   9: 1.29919,   8:-0.13266,   7:-0.61091,   6: 1.75127,   5:-2.10557,
                  4:-4.50799,   3:-3.06841,   2:-0.35432,   1: 0.65512
   147 |      | 108: 1.23301, 107: 2.59082, 106: 5.34452, 105: 0.23402, 104:-1.71601, 103:-2.01349, 102:-8.61277, 101: 5.17258,
                100:-3.53631,  99:-1.88574,  98: 1.46473,  97: 2.26274,  96: 0.97525,  95:-2.08168,  94: 1.16504,  93:-0.76799,
                 92: 1.92403,  91:-1.80948,  90:-2.88952,  89:-1.61094,  88: 1.09674,  87:-4.75584,  86:-2.90995,  85:-3.68552,
                 84: 2.52892,  83: 1.42692,  82:-0.29592,  81: 5.19140,  80: 4.11143,  79: 1.13817,  78:-3.19955,  77: 3.17162,
                 76:-0.68889,  75:-1.86934,  74: 3.10884,  73:-0.06182,  72:-4.78980,  71: 1.11789,  70: 4.39987,  69:-9.46868,
                 68: 0.40217,  67:-4.79295,  66: 3.41810,  65: 1.47375,  64: 1.83727,  63: 4.62014,  62:-2.39515,  61:-2.21786,
                 60: 3.02249,  59: 5.75432,  58: 2.67749,  57: 1.00351,  56:-3.85856,  55:-4.12006,  54: 0.01539,  53:-0.67254,
                 52:-1.87993,  51:-1.44725,  50:-0.13401,  49: 0.74618,  48:-1.52809,  47:-3.38439,  46:-3.93041,  45:-4.19515,
                 44: 3.04250,  43: 6.90508,  42: 4.02664,  41:-0.36689,  40:-0.07646,  39: 0.82063,  38:-0.97878,  37:-7.24376,
                 36:-2.44827,  35:-0.22068,  34:-1.86817,  33: 5.33194,  32: 4.13043,  31: 2.74380,  30: 4.63959,  29: 0.90860,
                 28: 1.34826,  27:-1.24803,  26: 0.31259,  25: 0.15399,  24:-1.39042,  23: 1.58196,  22: 3.82554,  21: 0.42716,
                 20:-0.22508,  19:-1.21646,  18:-3.85696,  17:-1.48770,  16:-4.23822,  15: 0.28701,  14:-2.43449,  13:-1.91492,
                 12:-2.20275,  11:-3.46822,  10:-5.68183,   9:-3.54668,   8:-0.07185,   7: 1.01952,   6:-1.24602,   5: 3.06924,
                  4: 2.87026,   3:-1.60158,   2: 1.89382,   1:-0.95953
   148 |      | 108: 3.99660, 107: 3.33919, 106:-1.31895, 105:-1.60137, 104: 0.30974, 103:-6.26659, 102: 2.32528, 101: 1.96902,
                100:-3.59292,  99:-4.64553,  98: 2.38752,  97:-0.01381,  96: 3.71357,  95: 5.64583,  94:-1.25733,  93: 0.08859,
                 92:-1.99761,  91: 0.54439,  90:-0.66908,  89:-3.96840,  88: 0.70567,  87: 4.72058,  86:-2.47109,  85:-2.52207,
                 84:-0.74835,  83: 4.09617,  82:-1.38748,  81:-3.89851,  80:-3.62774,  79:-1.70033,  78: 6.36630,  77: 7.23354,
                 76:-3.34110,  75:-4.90977,  74:-0.19967,  73:-2.69957,  72: 1.33733,  71: 3.41001,  70:-2.54991,  69: 1.34797,
                 68: 2.44933,  67:-0.00397,  66:-5.55862,  65:-1.38127,  64: 2.45587,  63:-0.16018,  62:-4.31067,  61: 1.06469,
                 60:-10.55162,  59:-6.71575,  58: 0.15442,  57: 3.16870,  56: 7.60372,  55: 4.29456,  54: 4.78211,  53: 2.78651,
                 52:-1.08898,  51: 0.05468,  50:-2.53342,  49: 0.14276,  48: 1.93836,  47:-1.58374,  46: 2.09132,  45: 2.69319,
                 44: 2.00617,  43: 1.60404,  42:-7.19741,  41:-5.81765,  40:-4.17114,  39:-1.08075,  38: 0.00470,  37: 3.41226,
                 36: 0.83541,  35: 1.49057,  34: 6.31617,  33: 5.65932,  32: 2.47162,  31:-4.48461,  30: 3.43022,  29:-0.25721,
                 28: 1.47967,  27: 3.59459,  26: 4.31986,  25:-2.81675,  24:-5.99639,  23: 2.07829,  22: 5.30543,  21:-2.34492,
                 20:-1.58927,  19:-3.50920,  18: 5.40262,  17: 4.34833,  16: 0.83807,  15:-1.01911,  14:-0.64284,  13:-4.25361,
                 12: 3.11315,  11: 0.07832,  10: 1.72617,   9:-2.44985,   8:-0.52656,   7:-1.25428,   6:-0.85342,   5: 3.23222,
                  4: 7.39950,   3:-0.34719,   2: 0.76637,   1: 2.18807
   149 |      | 108:-1.48923, 107: 0.98545, 106:-2.23180, 105: 0.92130, 104:-3.50087, 103:-0.87178, 102:-4.15839, 101:-4.06864,
                100:-7.73314,  99: 1.24956,  98: 7.17866,  97: 7.58611,  96:-2.22581,  95: 1.17728,  94:-2.45500,  93:-7.56238,
                 92:-4.82418,  91:-0.93274,  90: 5.24513,  89: 0.77946,  88: 3.44986,  87: 0.79590,  86: 0.30154,  85:-2.26564,
                 84: 2.31824,  83: 3.97372,  82:-11.66296,  81:-0.18895,  80: 2.02550,  79: 2.88606,  78:-2.00697,  77:-5.04153,
                 76:-0.88236,  75:-4.68527,  74: 1.22999,  73: 0.53225,  72:-7.42648,  71:-1.40335,  70: 1.84233,  69:-4.01979,
                 68: 4.22998,  67: 0.47652,  66:-1.21675,  65: 2.88954,  64: 1.14323,  63: 2.31902,  62:-1.29756,  61: 2.17950,
                 60:-3.98421,  59:-8.06185,  58:-4.97775,  57:-1.29902,  56:-1.29347,  55:-7.93915,  54:-6.45257,  53:-6.36649,
                 52: 0.00575,  51:-4.66867,  50:-9.53906,  49: 0.09115,  48: 1.44280,  47: 3.96531,  46:-3.01982,  45: 1.39419,
                 44: 5.78831,  43: 5.92103,  42: 7.28068,  41: 2.89937,  40: 0.62773,  39: 0.08748,  38: 4.67944,  37: 4.99460,
                 36: 5.09030,  35:-1.80894,  34: 2.44382,  33: 2.59260,  32: 6.45803,  31:-0.65713,  30: 0.50402,  29:-6.95579,
                 28:-2.47510,  27: 4.69959,  26: 7.58697,  25:10.28504,  24: 2.53292,  23: 4.53782,  22: 3.47112,  21:-2.85751,
                 20:-10.08168,  19: 7.74664,  18: 0.64311,  17: 2.75536,  16:-1.99019,  15: 1.24634,  14: 2.67074,  13: 1.20400,
                 12: 2.01969,  11:-1.94788,  10:-12.05852,   9:-0.25566,   8:-4.17452,   7: 1.80063,   6: 4.99963,   5: 4.61088,
                  4: 5.09759,   3: 3.39805,   2: 1.20353,   1:-4.57591
   150 |      | 108:-1.69937, 107:-1.19234, 106:-5.73420, 105: 3.93262, 104:-3.07070, 103:-0.41760, 102:-0.40888, 101:-2.43118,
                100: 2.17724,  99:-1.36722,  98: 2.23258,  97: 5.08289,  96:-1.19112,  95:-0.44653,  94: 1.27371,  93: 0.98422,
                 92:-0.52965,  91: 0.44812,  90: 8.59660,  89: 0.89986,  88: 4.57432,  87: 0.03919,  86:-2.43105,  85:-3.29848,
                 84:-1.35764,  83: 1.78172,  82:-6.99792,  81: 1.40863,  80: 1.27899,  79: 1.47084,  78:-3.17804,  77:-2.45614,
                 76:-6.29324,  75: 4.35189,  74: 2.22693,  73: 0.43054,  72:-2.36686,  71:-1.59413,  70: 5.02245,  69: 4.05874,
                 68: 0.13300,  67: 0.15787,  66: 3.34818,  65: 4.27427,  64:-1.42155,  63:-3.02556,  62: 2.92068,  61:-3.18296,
                 60:-2.21556,  59:-4.95417,  58:-3.60651,  57:-0.90263,  56: 1.77806,  55:-2.07186,  54:-2.14873,  53: 0.86708,
                 52: 2.49798,  51:-1.52763,  50:-5.03068,  49:-3.08956,  48: 0.94456,  47: 2.14184,  46:-1.71432,  45:-2.75753,
                 44:-3.92453,  43: 5.23787,  42: 0.29835,  41: 1.64470,  40: 5.04743,  39: 2.50281,  38:-1.11684,  37: 1.24364,
                 36: 0.13372,  35: 0.03526,  34: 1.45008,  33: 4.43328,  32: 4.01322,  31:-0.08251,  30: 2.50613,  29: 1.71502,
                 28: 7.56450,  27: 7.19986,  26: 5.72777,  25: 4.71197,  24: 1.36233,  23:-2.87053,  22: 8.00268,  21:-3.55051,
                 20:-7.37077,  19:-2.52435,  18: 4.85733,  17: 4.37556,  16: 2.34149,  15: 2.83827,  14: 3.24703,  13: 2.68452,
                 12: 1.68696,  11:-2.52548,  10:-0.85244,   9: 2.09611,   8:-1.93309,   7:-6.45624,   6:-4.93974,   5:-0.74562,
                  4:-2.47819,   3: 1.00885,   2: 1.09563,   1: 1.12291
   151 |      | 108: 5.14196, 107:-1.91107, 106: 6.10309, 105:-4.02844, 104: 0.92203, 103:-1.61477, 102:-1.68865, 101: 3.15716,
                100: 5.75679,  99:-1.22281,  98: 1.85189,  97: 0.52426,  96:-1.77336,  95: 0.63069,  94:-2.21660,  93: 3.34622,
                 92:-0.43801,  91:-6.20260,  90:-1.83109,  89: 2.39322,  88:-0.30923,  87: 4.86487,  86: 1.35118,  85:-1.72161,
                 84: 1.19145,  83: 0.32013,  82: 7.75908,  81:-3.67224,  80: 3.05544,  79:-2.53173,  78: 3.32652,  77:-4.66487,
                 76: 4.19922,  75:-1.79479,  74:-0.96316,  73:-1.53191,  72:-1.36023,  71: 1.88509,  70:-1.92218,  69: 3.49876,
                 68:-1.57655,  67: 1.46746,  66:-2.98621,  65:-2.49352,  64:-0.66430,  63: 3.16380,  62: 3.33763,  61: 3.02577,
                 60:-3.17587,  59:-8.14393,  58:-2.44633,  57: 1.47649,  56: 0.56898,  55:-2.78387,  54:-4.00253,  53:-1.42825,
                 52: 2.72487,  51: 1.06681,  50:-4.76338,  49:-0.69207,  48: 1.85587,  47: 0.79637,  46: 2.49146,  45:-0.96155,
                 44:-3.90588,  43: 2.36871,  42: 1.05479,  41:-1.31983,  40: 1.47250,  39: 0.42606,  38:-2.87287,  37: 1.54698,
                 36: 1.25338,  35: 8.18538,  34:-0.54971,  33:-1.66459,  32: 2.02958,  31: 2.60278,  30: 0.40883,  29:-0.58931,
                 28:-4.13446,  27:-1.03386,  26: 1.28994,  25:-3.69277,  24: 0.46102,  23: 1.13974,  22: 2.31498,  21: 2.96562,
                 20:-3.43275,  19:-2.95490,  18: 4.22237,  17: 1.12291,  16:-3.40466,  15:-4.48294,  14:-0.17787,  13:-1.22342,
                 12: 0.58761,  11:-3.13162,  10:-2.93576,   9: 2.13147,   8:-1.44643,   7:-0.31228,   6: 2.20165,   5: 1.81691,
                  4:-1.60690,   3: 4.85569,   2:-3.13063,   1:-1.66712
   152 |      | 108: 0.16899, 107: 2.82825, 106: 0.99760, 105:-1.21356, 104:-0.33652, 103: 3.50993, 102: 0.90465, 101: 1.78145,
                100: 0.77056,  99: 4.59524,  98: 1.53783,  97: 2.60726,  96: 0.53302,  95:-0.64649,  94: 0.61686,  93:-3.52363,
                 92:-8.75284,  91: 8.48422,  90:-3.07274,  89: 0.52958,  88:-0.34040,  87:-6.97521,  86: 1.24291,  85: 1.84572,
                 84: 3.85844,  83: 2.65003,  82: 0.14424,  81: 3.25856,  80:-2.64620,  79: 1.53167,  78: 2.02285,  77: 6.73590,
                 76:-0.85746,  75: 1.09358,  74: 5.06841,  73: 3.84968,  72:-2.95917,  71:-7.27408,  70:-3.64663,  69: 5.23246,
                 68:-3.76055,  67: 1.12980,  66: 2.96010,  65:-2.63833,  64:-3.81282,  63: 2.34460,  62:-0.12269,  61: 4.76291,
                 60:-0.00826,  59:-4.27512,  58:-4.40139,  57:-1.36506,  56: 1.26296,  55:-1.35781,  54:-1.20472,  53: 2.16008,
                 52: 5.04246,  51: 3.90773,  50:-3.47209,  49:-0.73212,  48: 1.98799,  47:-0.70526,  46:-7.97335,  45:-0.49753,
                 44:-3.70642,  43: 3.12968,  42: 4.30513,  41:-2.60316,  40:-2.04720,  39:-2.79157,  38:-1.98748,  37:-3.89534,
                 36: 0.44332,  35:-1.49247,  34: 0.54464,  33:-0.28485,  32:-2.87176,  31:-1.27581,  30:-0.73166,  29: 1.95575,
                 28: 1.70083,  27: 0.35222,  26: 4.07412,  25: 2.13939,  24: 0.56282,  23:-2.32607,  22:-1.54350,  21: 2.13606,
                 20:-0.07959,  19:-2.99718,  18: 0.43714,  17:-2.16427,  16:-3.99794,  15:-5.13412,  14:-0.77656,  13:-0.13570,
                 12:-2.72550,  11:-2.07285,  10: 0.65832,   9:-0.20098,   8:-1.02239,   7:-1.74430,   6:-0.64624,   5:-1.28148,
                  4:-0.74891,   3:-0.88383,   2:-4.57569,   1: 1.50365
   153 |      | 108:-0.78581, 107:-1.31359, 106:-0.82800, 105:-1.28948, 104: 1.97740, 103:-1.56095, 102: 0.38474, 101: 0.96116,
                100:-1.69852,  99: 3.45282,  98:-0.13917,  97:-9.37086,  96: 0.03140,  95:-3.54791,  94:-1.25346,  93: 2.08631,
                 92:-2.13793,  91: 0.79485,  90: 1.84012,  89: 0.71416,  88: 1.73633,  87:-1.06901,  86: 2.77237,  85: 6.23259,
                 84:-1.76393,  83:-3.87827,  82: 1.84746,  81:-3.14861,  80: 6.81632,  79:-5.95775,  78:-2.02651,  77: 2.08778,
                 76:-2.59265,  75: 2.69775,  74:-0.96138,  73:-6.49985,  72: 2.18883,  71:-3.88667,  70: 0.98192,  69: 0.52470,
                 68:-5.85519,  67: 0.37144,  66: 0.51413,  65:-2.49848,  64: 4.73276,  63: 0.80440,  62:-0.67864,  61: 1.78625,
                 60: 1.85379,  59:-1.91937,  58:-5.97658,  57:-3.17018,  56:-2.34172,  55:-6.79988,  54:-6.25340,  53: 0.27598,
                 52: 5.26397,  51:10.91366,  50: 6.03191,  49: 2.71762,  48: 0.65707,  47:-0.57815,  46: 2.81221,  45: 1.51503,
                 44: 0.30348,  43:-3.28394,  42:-0.86048,  41:-2.49853,  40: 5.07329,  39: 3.39475,  38:-0.37107,  37: 0.85400,
                 36: 1.68379,  35: 1.85934,  34:-1.49312,  33: 2.99727,  32:-2.54071,  31:-0.75964,  30: 5.65381,  29: 5.89368,
                 28:-5.95976,  27:-1.16905,  26: 0.19975,  25: 0.58241,  24: 0.88050,  23: 2.34041,  22: 6.40284,  21: 3.67891,
                 20:-4.84930,  19:-3.74687,  18:-6.83805,  17:-2.78068,  16:-1.09119,  15: 2.09004,  14: 1.78149,  13:-3.64142,
                 12:-2.20148,  11:-2.44731,  10:-1.76760,   9: 0.30533,   8: 2.06474,   7: 0.04458,   6:-2.51289,   5: 1.03794,
                  4: 1.98795,   3: 2.44618,   2: 0.60881,   1: 3.39202
   154 |      | 108: 3.10161, 107: 3.81805, 106: 3.32066, 105:-3.15720, 104:-1.11514, 103: 0.96168, 102: 1.02138, 101: 1.98686,
                100: 1.00481,  99:-4.08360,  98: 2.12715,  97: 4.34809,  96: 1.16970,  95: 2.54464,  94: 1.61195,  93: 3.62460,
                 92:-2.43046,  91:-1.90940,  90: 4.66154,  89:-1.52734,  88:-6.28217,  87:-0.10307,  86:-0.36361,  85: 0.66474,
                 84: 1.99728,  83: 2.86305,  82:-3.16106,  81: 2.31433,  80: 3.67145,  79: 2.27784,  78: 1.76651,  77: 2.43874,
                 76:-1.30196,  75:-3.55323,  74:-0.86819,  73:-1.05953,  72: 3.55777,  71: 1.97103,  70: 2.14015,  69: 1.53524,
                 68:-1.88671,  67: 1.53328,  66:-4.59629,  65:-0.66889,  64: 0.72701,  63:-4.07235,  62: 3.68582,  61: 2.41476,
                 60: 3.22886,  59: 7.07022,  58: 4.80532,  57: 3.98686,  56: 5.03229,  55: 4.80270,  54: 5.11583,  53: 2.71805,
                 52: 2.88961,  51:-2.53289,  50: 1.43424,  49:-2.39281,  48:-2.71345,  47:-3.22777,  46:-2.63886,  45:-2.62230,
                 44:-0.52835,  43: 1.57941,  42:-0.00637,  41:-4.30145,  40: 0.53219,  39: 2.64991,  38:-2.75120,  37:-7.23816,
                 36:-6.19340,  35:-3.23238,  34:-0.04465,  33: 5.37736,  32:-1.18604,  31:-4.90831,  30:-4.35518,  29:-1.40346,
                 28: 1.39972,  27:-3.92219,  26:-2.15844,  25:-3.63423,  24:-2.06088,  23: 2.43266,  22:-1.01862,  21: 3.86752,
                 20:-0.52557,  19:-7.92978,  18:-0.08632,  17: 5.54090,  16: 4.35122,  15: 2.13370,  14: 0.02255,  13:-2.66790,
                 12: 0.24235,  11: 0.45224,  10: 3.50389,   9:-0.00297,   8:-5.94815,   7:-3.27339,   6: 0.28203,   5: 4.74314,
                  4: 2.33903,   3:-0.87497,   2:-3.08961,   1:-2.35811
   155 |      | 108:-2.82567, 107:-0.06253, 106: 4.60709, 105: 2.34116, 104: 2.64182, 103:-1.37558, 102:-0.55999, 101:-2.67820,
                100: 1.59560,  99:-4.52521,  98: 0.12662,  97: 1.47937,  96:-0.26780,  95: 4.34925,  94: 4.71889,  93:-3.35002,
                 92:-2.02354,  91: 1.16939,  90: 0.93747,  89: 2.46633,  88:-4.84607,  87: 0.99361,  86: 0.54683,  85:-2.63279,
                 84:-7.87750,  83:-1.30833,  82: 5.71286,  81: 1.32865,  80: 2.32292,  79: 2.08512,  78: 3.58367,  77:-2.78526,
                 76: 1.15972,  75:-1.00379,  74:-3.97311,  73:-0.04778,  72: 4.86497,  71: 9.89623,  70:-0.96861,  69:-5.08173,
                 68:-7.19448,  67: 3.05528,  66:-1.39734,  65: 0.17817,  64:-4.64807,  63: 0.75963,  62:-3.53295,  61: 1.47029,
                 60: 7.58228,  59: 2.32226,  58:-1.80130,  57: 7.21907,  56: 3.19234,  55:-4.51992,  54: 1.39586,  53: 2.94622,
                 52: 4.54296,  51: 2.85267,  50: 5.03536,  49: 7.51861,  48: 0.03963,  47:-5.56175,  46:-8.16145,  45: 2.45990,
                 44:-1.56591,  43: 7.33767,  42: 6.65968,  41: 0.43399,  40:-1.15253,  39: 4.04667,  38: 4.31047,  37: 0.47825,
                 36:-0.94776,  35: 2.90022,  34: 3.44027,  33: 2.63218,  32: 3.99721,  31: 0.08359,  30:-3.07597,  29: 1.03708,
                 28:-1.08899,  27: 2.19841,  26: 3.98823,  25: 2.63580,  24: 6.85120,  23: 3.46435,  22: 3.35331,  21:-4.09456,
                 20: 3.90414,  19: 0.88314,  18: 3.56733,  17:-0.03512,  16:-3.40554,  15:-10.27582,  14:-1.56949,  13: 8.62294,
                 12: 4.93963,  11:-0.11351,  10:-1.48602,   9:-2.77038,   8: 3.27170,   7: 5.66070,   6: 1.77639,   5:-1.86987,
                  4: 0.01061,   3:-0.48702,   2: 4.82113,   1: 0.56061
   156 |      | 108:-0.28118, 107: 2.43392, 106: 1.99717, 105:-4.07619, 104:-2.82591, 103:-2.27288, 102: 5.23793, 101:-0.49064,
                100: 3.56385,  99: 1.78167,  98: 0.34059,  97: 4.79127,  96:-4.13278,  95: 4.46195,  94: 2.38814,  93: 0.92380,
                 92:-0.59044,  91: 0.99107,  90: 1.80021,  89:-0.25319,  88: 3.51845,  87: 0.88270,  86:-0.75550,  85: 0.14183,
                 84:-1.60120,  83: 2.60930,  82: 1.77851,  81: 5.64012,  80:-6.62042,  79:-8.13035,  78:-1.57020,  77: 1.89434,
                 76:-0.86219,  75: 2.46145,  74: 1.61931,  73: 6.04119,  72: 2.15290,  71:-0.63460,  70:-1.15653,  69: 2.96099,
                 68: 0.83674,  67: 2.95676,  66: 2.11542,  65: 1.22213,  64:-0.94092,  63: 2.60941,  62:-2.78282,  61: 0.67239,
                 60:-1.20580,  59:-3.21313,  58:-1.45324,  57: 3.92415,  56:12.06370,  55: 9.38507,  54: 8.53248,  53: 0.68186,
                 52:-4.36903,  51:-4.41947,  50: 0.77954,  49: 6.84106,  48: 4.66329,  47:-0.03929,  46: 2.94927,  45:-2.43628,
                 44:-4.40827,  43:-2.92125,  42:-4.70377,  41: 1.47356,  40:-2.16143,  39:-4.76853,  38:-3.02696,  37: 0.22809,
                 36: 1.28813,  35:-4.54001,  34:-4.09665,  33:-3.65801,  32:-1.34901,  31:-7.65808,  30:-0.93917,  29:-3.01996,
                 28: 1.92537,  27:-2.24576,  26:-9.01362,  25: 2.39267,  24:-0.23209,  23:-5.33471,  22:-2.36455,  21:-5.92578,
                 20: 6.71106,  19:-7.98132,  18:-0.13485,  17:-4.76112,  16:-1.02622,  15: 6.40336,  14: 0.33367,  13:-7.85598,
                 12:-2.15426,  11: 7.48702,  10:-1.14558,   9: 1.12976,   8:-3.02816,   7:-3.61769,   6: 0.09578,   5:-0.68396,
                  4: 1.84487,   3:-0.82260,   2:-2.59940,   1: 1.66815
   157 |      | 108: 2.44956, 107:-0.69280, 106: 2.61048, 105:-0.58021, 104:-3.06949, 103: 4.18461, 102: 0.63968, 101: 1.25552,
                100:-0.72138,  99: 0.69154,  98: 2.91921,  97: 2.69421,  96:-0.25704,  95: 2.68707,  94:-5.28236,  93: 4.28785,
                 92: 5.97744,  91:-0.10154,  90:-0.80448,  89: 3.93214,  88: 3.77184,  87: 4.06536,  86: 0.32501,  85:-3.22963,
                 84: 2.38696,  83:-0.60809,  82: 1.60644,  81: 4.11776,  80:-8.69044,  79:-1.53214,  78: 0.30930,  77: 1.03127,
                 76:-1.52762,  75: 4.63534,  74: 0.84483,  73: 2.41717,  72:-0.40913,  71:-0.59136,  70:-2.61882,  69: 2.83189,
                 68: 4.23178,  67: 9.24689,  66:-0.23876,  65:-1.20363,  64: 1.79856,  63:-0.87568,  62: 0.52173,  61:-6.76965,
                 60: 1.28818,  59:-3.33921,  58: 3.49031,  57: 5.52593,  56: 0.14720,  55:-5.36543,  54:-1.64018,  53:-0.91670,
                 52:-12.34283,  51:-12.40874,  50:-4.53838,  49:-0.11688,  48: 1.78215,  47: 0.18158,  46: 3.10943,  45: 5.48722,
                 44: 3.84320,  43:-0.33387,  42:-1.87063,  41: 0.14740,  40:-1.19488,  39:-1.37551,  38: 0.24852,  37:-4.77083,
                 36: 1.52187,  35:-2.75043,  34:-0.38007,  33:-1.71062,  32:-2.46636,  31: 0.41287,  30: 0.95245,  29: 2.81311,
