SNNS network definition file V1.4-3D
generated at Fri Jul 10 10:51:18 2015

network name : num5
source files :
no. of units : 147
no. of connections : 1742
no. of unit types : 0
no. of site types : 0


learning function : Std_Backpropagation
update function   : Topological_Order


unit default section :

act      | bias     | st | subnet | layer | act func     | out func
---------|----------|----|--------|-------|--------------|-------------
 0.00000 |  0.00000 | h  |      0 |     1 | Act_Logistic | Out_Identity 
---------|----------|----|--------|-------|--------------|-------------


unit definition section :

no. | typeName | unitName | act      | bias     | st | position    | act func | out func | sites
----|----------|----------|----------|----------|----|-------------|----------|----------|-------
  1 |          | noName   |  0.09060 |  0.28676 | i  |   1,  1,  1 |||
  2 |          | noName   |  0.01050 | -0.84336 | i  |   1,  2,  1 |||
  3 |          | noName   |  0.16986 |  0.45543 | i  |   1,  3,  1 |||
  4 |          | noName   |  0.21869 |  0.60382 | i  |   1,  4,  1 |||
  5 |          | noName   |  0.19578 |  0.49354 | i  |   1,  5,  1 |||
  6 |          | noName   |  0.16450 |  0.19467 | i  |   1,  6,  1 |||
  7 |          | noName   |  0.12466 | -0.84585 | i  |   1,  7,  1 |||
  8 |          | noName   |  0.08696 | -0.55619 | i  |   1,  8,  1 |||
  9 |          | noName   |  0.09596 |  0.07991 | i  |   1,  9,  1 |||
 10 |          | noName   |  0.17478 |  0.41533 | i  |   1, 10,  1 |||
 11 |          | noName   |  0.12410 | -0.93613 | i  |   1, 11,  1 |||
 12 |          | noName   |  0.10856 | -0.10203 | i  |   1, 12,  1 |||
 13 |          | noName   |  0.12352 | -0.43772 | i  |   1, 13,  1 |||
 14 |          | noName   |  0.14061 |  0.61648 | i  |   1, 14,  1 |||
 15 |          | noName   |  0.16255 |  0.52890 | i  |   1, 15,  1 |||
 16 |          | noName   |  0.18625 | -0.02940 | i  |   1, 16,  1 |||
 17 |          | noName   |  0.21247 |  0.90965 | i  |   1, 17,  1 |||
 18 |          | noName   |  0.23616 |  0.32798 | i  |   1, 18,  1 |||
 19 |          | noName   |  0.04001 | -0.09500 | i  |   1, 19,  1 |||
 20 |          | noName   |  0.02331 | -0.22159 | i  |   1, 20,  1 |||
 21 |          | noName   |  0.02399 |  0.57899 | i  |   1, 21,  1 |||
 22 |          | noName   |  0.02240 | -0.60818 | i  |   1, 22,  1 |||
 23 |          | noName   |  0.02065 | -0.92270 | i  |   1, 23,  1 |||
 24 |          | noName   |  0.01493 | -0.36760 | i  |   1, 24,  1 |||
 25 |          | noName   |  0.01493 |  0.47883 | i  |   1, 25,  1 |||
 26 |          | noName   |  0.01017 |  0.95066 | i  |   1, 26,  1 |||
 27 |          | noName   |  0.01493 |  0.53536 | i  |   1, 27,  1 |||
 28 |          | noName   |  0.21828 | -0.66856 | i  |   1, 28,  1 |||
 29 |          | noName   |  0.27420 | -0.58789 | i  |   1, 29,  1 |||
 30 |          | noName   |  0.27674 |  0.94780 | i  |   1, 30,  1 |||
 31 |          | noName   |  0.34850 | -0.15974 | i  |   1, 31,  1 |||
 32 |          | noName   |  0.26658 | -0.13320 | i  |   1, 32,  1 |||
 33 |          | noName   |  0.04490 | -0.60703 | i  |   1, 33,  1 |||
 34 |          | noName   |  0.03088 | -0.34225 | i  |   1, 34,  1 |||
 35 |          | noName   |  0.01008 | -0.28773 | i  |   1, 35,  1 |||
 36 |          | noName   |  0.00000 |  0.78848 | i  |   1, 36,  1 |||
 37 |          | noName   |  0.00000 | -0.37953 | i  |   1, 37,  1 |||
 38 |          | noName   |  0.00000 | -0.41727 | i  |   1, 38,  1 |||
 39 |          | noName   |  0.00285 |  0.20566 | i  |   1, 39,  1 |||
 40 |          | noName   |  0.02563 | -0.09818 | i  |   1, 40,  1 |||
 41 |          | noName   |  0.06249 | -0.10056 | i  |   1, 41,  1 |||
 42 |          | noName   |  0.07323 |  0.14413 | i  |   1, 42,  1 |||
 43 |          | noName   |  0.14013 |  0.10573 | i  |   1, 43,  1 |||
 44 |          | noName   |  0.19150 | -0.17316 | i  |   1, 44,  1 |||
 45 |          | noName   |  0.20837 | -0.34882 | i  |   1, 45,  1 |||
 46 |          | noName   |  0.23981 | -0.62246 | i  |   1, 46,  1 |||
 47 |          | noName   |  0.17981 | -0.72269 | i  |   1, 47,  1 |||
 48 |          | noName   |  0.07630 |  0.12477 | i  |   1, 48,  1 |||
 49 |          | noName   |  0.06307 |  0.24088 | i  |   1, 49,  1 |||
 50 |          | noName   |  0.04007 |  0.74431 | i  |   1, 50,  1 |||
 51 |          | noName   |  0.18779 | -0.88577 | i  |   1, 51,  1 |||
 52 |          | noName   |  0.21430 | -0.68183 | i  |   1, 52,  1 |||
 53 |          | noName   |  0.06985 |  0.70482 | i  |   1, 53,  1 |||
 54 |          | noName   |  0.06039 |  0.17317 | i  |   1, 54,  1 |||
 55 |          | noName   |  0.05925 | -0.70841 | i  |   1, 55,  1 |||
 56 |          | noName   |  0.06380 | -0.87248 | i  |   1, 56,  1 |||
 57 |          | noName   |  0.07345 | -0.21415 | i  |   1, 57,  1 |||
 58 |          | noName   |  0.08367 |  0.54350 | i  |   1, 58,  1 |||
 59 |          | noName   |  0.23474 |  0.92033 | i  |   1, 59,  1 |||
 60 |          | noName   |  0.21165 |  0.82248 | i  |   1, 60,  1 |||
 61 |          | noName   |  0.39995 |  0.83390 | i  |   1, 61,  1 |||
 62 |          | noName   |  0.00000 | -0.44911 | i  |   1, 62,  1 |||
 63 |          | noName   |  0.00000 | -0.93370 | i  |   1, 63,  1 |||
 64 |          | noName   |  0.00000 |  0.72721 | i  |   1, 64,  1 |||
 65 |          | noName   |  0.23526 |  0.10938 | i  |   1, 65,  1 |||
 66 |          | noName   |  0.47053 | -0.17960 | i  |   1, 66,  1 |||
 67 |          | noName   |  0.09411 |  0.94758 | i  |   1, 67,  1 |||
 68 |          | noName   |  0.07058 | -0.10671 | i  |   1, 68,  1 |||
 69 |          | noName   |  0.04705 |  0.50705 | i  |   1, 69,  1 |||
 70 |          | noName   |  0.16468 | -0.65156 | i  |   1, 70,  1 |||
 71 |          | noName   |  0.07058 | -0.60190 | i  |   1, 71,  1 |||
 72 |          | noName   |  0.04705 |  0.80994 | i  |   1, 72,  1 |||
 73 |          | noName   |  0.00000 | -0.98175 | i  |   1, 73,  1 |||
 74 |          | noName   |  0.18821 |  0.98813 | i  |   1, 74,  1 |||
 75 |          | noName   |  0.00000 |  0.21809 | i  |   1, 75,  1 |||
 76 |          | noName   |  0.11763 | -0.91064 | i  |   1, 76,  1 |||
 77 |          | noName   |  0.07058 | -0.65036 | i  |   1, 77,  1 |||
 78 |          | noName   |  0.07058 |  0.40293 | i  |   1, 78,  1 |||
 79 |          | noName   |  0.00000 | -0.43104 | i  |   1, 79,  1 |||
 80 |          | noName   |  0.02353 |  0.45666 | i  |   1, 80,  1 |||
 81 |          | noName   |  0.00000 |  0.15083 | i  |   1, 81,  1 |||
 82 |          | noName   |  0.00000 | -0.61059 | i  |   1, 82,  1 |||
 83 |          | noName   |  0.04705 | -0.23960 | i  |   1, 83,  1 |||
 84 |          | noName   |  0.02353 |  0.48129 | i  |   1, 84,  1 |||
 85 |          | noName   |  0.47053 | -0.93755 | i  |   1, 85,  1 |||
 86 |          | noName   |  0.23526 |  0.93207 | i  |   1, 86,  1 |||
 87 |          | noName   |  0.02353 |  0.67877 | i  |   1, 87,  1 |||
 88 |          | noName   |  0.00000 | -0.51596 | i  |   1, 88,  1 |||
 89 |          | noName   |  0.07058 |  0.22840 | i  |   1, 89,  1 |||
 90 |          | noName   |  0.51758 |  0.05391 | i  |   1, 90,  1 |||
 91 |          | noName   |  0.02353 |  0.18037 | i  |   1, 91,  1 |||
 92 |          | noName   |  0.04705 | -0.60390 | i  |   1, 92,  1 |||
 93 |          | noName   |  0.21174 | -0.37608 | i  |   1, 93,  1 |||
 94 |          | noName   |  0.02353 |  0.24885 | i  |   1, 94,  1 |||
 95 |          | noName   |  0.07058 | -0.60969 | i  |   1, 95,  1 |||
 96 |          | noName   |  0.00000 | -0.73052 | i  |   1, 96,  1 |||
 97 |          | noName   |  0.14116 | -0.70540 | i  |   1, 97,  1 |||
 98 |          | noName   |  0.11763 |  0.84025 | i  |   1, 98,  1 |||
 99 |          | noName   |  0.09411 |  0.78295 | i  |   1, 99,  1 |||
100 |          | noName   |  0.00000 | -0.83934 | i  |   1,100,  1 |||
101 |          | noName   |  0.11763 |  0.79713 | i  |   1,101,  1 |||
102 |          | noName   |  0.00000 |  0.35005 | i  |   1,102,  1 |||
103 |          | noName   |  0.02353 |  0.85449 | i  |   1,103,  1 |||
104 |          | noName   |  0.04705 | -0.47156 | i  |   1,104,  1 |||
105 |          | noName   |  0.00000 |  0.35214 | i  |   1,105,  1 |||
106 |          | noName   |  0.00000 |  0.26193 | i  |   1,106,  1 |||
107 |          | noName   |  0.11763 |  0.22088 | i  |   1,107,  1 |||
108 |          | noName   |  0.00000 |  0.68479 | i  |   1,108,  1 |||
109 |          | noName   |  0.99847 |  1.05723 | h  |   2,  1,  1 |||
110 |          | noName   |  0.01550 | -8.36637 | h  |   2,  2,  1 |||
111 |          | noName   |  0.00167 |  0.67636 | h  |   2,  3,  1 |||
112 |          | noName   |  0.00009 |  3.25648 | h  |   2,  4,  1 |||
113 |          | noName   |  0.74649 | -1.53871 | h  |   2,  5,  1 |||
114 |          | noName   |  0.00000 | -0.25580 | h  |   2,  6,  1 |||
115 |          | noName   |  0.00176 | -12.89890 | h  |   2,  7,  1 |||
116 |          | noName   |  1.00000 | 12.07333 | h  |   2,  8,  1 |||
117 |          | noName   |  0.00059 | -5.66082 | h  |   2,  9,  1 |||
118 |          | noName   |  0.99803 | -0.03170 | h  |   2, 10,  1 |||
119 |          | noName   |  0.93907 | -8.77627 | h  |   2, 11,  1 |||
120 |          | noName   |  0.99867 |  3.37353 | h  |   2, 12,  1 |||
121 |          | noName   |  0.99990 |  4.38718 | h  |   2, 13,  1 |||
122 |          | noName   |  0.00000 | -23.81198 | o  |   3,  1,  1 |||
123 |          | noName   |  0.00000 | -43.54280 | o  |   3,  2,  1 |||
124 |          | noName   |  0.00000 | -19.82999 | o  |   3,  3,  1 |||
125 |          | noName   |  0.00000 | -16.57422 | o  |   3,  4,  1 |||
126 |          | noName   |  0.00000 | -25.68688 | o  |   3,  5,  1 |||
127 |          | noName   |  0.00000 | -20.87567 | o  |   3,  6,  1 |||
128 |          | noName   |  0.00000 | -29.66784 | o  |   3,  7,  1 |||
129 |          | noName   |  0.00000 | -23.83826 | o  |   3,  8,  1 |||
130 |          | noName   |  0.00000 | -38.15762 | o  |   3,  9,  1 |||
131 |          | noName   |  0.00000 | -34.91199 | o  |   3, 10,  1 |||
132 |          | noName   |  0.00000 | -16.39630 | o  |   3, 11,  1 |||
133 |          | noName   |  0.00091 | -31.55376 | o  |   3, 12,  1 |||
134 |          | noName   |  0.00000 | -20.79784 | o  |   3, 13,  1 |||
135 |          | noName   |  0.00000 | -4.84398 | o  |   3, 14,  1 |||
136 |          | noName   |  0.00000 | -12.68217 | o  |   3, 15,  1 |||
137 |          | noName   |  0.00000 | -32.63677 | o  |   3, 16,  1 |||
138 |          | noName   |  0.00000 | -26.50497 | o  |   3, 17,  1 |||
139 |          | noName   |  0.00011 | -46.83070 | o  |   3, 18,  1 |||
140 |          | noName   |  0.00000 | -19.72419 | o  |   3, 19,  1 |||
141 |          | noName   |  0.00000 | -26.93064 | o  |   3, 20,  1 |||
142 |          | noName   |  0.00000 | -22.25936 | o  |   3, 21,  1 |||
143 |          | noName   |  0.00000 | -11.01945 | o  |   3, 22,  1 |||
144 |          | noName   |  0.00000 | -15.55403 | o  |   3, 23,  1 |||
145 |          | noName   |  0.00000 | -40.56697 | o  |   3, 24,  1 |||
146 |          | noName   |  0.00000 | -8.43282 | o  |   3, 25,  1 |||
147 |          | noName   |  0.99999 | -32.48700 | o  |   3, 26,  1 |||
----|----------|----------|----------|----------|----|-------------|----------|----------|-------


connection definition section :

target | site | source:weight
-------|------|----------------------------------------------------------------------------------------------------------------
   109 |      | 108:-12.54902, 107:-10.60332, 106: 8.09059, 105: 9.57604, 104: 7.72700, 103: 9.46632, 102:-1.51229, 101:-1.07760,
                100:-0.42010,  99:-3.32338,  98:-1.31562,  97: 3.00556,  96:13.99968,  95:11.12716,  94:-8.14568,  93:-7.68683,
                 92: 1.97042,  91:-8.51148,  90:-3.66875,  89: 4.79027,  88: 0.01590,  87:-1.31724,  86: 3.70698,  85: 2.82661,
                 84: 8.11712,  83:-8.13040,  82:-0.56008,  81: 1.50221,  80: 4.65301,  79: 8.91761,  78:-3.50357,  77:-4.15136,
                 76: 3.72753,  75:-4.10177,  74: 2.62039,  73:-0.51000,  72:-3.35188,  71: 5.39052,  70: 1.63560,  69:-2.04553,
                 68: 2.67171,  67:-7.39770,  66: 4.48036,  65: 9.48992,  64:-3.36264,  63: 5.58441,  62:-5.03804,  61: 4.04919,
                 60:-11.89506,  59:-12.51303,  58:-11.90375,  57:-14.01986,  56:-2.68771,  55:-21.78186,  54:-33.82199,  53:-23.47079,
                 52:-17.26629,  51:-3.58994,  50:-2.84949,  49: 3.71378,  48:-1.79863,  47:-4.88716,  46:-0.59859,  45:-0.64101,
                 44: 3.70785,  43:10.58756,  42:-2.46134,  41:-1.99467,  40: 4.33051,  39: 6.67896,  38: 1.50918,  37:-1.18109,
                 36: 6.63479,  35:-4.52138,  34: 5.78091,  33: 8.69739,  32: 7.17590,  31: 2.97549,  30: 6.52083,  29:11.74612,
                 28: 6.12588,  27: 0.98611,  26: 4.87568,  25:-7.87844,  24:14.97467,  23: 6.20790,  22:11.16023,  21: 8.62623,
                 20:-1.82377,  19: 0.14055,  18: 2.31935,  17: 3.31624,  16:-0.39383,  15:-0.14070,  14: 7.31398,  13: 0.44404,
                 12: 1.49389,  11:-4.16658,  10: 2.90531,   9:-1.31714,   8:-13.57015,   7: 7.58135,   6:31.36407,   5:12.60458,
                  4:-10.41081,   3:-7.43517,   2:-3.58958,   1: 1.59145
   110 |      | 108:-1.27680, 107: 5.98421, 106:-0.35005, 105:-1.38502, 104:-10.32330, 103: 5.48968, 102: 5.11775, 101: 3.34555,
                100: 0.59381,  99: 0.53609,  98: 9.10433,  97: 6.31959,  96: 1.40436,  95:-8.77548,  94:-6.75990,  93:-5.98935,
                 92: 2.97114,  91: 3.10724,  90:-2.10316,  89: 5.99202,  88: 2.40667,  87:-0.31499,  86: 4.94290,  85:-3.47158,
                 84:-2.49281,  83: 4.10293,  82: 9.64772,  81:14.60387,  80:-1.73852,  79:-4.77831,  78:-0.09050,  77: 0.32472,
                 76: 5.23160,  75: 5.84130,  74:-3.10229,  73:-5.01569,  72: 0.47404,  71: 9.03207,  70:-2.72581,  69:-4.41523,
                 68:-4.94724,  67:-5.95108,  66: 0.06256,  65: 6.64400,  64:-0.97096,  63: 2.28018,  62: 6.31118,  61: 7.79784,
                 60:15.09378,  59:10.09562,  58:-6.98109,  57:-11.36971,  56: 9.52365,  55: 8.54928,  54: 9.37387,  53:-3.40929,
                 52:-3.24535,  51:-2.71230,  50: 6.72701,  49:-1.25963,  48: 5.06985,  47: 3.78789,  46: 2.06600,  45:-0.83202,
                 44:-3.81792,  43: 1.44617,  42: 1.53718,  41: 0.52440,  40:-5.33163,  39:-8.52561,  38:-2.65131,  37:-0.52448,
                 36:-6.86140,  35:-12.75149,  34: 2.65733,  33:-12.64383,  32:-2.78466,  31:-4.71649,  30:-1.51139,  29:-10.23465,
                 28: 3.18994,  27:-2.90214,  26:10.04339,  25:-0.02374,  24:-3.60256,  23:-4.08194,  22:-5.42164,  21:-2.27053,
                 20:14.41161,  19: 1.52096,  18:-8.04190,  17:-4.60714,  16:-0.78046,  15:-4.54425,  14: 6.60909,  13: 9.70236,
                 12: 2.77820,  11: 2.68377,  10:11.87177,   9:-12.69489,   8:-8.44922,   7:-1.31314,   6: 4.71156,   5:10.01235,
                  4:-0.45420,   3:-7.90439,   2: 3.49793,   1: 1.89348
   111 |      | 108:-2.09749, 107: 7.13327, 106:-8.14983, 105:-5.94572, 104:-4.32700, 103: 1.19454, 102:10.15805, 101: 3.82529,
                100:-4.18655,  99:-3.07219,  98:-5.88805,  97:-0.62095,  96:10.58743,  95: 8.83547,  94: 3.74702,  93:-3.25140,
                 92:-3.05312,  91:-4.25643,  90:-4.38976,  89:-5.10903,  88: 6.32376,  87: 5.51794,  86:-0.61827,  85: 0.56640,
                 84: 9.17309,  83:-3.69797,  82:-5.71158,  81:-8.01021,  80:-3.43564,  79:-1.69118,  78: 2.19892,  77: 5.19268,
                 76:-4.19489,  75:-5.27207,  74: 2.53660,  73: 3.23245,  72: 1.82894,  71:-4.46983,  70:-1.45471,  69:-7.73077,
                 68: 8.64058,  67:12.36498,  66: 0.96995,  65:-1.98373,  64: 2.95617,  63:-0.81328,  62:-0.82076,  61: 3.14416,
                 60:-9.88063,  59:-18.08038,  58:-19.97950,  57:-2.51612,  56:11.65678,  55:14.30872,  54:16.66544,  53: 5.71373,
                 52:-2.78556,  51:-0.53930,  50: 6.98141,  49:18.48252,  48: 7.17864,  47:18.20109,  46: 6.48866,  45:-4.87544,
                 44: 1.16254,  43: 1.78445,  42: 3.30843,  41:-0.05829,  40:-10.19337,  39:-5.21243,  38: 4.39501,  37: 4.69027,
                 36: 6.43078,  35:-14.89732,  34:-0.28945,  33:-2.98245,  32:-5.26958,  31:-11.06456,  30: 3.53399,  29: 6.41956,
                 28:-10.62379,  27: 0.09160,  26:-4.87847,  25:-8.00858,  24:-3.99012,  23: 2.49632,  22:-1.08036,  21: 1.41479,
                 20: 4.83704,  19:-7.18370,  18:-6.11832,  17:-14.08954,  16: 2.68754,  15:15.54713,  14: 4.27672,  13: 0.53040,
                 12:-7.48129,  11: 1.66105,  10: 1.33757,   9:-3.21734,   8:-5.77130,   7: 0.46456,   6: 8.91643,   5: 0.40093,
                  4:-1.56616,   3:-5.29105,   2:-1.91811,   1:-5.01867
   112 |      | 108: 9.82685, 107:-5.51135, 106:11.76775, 105:-6.70814, 104: 5.69051, 103:-8.25651, 102:-7.17406, 101: 4.92839,
                100: 9.33271,  99:10.36164,  98: 2.15845,  97:-3.42507,  96:-12.44119,  95:-4.53049,  94:-1.38028,  93:-3.79113,
                 92:-1.78023,  91:-4.36624,  90:-14.97552,  89: 4.77945,  88:-2.64098,  87: 2.12067,  86:-1.27374,  85: 7.37370,
                 84:-2.53873,  83:13.06729,  82: 7.97120,  81:-5.34948,  80:-5.03241,  79: 8.03962,  78: 8.01903,  77: 4.47016,
                 76:-0.22135,  75:-6.06293,  74:-12.99620,  73:-9.93583,  72: 0.25606,  71: 6.37393,  70:11.31547,  69:-5.02843,
                 68:-7.06759,  67:-2.46924,  66:-7.49398,  65:-12.52951,  64:-0.06817,  63:-5.86180,  62:-0.62867,  61:-1.19770,
                 60:-6.40472,  59:-4.24254,  58:-1.50429,  57:18.09173,  56: 4.05698,  55: 3.26431,  54:-4.19962,  53:-6.05747,
                 52: 0.71304,  51:-5.91605,  50: 8.93944,  49:-17.06790,  48:-8.89410,  47:-6.30435,  46:-8.91792,  45: 6.21304,
                 44:-5.49068,  43: 2.99727,  42:-2.88319,  41:-9.43671,  40: 2.27138,  39:-0.91663,  38:-0.69336,  37: 0.61224,
                 36:-10.38068,  35: 9.67298,  34: 4.99886,  33: 7.57039,  32: 1.27274,  31: 3.03127,  30:-0.58734,  29:-0.08082,
                 28:-0.79643,  27:-4.43254,  26: 4.39114,  25: 0.25958,  24:-3.41980,  23: 8.77998,  22:-0.15579,  21: 2.19495,
                 20: 4.71305,  19:12.99106,  18:10.02834,  17:-11.88870,  16: 6.90840,  15:-2.05202,  14: 1.74561,  13:-0.83974,
                 12: 5.45344,  11: 2.72465,  10:-8.99316,   9:-3.12833,   8: 6.08118,   7: 7.39576,   6:10.88488,   5: 6.90240,
                  4: 1.16701,   3:-3.16862,   2: 0.69381,   1:-7.50952
   113 |      | 108: 7.66912, 107: 3.20192, 106:-7.95084, 105:-8.22508, 104:-7.70180, 103:-0.88024, 102: 0.33926, 101: 4.26260,
                100:-4.52071,  99:-6.25687,  98: 3.08725,  97: 0.88017,  96: 2.82858,  95:11.39848,  94: 0.52235,  93:-8.23054,
                 92: 0.20770,  91:-10.57232,  90: 4.40586,  89:-6.25621,  88: 3.17692,  87: 0.64754,  86: 1.71659,  85:-4.00589,
                 84: 4.71399,  83:-6.09113,  82:-7.33156,  81:-4.77475,  80: 4.68450,  79:-3.66306,  78: 2.33669,  77: 7.83391,
                 76:-3.17615,  75:-1.84182,  74: 3.99168,  73: 0.35273,  72:-3.50906,  71:-2.60214,  70:-9.00049,  69: 0.27698,
                 68: 1.29620,  67: 0.76654,  66: 0.19169,  65: 3.15463,  64: 2.93024,  63: 1.97684,  62:-3.04588,  61: 0.73798,
                 60:-16.29176,  59:-20.28002,  58:-12.28224,  57: 6.97509,  56:-1.63567,  55: 1.65520,  54:-7.10918,  53:-11.21365,
                 52:-10.16319,  51:-3.56525,  50:-22.58035,  49:-7.38725,  48:-15.85938,  47: 3.20889,  46: 5.96604,  45: 7.32400,
                 44: 6.32021,  43:11.85342,  42:-0.53972,  41:-6.60666,  40:-1.24339,  39: 1.09327,  38:-6.62401,  37: 6.34456,
                 36: 3.14382,  35:18.16772,  34: 9.87984,  33: 5.92091,  32: 3.40508,  31: 0.07986,  30: 3.45479,  29: 3.54976,
                 28:-6.50514,  27:14.31547,  26: 9.52969,  25: 6.23536,  24: 3.08112,  23: 1.47513,  22: 5.00351,  21: 0.54238,
                 20:-1.03417,  19:-6.28626,  18: 4.56914,  17:16.84536,  16: 0.33534,  15:-3.98671,  14: 3.61929,  13: 3.38842,
                 12:-10.89390,  11:-0.31675,  10: 6.02714,   9: 5.03811,   8:-11.64044,   7: 2.76454,   6:-3.74573,   5:22.58634,
                  4: 1.38235,   3:-1.62779,   2: 3.82156,   1:10.07908
   114 |      | 108:28.18592, 107:-0.09024, 106:-5.50211, 105:-9.94818, 104: 9.99161, 103:-0.58298, 102:14.87638, 101: 4.81498,
                100:-5.13692,  99:-3.46805,  98: 7.23397,  97: 1.26349,  96:-1.90991,  95: 3.28738,  94:-14.11662,  93: 1.19821,
                 92: 7.74698,  91:13.94704,  90:-1.88513,  89:-4.78968,  88: 2.08884,  87: 8.47457,  86:-4.81364,  85: 6.12809,
                 84: 7.31243,  83: 1.37606,  82:-3.82870,  81:-2.35104,  80:-3.84261,  79: 9.04302,  78:11.97142,  77: 7.29292,
                 76: 3.07456,  75:10.54035,  74:-1.99721,  73: 8.50983,  72:-1.23359,  71: 3.45919,  70:-2.85578,  69: 8.18174,
                 68: 1.42383,  67:-3.16318,  66: 1.63252,  65: 2.58406,  64: 7.49665,  63:-1.60074,  62: 3.34034,  61:-19.49769,
                 60: 1.70089,  59:-3.78700,  58:31.93845,  57:23.56196,  56:11.15482,  55: 2.35693,  54:-36.03269,  53:-9.07287,
                 52: 6.21316,  51:-3.34490,  50: 0.52579,  49:-3.05959,  48: 8.10364,  47: 6.45834,  46: 6.96569,  45: 0.50837,
                 44:-11.20258,  43:-34.79596,  42:-19.41072,  41: 4.20323,  40: 2.61652,  39:-0.08298,  38: 2.17592,  37:10.72896,
                 36: 1.80506,  35:-5.72679,  34:-10.93479,  33:-17.85920,  32:-0.93238,  31: 6.69126,  30:-4.11964,  29:-5.06215,
                 28:-0.19164,  27:-1.97959,  26:-8.51429,  25:-11.32695,  24:-8.61272,  23:-10.09222,  22:-8.62320,  21: 0.53491,
                 20:-4.30405,  19: 8.43272,  18: 7.98743,  17:-2.97522,  16:-0.26409,  15:-4.38153,  14:-4.41640,  13: 5.46291,
                 12:-0.34853,  11:-4.02429,  10:-4.66663,   9:10.73890,   8:-0.75615,   7:-6.27826,   6:-15.92810,   5:-6.85754,
                  4:-14.64392,   3:-3.86911,   2: 6.50613,   1:-11.00848
   115 |      | 108:-2.68968, 107: 7.59310, 106:-0.62110, 105: 9.91555, 104:-8.29117, 103:10.04175, 102:-3.21256, 101:-2.19155,
                100:-8.64967,  99:-3.83907,  98: 1.01610,  97: 4.50404,  96: 0.45374,  95:-2.39972,  94: 3.44518,  93: 0.46100,
                 92: 4.76399,  91: 9.73299,  90:-9.71485,  89: 6.17902,  88:-1.11037,  87:-0.65035,  86:-2.37235,  85:-1.30270,
                 84:-1.49925,  83:-8.29361,  82:-3.18058,  81: 3.98765,  80: 3.40614,  79: 1.76678,  78:-3.51619,  77:-10.28446,
                 76:-0.12560,  75: 5.52239,  74:10.13465,  73: 6.42307,  72:-7.56447,  71: 0.73356,  70: 0.16316,  69: 1.43711,
                 68:11.60585,  67:10.25698,  66: 0.49059,  65: 1.63230,  64: 1.56116,  63:-10.95930,  62:-1.29433,  61:-16.83528,
                 60:19.56360,  59: 6.72607,  58:11.53702,  57:-34.70427,  56:-20.33792,  55:-16.72331,  54: 2.30540,  53:11.61255,
                 52: 0.40411,  51: 7.03217,  50:-11.90117,  49: 9.93194,  48:-12.38626,  47:14.32005,  46: 3.62958,  45:-13.78887,
                 44:-15.47384,  43:-10.18289,  42: 5.42099,  41: 1.09641,  40: 2.63919,  39: 8.25652,  38: 5.21153,  37: 6.87238,
                 36:13.32324,  35: 2.23987,  34:-5.21945,  33:-7.18341,  32:20.22538,  31: 8.09087,  30: 1.91341,  29:16.64838,
                 28: 2.21646,  27: 6.91759,  26:24.37361,  25:12.71935,  24: 2.57829,  23: 4.53005,  22:16.08624,  21:10.37354,
                 20:-0.79488,  19: 7.23487,  18: 1.79955,  17:-7.09868,  16: 2.33311,  15: 8.29929,  14: 8.54838,  13: 4.74038,
                 12: 1.41014,  11: 7.49971,  10:-5.27867,   9:-0.43453,   8: 4.38037,   7:14.65222,   6:-26.49411,   5:-1.43707,
                  4: 1.25661,   3: 0.66137,   2: 4.97417,   1:-7.47918
   116 |      | 108: 2.51193, 107:13.51606, 106:-6.01692, 105:-3.61431, 104:-7.34145, 103:-17.40558, 102: 5.48302, 101: 5.50208,
                100:-13.66360,  99:-5.32162,  98:-11.87552,  97:-15.19400,  96: 5.70281,  95: 1.38572,  94:-11.58790,  93:-5.44378,
                 92: 0.17303,  91:-11.37044,  90:-0.74157,  89: 0.25638,  88: 5.84162,  87:-0.90003,  86: 4.66654,  85: 2.68566,
                 84:-2.86804,  83:-18.39916,  82: 2.28908,  81:-9.46954,  80: 4.60055,  79:-1.63634,  78:-5.40021,  77:-8.50071,
                 76: 5.77483,  75: 4.12897,  74:-2.20066,  73:-8.50906,  72:-3.24645,  71:-5.95847,  70:-1.12122,  69: 5.36901,
                 68:-20.40126,  67:-7.94977,  66:-1.66632,  65: 2.17984,  64: 3.22574,  63: 5.57110,  62: 0.36470,  61: 6.97866,
                 60:-12.50536,  59:-9.92546,  58:-1.85184,  57:-4.71975,  56:-10.55433,  55:-10.47663,  54:-24.58320,  53:-3.40504,
                 52: 2.53880,  51:41.62207,  50:14.87236,  49: 7.83897,  48: 9.84260,  47: 3.15543,  46: 2.04218,  45:-0.85755,
                 44:-0.65668,  43:11.46960,  42: 2.35585,  41:10.09175,  40: 6.57057,  39: 8.91929,  38: 1.86107,  37: 3.54719,
                 36:-6.60621,  35: 3.88921,  34:-2.09284,  33: 0.61178,  32:10.59365,  31: 1.17510,  30: 9.41893,  29: 7.25709,
                 28:-7.87911,  27:-15.56188,  26:-10.86284,  25:-17.57515,  24:-6.27215,  23: 2.44336,  22: 3.32422,  21: 2.63585,
                 20:-8.93563,  19:-3.98737,  18:-2.00360,  17: 5.17303,  16:-2.22373,  15:-9.64361,  14: 1.46325,  13:-7.55549,
                 12: 2.79878,  11:-6.84018,  10: 0.19218,   9:-5.10407,   8: 4.11424,   7:-5.87006,   6: 5.81699,   5: 2.08848,
                  4:-12.47113,   3:-3.55300,   2: 1.10400,   1: 4.17128
   117 |      | 108: 6.53715, 107:-3.43584, 106:-5.82194, 105:-1.98844, 104:-0.59914, 103: 2.19984, 102: 4.70769, 101:12.09557,
                100: 1.33257,  99: 5.64372,  98:-3.79735,  97:-1.56293,  96:-2.85121,  95:11.43244,  94: 0.84813,  93: 8.81836,
                 92: 1.10512,  91:-3.73198,  90:-6.39221,  89: 5.96760,  88:-10.95806,  87:-6.24495,  86:-6.12137,  85:-1.97747,
                 84: 0.36163,  83:-4.29638,  82: 4.79367,  81: 1.18639,  80:-1.82039,  79:11.72084,  78: 2.60462,  77:-2.32400,
                 76: 2.96800,  75: 3.27492,  74: 2.39255,  73: 4.04322,  72: 6.99777,  71: 0.04888,  70: 7.10997,  69:-7.00622,
                 68: 2.55629,  67: 1.89811,  66: 5.78592,  65:-5.58563,  64: 0.04569,  63:-8.47981,  62: 0.52521,  61: 4.89883,
                 60:-1.01956,  59: 4.56263,  58:-2.75830,  57:-0.53514,  56:23.32842,  55:30.46051,  54:26.14602,  53:-1.75570,
                 52:-12.40089,  51:28.63060,  50:10.25711,  49:-3.02305,  48:-9.58963,  47:-1.54077,  46:-3.60599,  45:-6.50719,
                 44: 0.25684,  43: 4.50870,  42:-2.99177,  41:-2.43208,  40:-7.42439,  39: 1.37053,  38:-18.96513,  37:-4.78364,
                 36: 3.61497,  35:-5.11076,  34: 2.17676,  33: 1.74984,  32: 2.41593,  31:-11.61079,  30: 0.87689,  29:-6.90438,
                 28:-2.72747,  27:-13.64387,  26:-2.23530,  25:-5.56339,  24:-7.26769,  23: 1.76638,  22:-2.85256,  21:-8.84641,
                 20:13.79444,  19: 6.22211,  18:-0.04224,  17:-3.74457,  16:-2.37052,  15: 6.31582,  14:-12.69490,  13:-20.55852,
                 12: 0.06564,  11:31.77327,  10: 4.53791,   9: 2.06211,   8:-3.23515,   7:-18.20660,   6:-0.27815,   5:-1.83049,
                  4:-13.47637,   3:-2.62169,   2:-7.90124,   1:12.05869
   118 |      | 108:-1.64051, 107:-5.86152, 106:-2.49980, 105:-7.48251, 104: 9.32474, 103:-11.21896, 102: 0.15345, 101:-2.36430,
                100: 0.83067,  99: 1.47298,  98:-2.36427,  97:-4.63849,  96: 3.08802,  95: 2.57748,  94: 0.21209,  93: 5.27216,
                 92:-4.17512,  91:-3.41412,  90: 3.54461,  89:-0.55911,  88: 3.53826,  87: 1.42363,  86:-3.40261,  85:-2.34838,
                 84: 3.35126,  83: 3.19080,  82:-10.85084,  81:-19.33255,  80:-8.23574,  79:10.77050,  78: 8.71389,  77: 3.95768,
                 76:-3.02587,  75:-2.26182,  74:-6.98693,  73:-11.33889,  72: 9.54309,  71: 3.55824,  70: 1.47471,  69: 4.05833,
                 68:-6.28032,  67: 1.29744,  66:-1.53052,  65:-4.04734,  64:-0.70498,  63: 4.22130,  62:-9.54571,  61:-3.06609,
                 60:23.94229,  59:15.52692,  58:12.48255,  57: 8.06389,  56:-7.34519,  55:-18.82160,  54:-11.54683,  53:12.48210,
                 52:14.80702,  51:10.86744,  50:-2.29561,  49: 0.15913,  48:11.27060,  47: 3.63548,  46:-1.24720,  45: 7.05727,
                 44: 3.51951,  43: 1.20301,  42: 5.03471,  41: 2.02993,  40:-11.67417,  39:-3.57697,  38: 2.01625,  37:-4.29692,
                 36:-3.16651,  35:-0.88506,  34:-4.45018,  33:-7.54164,  32:-3.46709,  31:-6.83105,  30: 1.34784,  29: 5.97815,
                 28: 5.25334,  27: 0.07778,  26:12.68957,  25:-12.93796,  24: 7.07589,  23: 3.72902,  22: 4.39976,  21: 4.06129,
                 20: 6.60105,  19:-4.09342,  18:-1.34314,  17:-4.48855,  16:-17.63922,  15:-16.91038,  14:-4.07949,  13:10.30472,
                 12:13.45009,  11:-6.04634,  10:12.64666,   9:-4.33699,   8:-2.76512,   7:-4.68770,   6:-5.26576,   5:-10.85446,
                  4: 2.02921,   3: 2.12547,   2: 6.85982,   1:-7.64931
   119 |      | 108: 4.95470, 107:-2.09202, 106:17.44929, 105:10.10095, 104: 1.52369, 103:-0.92940, 102: 1.71373, 101: 9.02363,
                100: 5.38388,  99: 6.52835,  98:-2.92396,  97:-4.06938,  96:-4.24630,  95: 8.56270,  94: 6.76882,  93: 4.98342,
                 92:-0.75252,  91:-14.73879,  90: 7.01605,  89:-1.26983,  88:-2.55689,  87:-9.20096,  86: 5.30183,  85:-4.05862,
                 84:19.73213,  83:28.07858,  82:12.37601,  81:-8.38505,  80: 1.36656,  79:-8.22086,  78: 5.44007,  77:11.68976,
                 76:-6.04725,  75:-1.23073,  74:-0.53532,  73: 1.48138,  72:-11.77118,  71: 2.56288,  70:-4.48609,  69:-1.48798,
                 68: 2.00244,  67: 3.47260,  66:11.12950,  65: 0.57342,  64:-0.11597,  63:-5.71144,  62: 9.31157,  61: 6.12943,
                 60: 5.32223,  59: 9.32196,  58:11.13638,  57: 4.45965,  56: 9.51514,  55:25.88579,  54: 2.71705,  53:-16.80987,
                 52:-3.10084,  51:-6.32810,  50:-3.29903,  49:-14.38529,  48:-4.83786,  47: 5.20901,  46: 5.20573,  45: 3.59124,
                 44: 8.94030,  43: 2.39107,  42: 1.75368,  41: 0.27005,  40:-0.42403,  39:-10.60393,  38:-2.54991,  37:-9.38280,
                 36:-10.00816,  35:-5.53251,  34: 6.22719,  33: 1.34162,  32:-14.15597,  31:-11.47026,  30: 4.44382,  29:-9.31503,
                 28:-5.93832,  27: 5.46940,  26: 1.65154,  25:-5.09948,  24: 1.74007,  23:-5.22079,  22:-3.10393,  21:-5.01275,
                 20:-0.86419,  19:-8.89201,  18:-21.21582,  17: 1.91960,  16: 5.91200,  15:33.99041,  14:-10.46475,  13:-37.67017,
                 12:-7.72956,  11:-6.06762,  10:12.23629,   9:-3.85436,   8:-9.40508,   7: 8.27445,   6:16.01740,   5:12.11923,
                  4: 4.97533,   3:-8.16241,   2:-4.77321,   1:-1.43833
   120 |      | 108: 3.63282, 107:-5.20132, 106:10.58347, 105: 3.35435, 104: 2.09550, 103: 2.99840, 102:-6.28945, 101:-13.27308,
                100: 2.47299,  99:-3.41558,  98:-2.47302,  97: 1.37443,  96:-4.62850,  95:-2.70801,  94:10.19164,  93:-2.10513,
                 92:-3.47302,  91:13.20125,  90:-5.94414,  89: 2.60254,  88:-6.48921,  87: 7.09153,  86:-1.99166,  85:12.89183,
                 84: 2.40350,  83:13.15154,  82:-18.63601,  81:-2.25604,  80:-3.51885,  79:-2.90834,  78: 3.62525,  77: 6.89771,
                 76: 6.26520,  75: 4.02546,  74:-1.99693,  73:-13.13606,  72: 3.04871,  71: 4.04646,  70:14.05392,  69: 4.51001,
                 68:-2.27262,  67:-14.73138,  66: 2.42739,  65:-3.65842,  64:-8.64641,  63:-9.29473,  62:-1.58675,  61:-0.69357,
                 60: 4.93557,  59:-0.70361,  58:-0.33908,  57:-10.70376,  56:-16.18199,  55:-13.99035,  54: 5.10813,  53:14.08906,
                 52: 4.85169,  51: 1.43005,  50:-1.00408,  49: 0.20879,  48: 0.21669,  47:-8.94624,  46:-2.94164,  45:-6.65731,
                 44:-3.32349,  43:-4.37754,  42:-7.19277,  41: 6.84225,  40: 1.50099,  39:-5.11631,  38: 3.46612,  37: 4.73308,
                 36:-0.02577,  35:-2.12431,  34: 6.40289,  33:-8.19595,  32: 1.33191,  31: 2.39621,  30: 1.25048,  29:-0.33590,
                 28:-1.76583,  27:-4.86955,  26: 8.95331,  25: 4.10660,  24:-0.87592,  23:-3.48210,  22: 5.86425,  21: 7.55082,
                 20: 1.31817,  19:-2.06070,  18: 6.07284,  17: 6.41471,  16:-3.09797,  15:-0.99095,  14:-2.43947,  13:-0.90811,
                 12: 8.57120,  11: 9.19919,  10:-3.40735,   9: 1.77649,   8:-2.93937,   7: 3.62243,   6:-17.36568,   5: 6.32364,
                  4: 6.80784,   3: 2.94126,   2:-3.96185,   1:-7.98488
   121 |      | 108: 0.32859, 107:-5.15226, 106:-7.83140, 105:-6.61765, 104:-9.04719, 103: 0.92575, 102: 3.23715, 101: 4.14748,
                100:-3.95030,  99: 2.11565,  98: 3.33950,  97: 4.97908,  96: 6.44276,  95: 3.69297,  94:-3.53484,  93:-1.06924,
                 92:-4.59724,  91:-5.90004,  90: 6.70633,  89:-1.31642,  88: 8.80537,  87:-3.04124,  86: 2.78520,  85:-3.51677,
                 84: 2.10215,  83:-7.16026,  82:-11.99692,  81:-5.44853,  80: 3.42224,  79:-5.16493,  78:-9.25839,  77:-2.02231,
                 76:-0.54583,  75: 1.93847,  74: 0.28331,  73:10.51156,  72:-11.25635,  71:-7.24858,  70: 5.70126,  69: 4.26259,
                 68: 4.89633,  67:10.49873,  66: 2.10274,  65: 1.39534,  64: 7.11515,  63:-1.64154,  62:-8.85576,  61: 4.12350,
                 60:-2.63938,  59: 2.57328,  58: 0.45851,  57: 5.72411,  56:11.61149,  55:-5.88452,  54:-9.48164,  53:-19.32549,
                 52:-10.71851,  51:-6.17384,  50: 1.30207,  49: 5.50576,  48: 7.03677,  47: 5.20977,  46:12.29561,  45: 5.77686,
                 44: 5.24651,  43:10.94423,  42: 5.37667,  41: 4.58244,  40: 1.49161,  39: 6.47698,  38:-4.96991,  37:-10.65380,
                 36: 0.73373,  35: 2.69166,  34:-4.02854,  33:-7.24593,  32:-3.63858,  31: 1.87204,  30:-6.42873,  29:-4.64267,
                 28: 0.75750,  27:-6.21929,  26:-14.15829,  25:-5.41889,  24: 1.99819,  23: 1.53405,  22:-11.52798,  21:-9.77926,
                 20:-5.52073,  19:-12.01463,  18: 0.87361,  17: 0.37282,  16: 2.90361,  15:11.71778,  14: 2.26082,  13:-18.15305,
                 12:-2.67243,  11: 2.42800,  10: 1.75503,   9: 2.60590,   8:-1.27781,   7: 6.29442,   6:-7.55829,   5: 3.11740,
                  4:-16.71468,   3: 3.44401,   2:-0.19524,   1: 6.19788
   122 |      | 121:-6.63445, 120:-4.01169, 119:-5.65402, 118: 6.50062, 117: 7.01696, 116: 6.50010, 115:-10.57066, 114: 2.75094,
                113: 4.92845, 112: 0.77809, 111: 5.40026, 110:-1.87432, 109: 1.20026
   123 |      | 121: 6.14484, 120:-6.40181, 119: 4.78445, 118:-8.89378, 117:25.45926, 116:10.57225, 115:-1.22813, 114:-8.40302,
                113:-12.28864, 112:-5.28681, 111: 8.85570, 110:10.16901, 109: 2.73953
   124 |      | 121:12.25392, 120:10.58731, 119:-2.15297, 118: 0.02386, 117:-11.26215, 116: 9.35761, 115:12.58495, 114:-15.43015,
                113:-8.81394, 112:-10.13646, 111:-8.98519, 110:-6.11959, 109:-17.03928
   125 |      | 121:-2.56863, 120: 0.24345, 119:-0.98127, 118: 4.42818, 117: 8.02512, 116: 3.06250, 115:-2.20967, 114:-7.65133,
                113:-23.82894, 112: 2.90168, 111:-5.63413, 110:-0.53823, 109: 6.41460
   126 |      | 121: 7.21139, 120:-17.37836, 119:-10.66863, 118:-6.20038, 117:-18.47585, 116:16.89736, 115:-11.85063, 114:-24.58517,
                113:21.06527, 112:-28.94992, 111:-8.72875, 110:20.83638, 109:-4.59090
   127 |      | 121:-1.22478, 120:-24.30411, 119:-2.78325, 118:-17.97664, 117:-13.90177, 116:17.37131, 115: 0.80981, 114: 4.10547,
                113: 4.91395, 112: 7.79299, 111:-0.14927, 110:-8.79154, 109: 3.12477
   128 |      | 121:10.23323, 120:-13.97589, 119: 0.53482, 118: 5.83127, 117:-13.42776, 116:10.13924, 115:-2.20831, 114:22.52461,
                113:-12.79696, 112:-6.42951, 111: 5.29179, 110: 1.71039, 109:-8.27715
   129 |      | 121: 3.58811, 120:-4.12037, 119:-10.23604, 118: 1.89939, 117:-0.72577, 116:-11.02881, 115:-5.54256, 114: 1.90571,
                113:21.07837, 112:-0.25509, 111: 4.67696, 110: 0.58123, 109:-1.20761
   130 |      | 121:-1.19820, 120:-5.89232, 119:-2.05906, 118:11.11115, 117: 0.10980, 116: 2.46382, 115:23.68839, 114:-11.37622,
                113: 1.90932, 112: 8.16280, 111: 2.64715, 110:-8.50883, 109: 0.02841
   131 |      | 121:-13.29564, 120:17.48114, 119: 4.29038, 118: 8.18027, 117:-31.05050, 116:-4.07450, 115:-2.60632, 114: 3.37099,
                113:-1.04188, 112:15.03689, 111:-5.57304, 110:18.29059, 109: 2.26778
   132 |      | 121: 3.92833, 120:-6.20435, 119:22.78492, 118:-8.99573, 117:-7.84065, 116:-19.38180, 115: 2.48182, 114: 0.87153,
                113: 4.10193, 112: 0.44827, 111: 7.32289, 110:-9.60656, 109:-22.36963
   133 |      | 121: 8.87021, 120:-4.46457, 119: 3.48099, 118:17.48525, 117:-9.09934, 116:-11.31419, 115: 7.69153, 114:-1.08271,
                113: 4.61255, 112:-6.00136, 111:-2.07256, 110:-3.60374, 109: 7.35375
   134 |      | 121:-10.63596, 120: 9.58508, 119:-1.60600, 118:-1.35559, 117: 9.93464, 116:-18.19910, 115:-16.82432, 114:-0.24758,
                113:-15.98345, 112:-0.76947, 111:26.06616, 110: 2.31859, 109:-32.56617
   135 |      | 121:-18.43614, 120: 0.54421, 119: 3.42556, 118: 0.60006, 117: 7.25821, 116:-29.32792, 115:-17.82810, 114:-7.73321,
                113:13.53825, 112: 2.00882, 111:-19.48285, 110:-1.24337, 109:-5.96750
   136 |      | 121:-4.04002, 120: 0.33870, 119:-4.59070, 118: 3.07286, 117: 4.57797, 116: 5.85176, 115: 1.81681, 114:-8.84227,
                113:-2.51793, 112:-2.35223, 111:-2.97699, 110: 1.57350, 109:-6.42019
   137 |      | 121: 5.54955, 120: 5.20201, 119:-15.36954, 118:-18.40779, 117:13.07575, 116:16.65666, 115: 2.43135, 114:-15.09783,
                113: 6.06865, 112:-0.40593, 111: 0.70102, 110:-19.52560, 109: 0.74572
   138 |      | 121:-1.97579, 120: 7.69057, 119:-6.88963, 118:-3.40743, 117: 6.13454, 116:16.41800, 115:-2.09509, 114:17.57792,
                113:-7.76644, 112:-5.12347, 111:-8.53917, 110:-3.24979, 109:-0.63291
   139 |      | 121: 1.69778, 120: 3.96941, 119:19.85046, 118:-2.10248, 117:13.65702, 116:15.91940, 115:-9.55834, 114:-2.38942,
                113:11.67660, 112: 0.74183, 111:-2.91921, 110:-9.79222, 109:-8.95386
   140 |      | 121:-11.60530, 120:-22.82133, 119: 2.08639, 118:-3.03026, 117:-23.93286, 116:16.26382, 115: 7.12212, 114:-12.35463,
                113:-19.61531, 112:-12.50654, 111: 3.54785, 110: 4.83287, 109:10.32566
   141 |      | 121:-13.27048, 120:11.56468, 119:-1.06228, 118:-12.57195, 117:-13.97250, 116:13.60389, 115:-0.86056, 114:-9.53023,
                113: 6.15634, 112:10.63913, 111:-7.31968, 110:-31.99250, 109: 1.39351
   142 |      | 121:-1.07159, 120: 3.01359, 119:-1.73218, 118: 7.14468, 117: 9.15142, 116:-18.08495, 115:10.26614, 114: 3.26060,
                113: 2.91894, 112:-9.78198, 111:-4.05443, 110: 0.90692, 109:-2.71731
   143 |      | 121:-0.21772, 120:-1.70229, 119:-7.78759, 118:-4.64271, 117: 2.25786, 116:-5.52508, 115:10.31845, 114:-3.32636,
                113:-0.12077, 112: 6.75597, 111:-9.62970, 110: 0.35227, 109:-10.44901
   144 |      | 121:17.48573, 120:-0.62355, 119:-2.55753, 118:-0.38658, 117: 7.85508, 116:-22.40024, 115:-20.10716, 114: 6.49551,
                113:-16.06096, 112: 6.52387, 111:-29.93630, 110: 1.67352, 109: 0.52634
   145 |      | 121:-7.08384, 120: 0.55763, 119:16.79944, 118:-12.47362, 117: 3.86095, 116:-16.46944, 115:-1.01457, 114: 6.20219,
                113: 6.75345, 112:-0.87594, 111: 2.76486, 110: 2.14879, 109:26.83900
   146 |      | 121: 2.17602, 120: 1.92112, 119:-28.55412, 118:-19.60811, 117:-3.70389, 116:-23.89098, 115:13.03395, 114:-12.16879,
                113:-3.59037, 112:-4.65975, 111: 7.74477, 110:-6.35694, 109:13.52432
   147 |      | 121: 9.30238, 120:10.60129, 119: 1.87279, 118: 8.02406, 117:-10.37494, 116: 6.33616, 115:-7.43305, 114:-5.85877,
                113:-3.99713, 112:-3.87491, 111: 4.79985, 110:-9.13319, 109:11.18371
-------|------|----------------------------------------------------------------------------------------------------------------


layer definition section :

layer | unitNo.
------|-----------------------------------------------------------------------------------------------------------------------------
    2 | 109, 110, 111, 112, 113, 114, 115, 116, 117, 118, 119, 120, 121
    3 | 122, 123, 124, 125, 126, 127, 128, 129, 130, 131, 132, 133, 134, 135, 136, 137, 138, 139, 140, 141, 142, 143, 144, 145, 146,
        147
------|-----------------------------------------------------------------------------------------------------------------------------
