SNNS network definition file V1.4-3D
generated at Fri Jul 10 11:38:20 2015

network name : num7
source files :
no. of units : 469
no. of connections : 44890
no. of unit types : 0
no. of site types : 0


learning function : Std_Backpropagation
update function   : Topological_Order


unit default section :

act      | bias     | st | subnet | layer | act func     | out func
---------|----------|----|--------|-------|--------------|-------------
 0.00000 |  0.00000 | h  |      0 |     1 | Act_Logistic | Out_Identity 
---------|----------|----|--------|-------|--------------|-------------


unit definition section :

no. | typeName | unitName | act      | bias     | st | position    | act func | out func | sites
----|----------|----------|----------|----------|----|-------------|----------|----------|-------
  1 |          | noName   |  0.39687 | -0.70374 | i  |   1,  1,  1 |||
  2 |          | noName   |  0.23405 |  0.70712 | i  |   1,  2,  1 |||
  3 |          | noName   |  0.15046 | -0.38411 | i  |   1,  3,  1 |||
  4 |          | noName   |  0.10249 | -0.29925 | i  |   1,  4,  1 |||
  5 |          | noName   |  0.06106 |  0.27986 | i  |   1,  5,  1 |||
  6 |          | noName   |  0.02762 |  0.43196 | i  |   1,  6,  1 |||
  7 |          | noName   |  0.02399 | -0.53265 | i  |   1,  7,  1 |||
  8 |          | noName   |  0.02399 | -0.33361 | i  |   1,  8,  1 |||
  9 |          | noName   |  0.05379 |  0.63164 | i  |   1,  9,  1 |||
 10 |          | noName   |  0.19044 |  0.15166 | i  |   1, 10,  1 |||
 11 |          | noName   |  0.02666 | -0.91592 | i  |   1, 11,  1 |||
 12 |          | noName   |  0.06915 | -0.80411 | i  |   1, 12,  1 |||
 13 |          | noName   |  0.13869 |  0.02478 | i  |   1, 13,  1 |||
 14 |          | noName   |  0.18350 | -0.62468 | i  |   1, 14,  1 |||
 15 |          | noName   |  0.21363 |  0.31835 | i  |   1, 15,  1 |||
 16 |          | noName   |  0.23063 |  0.83203 | i  |   1, 16,  1 |||
 17 |          | noName   |  0.25033 |  0.30630 | i  |   1, 17,  1 |||
 18 |          | noName   |  0.24647 | -0.30806 | i  |   1, 18,  1 |||
 19 |          | noName   |  0.04868 |  0.58861 | i  |   1, 19,  1 |||
 20 |          | noName   |  0.09503 | -0.90452 | i  |   1, 20,  1 |||
 21 |          | noName   |  0.30066 |  0.05479 | i  |   1, 21,  1 |||
 22 |          | noName   |  0.20847 |  0.29438 | i  |   1, 22,  1 |||
 23 |          | noName   |  0.14749 |  0.46261 | i  |   1, 23,  1 |||
 24 |          | noName   |  0.10211 |  0.19840 | i  |   1, 24,  1 |||
 25 |          | noName   |  0.07800 |  0.71721 | i  |   1, 25,  1 |||
 26 |          | noName   |  0.05105 |  0.26318 | i  |   1, 26,  1 |||
 27 |          | noName   |  0.03687 | -0.23571 | i  |   1, 27,  1 |||
 28 |          | noName   |  0.03120 | -0.82737 | i  |   1, 28,  1 |||
 29 |          | noName   |  0.01844 |  0.20560 | i  |   1, 29,  1 |||
 30 |          | noName   |  0.40135 |  0.97655 | i  |   1, 30,  1 |||
 31 |          | noName   |  0.36795 | -0.48706 | i  |   1, 31,  1 |||
 32 |          | noName   |  0.20772 |  0.72700 | i  |   1, 32,  1 |||
 33 |          | noName   |  0.15430 |  0.14383 | i  |   1, 33,  1 |||
 34 |          | noName   |  0.07122 | -0.69548 | i  |   1, 34,  1 |||
 35 |          | noName   |  0.02967 | -0.62228 | i  |   1, 35,  1 |||
 36 |          | noName   |  0.07715 |  0.27016 | i  |   1, 36,  1 |||
 37 |          | noName   |  0.07715 | -0.78882 | i  |   1, 37,  1 |||
 38 |          | noName   |  0.10089 | -0.01051 | i  |   1, 38,  1 |||
 39 |          | noName   |  0.19585 |  0.49332 | i  |   1, 39,  1 |||
 40 |          | noName   |  0.32048 |  0.25995 | i  |   1, 40,  1 |||
 41 |          | noName   |  0.18848 |  0.86082 | i  |   1, 41,  1 |||
 42 |          | noName   |  0.29170 |  0.15064 | i  |   1, 42,  1 |||
 43 |          | noName   |  0.29619 | -0.73601 | i  |   1, 43,  1 |||
 44 |          | noName   |  0.23897 |  0.84538 | i  |   1, 44,  1 |||
 45 |          | noName   |  0.19073 |  0.25443 | i  |   1, 45,  1 |||
 46 |          | noName   |  0.16043 | -0.58088 | i  |   1, 46,  1 |||
 47 |          | noName   |  0.14809 | -0.20683 | i  |   1, 47,  1 |||
 48 |          | noName   |  0.13575 |  0.28763 | i  |   1, 48,  1 |||
 49 |          | noName   |  0.10210 | -0.25963 | i  |   1, 49,  1 |||
 50 |          | noName   |  0.03702 |  0.46638 | i  |   1, 50,  1 |||
 51 |          | noName   |  0.13685 |  0.70976 | i  |   1, 51,  1 |||
 52 |          | noName   |  0.19338 | -0.82597 | i  |   1, 52,  1 |||
 53 |          | noName   |  0.16115 |  0.33062 | i  |   1, 53,  1 |||
 54 |          | noName   |  0.13636 | -0.81572 | i  |   1, 54,  1 |||
 55 |          | noName   |  0.12594 |  0.08989 | i  |   1, 55,  1 |||
 56 |          | noName   |  0.12694 |  0.41893 | i  |   1, 56,  1 |||
 57 |          | noName   |  0.10413 | -0.84503 | i  |   1, 57,  1 |||
 58 |          | noName   |  0.10909 |  0.47766 | i  |   1, 58,  1 |||
 59 |          | noName   |  0.29800 | -0.14581 | i  |   1, 59,  1 |||
 60 |          | noName   |  0.18991 |  0.58423 | i  |   1, 60,  1 |||
 61 |          | noName   |  0.00000 |  0.07158 | i  |   1, 61,  1 |||
 62 |          | noName   |  0.21198 |  0.40494 | i  |   1, 62,  1 |||
 63 |          | noName   |  0.00000 | -0.81309 | i  |   1, 63,  1 |||
 64 |          | noName   |  0.00000 |  0.40667 | i  |   1, 64,  1 |||
 65 |          | noName   |  0.37097 |  0.80635 | i  |   1, 65,  1 |||
 66 |          | noName   |  0.42396 | -0.47271 | i  |   1, 66,  1 |||
 67 |          | noName   |  0.00000 | -0.80341 | i  |   1, 67,  1 |||
 68 |          | noName   |  0.37097 |  0.50740 | i  |   1, 68,  1 |||
 69 |          | noName   |  0.37097 |  0.02435 | i  |   1, 69,  1 |||
 70 |          | noName   |  0.00000 |  0.98229 | i  |   1, 70,  1 |||
 71 |          | noName   |  0.00000 |  0.01350 | i  |   1, 71,  1 |||
 72 |          | noName   |  0.05300 | -0.84731 | i  |   1, 72,  1 |||
 73 |          | noName   |  0.00000 | -0.51692 | i  |   1, 73,  1 |||
 74 |          | noName   |  0.05300 | -0.42790 | i  |   1, 74,  1 |||
 75 |          | noName   |  0.26498 |  0.87984 | i  |   1, 75,  1 |||
 76 |          | noName   |  0.00000 |  0.36156 | i  |   1, 76,  1 |||
 77 |          | noName   |  0.15899 | -0.71377 | i  |   1, 77,  1 |||
 78 |          | noName   |  0.10599 | -0.45636 | i  |   1, 78,  1 |||
 79 |          | noName   |  0.00000 |  0.39367 | i  |   1, 79,  1 |||
 80 |          | noName   |  0.00000 | -0.49789 | i  |   1, 80,  1 |||
 81 |          | noName   |  0.00000 | -0.31130 | i  |   1, 81,  1 |||
 82 |          | noName   |  0.00000 |  0.63851 | i  |   1, 82,  1 |||
 83 |          | noName   |  0.21198 |  0.06107 | i  |   1, 83,  1 |||
 84 |          | noName   |  0.05300 |  0.32358 | i  |   1, 84,  1 |||
 85 |          | noName   |  0.05300 |  0.86884 | i  |   1, 85,  1 |||
 86 |          | noName   |  0.52996 |  0.21107 | i  |   1, 86,  1 |||
 87 |          | noName   |  0.00000 | -0.38435 | i  |   1, 87,  1 |||
 88 |          | noName   |  0.00000 |  0.83325 | i  |   1, 88,  1 |||
 89 |          | noName   |  0.10599 | -0.41567 | i  |   1, 89,  1 |||
 90 |          | noName   |  0.42396 | -0.03395 | i  |   1, 90,  1 |||
 91 |          | noName   |  0.31797 | -0.61357 | i  |   1, 91,  1 |||
 92 |          | noName   |  0.10599 |  0.90014 | i  |   1, 92,  1 |||
 93 |          | noName   |  0.15899 | -0.80300 | i  |   1, 93,  1 |||
 94 |          | noName   |  0.00000 |  0.27263 | i  |   1, 94,  1 |||
 95 |          | noName   |  0.00000 |  0.31946 | i  |   1, 95,  1 |||
 96 |          | noName   |  0.05300 |  0.45979 | i  |   1, 96,  1 |||
 97 |          | noName   |  0.05300 | -0.24585 | i  |   1, 97,  1 |||
 98 |          | noName   |  0.00000 | -0.40567 | i  |   1, 98,  1 |||
 99 |          | noName   |  0.47696 |  0.35403 | i  |   1, 99,  1 |||
100 |          | noName   |  0.00000 | -0.12633 | i  |   1,100,  1 |||
101 |          | noName   |  0.26498 |  0.74393 | i  |   1,101,  1 |||
102 |          | noName   |  0.00000 | -0.23415 | i  |   1,102,  1 |||
103 |          | noName   |  0.00000 |  0.76907 | i  |   1,103,  1 |||
104 |          | noName   |  0.00000 | -0.31622 | i  |   1,104,  1 |||
105 |          | noName   |  0.00000 |  0.92905 | i  |   1,105,  1 |||
106 |          | noName   |  0.00000 |  0.48626 | i  |   1,106,  1 |||
107 |          | noName   |  0.21198 |  0.17940 | i  |   1,107,  1 |||
108 |          | noName   |  0.00000 |  0.67745 | i  |   1,108,  1 |||
109 |          | noName   |  0.04615 |  0.50234 | h  |   2,  1,  1 |||
110 |          | noName   |  0.10651 | -1.64814 | h  |   2,  2,  1 |||
111 |          | noName   |  0.05992 | -0.53684 | h  |   2,  3,  1 |||
112 |          | noName   |  0.02269 | -1.99704 | h  |   2,  4,  1 |||
113 |          | noName   |  0.05044 | -1.24140 | h  |   2,  5,  1 |||
114 |          | noName   |  0.04940 | -2.03181 | h  |   2,  6,  1 |||
115 |          | noName   |  0.04054 | -1.45226 | h  |   2,  7,  1 |||
116 |          | noName   |  0.38324 |  0.07229 | h  |   2,  8,  1 |||
117 |          | noName   |  0.10920 | -0.97654 | h  |   2,  9,  1 |||
118 |          | noName   |  0.01124 | -0.39536 | h  |   2, 10,  1 |||
119 |          | noName   |  0.05907 | -1.16387 | h  |   2, 11,  1 |||
120 |          | noName   |  0.00771 | -0.83058 | h  |   2, 12,  1 |||
121 |          | noName   |  0.08565 |  0.24467 | h  |   2, 13,  1 |||
122 |          | noName   |  0.18845 | -0.80762 | h  |   2, 14,  1 |||
123 |          | noName   |  0.09020 | -0.12888 | h  |   2, 15,  1 |||
124 |          | noName   |  0.01798 | -0.49810 | h  |   2, 16,  1 |||
125 |          | noName   |  0.31912 | -1.55183 | h  |   2, 17,  1 |||
126 |          | noName   |  0.01517 | -0.59826 | h  |   2, 18,  1 |||
127 |          | noName   |  0.46978 | -1.38455 | h  |   2, 19,  1 |||
128 |          | noName   |  0.06502 | -1.19024 | h  |   2, 20,  1 |||
129 |          | noName   |  0.34172 | -1.01965 | h  |   2, 21,  1 |||
130 |          | noName   |  0.04790 |  0.35193 | h  |   2, 22,  1 |||
131 |          | noName   |  0.17127 | -1.74533 | h  |   2, 23,  1 |||
132 |          | noName   |  0.15593 | -0.28516 | h  |   2, 24,  1 |||
133 |          | noName   |  0.05735 | -1.43054 | h  |   2, 25,  1 |||
134 |          | noName   |  0.41999 | -0.90564 | h  |   2, 26,  1 |||
135 |          | noName   |  0.06298 |  0.77190 | h  |   2, 27,  1 |||
136 |          | noName   |  0.02899 | -1.66326 | h  |   2, 28,  1 |||
137 |          | noName   |  0.27417 | -0.26689 | h  |   2, 29,  1 |||
138 |          | noName   |  0.20374 | -1.58829 | h  |   2, 30,  1 |||
139 |          | noName   |  0.12299 | -1.65597 | h  |   2, 31,  1 |||
140 |          | noName   |  0.20079 | -2.65238 | h  |   2, 32,  1 |||
141 |          | noName   |  0.05217 | -1.46631 | h  |   2, 33,  1 |||
142 |          | noName   |  0.23461 | -0.00410 | h  |   2, 34,  1 |||
143 |          | noName   |  0.00222 | -0.49689 | h  |   2, 35,  1 |||
144 |          | noName   |  0.03764 | -0.89727 | h  |   2, 36,  1 |||
145 |          | noName   |  0.08420 | -0.14388 | h  |   2, 37,  1 |||
146 |          | noName   |  0.08653 |  0.04646 | h  |   2, 38,  1 |||
147 |          | noName   |  0.00081 | -1.12047 | h  |   2, 39,  1 |||
148 |          | noName   |  0.02137 |  0.67199 | h  |   2, 40,  1 |||
149 |          | noName   |  0.02582 | -0.40744 | h  |   2, 41,  1 |||
150 |          | noName   |  0.39928 | -0.58250 | h  |   2, 42,  1 |||
151 |          | noName   |  0.00872 | -1.64812 | h  |   2, 43,  1 |||
152 |          | noName   |  0.53152 | -0.32077 | h  |   2, 44,  1 |||
153 |          | noName   |  0.28756 | -0.26950 | h  |   2, 45,  1 |||
154 |          | noName   |  0.14173 |  0.20455 | h  |   2, 46,  1 |||
155 |          | noName   |  0.06244 | -0.51186 | h  |   2, 47,  1 |||
156 |          | noName   |  0.02512 |  0.17413 | h  |   2, 48,  1 |||
157 |          | noName   |  0.11817 | -0.95123 | h  |   2, 49,  1 |||
158 |          | noName   |  0.11689 | -0.12586 | h  |   2, 50,  1 |||
159 |          | noName   |  0.03636 | -1.45646 | h  |   2, 51,  1 |||
160 |          | noName   |  0.00293 |  0.53213 | h  |   2, 52,  1 |||
161 |          | noName   |  0.06534 | -0.46917 | h  |   2, 53,  1 |||
162 |          | noName   |  0.22069 | -0.73502 | h  |   2, 54,  1 |||
163 |          | noName   |  0.26414 | -0.97607 | h  |   2, 55,  1 |||
164 |          | noName   |  0.03281 | -0.56606 | h  |   2, 56,  1 |||
165 |          | noName   |  0.17326 | -0.87629 | h  |   2, 57,  1 |||
166 |          | noName   |  0.37326 | -0.76029 | h  |   2, 58,  1 |||
167 |          | noName   |  0.05093 | -0.95153 | h  |   2, 59,  1 |||
168 |          | noName   |  0.77515 | -2.64204 | h  |   2, 60,  1 |||
169 |          | noName   |  0.11996 | -0.21992 | h  |   2, 61,  1 |||
170 |          | noName   |  0.11822 | -0.80823 | h  |   2, 62,  1 |||
171 |          | noName   |  0.12336 | -0.40196 | h  |   2, 63,  1 |||
172 |          | noName   |  0.39924 | -1.57399 | h  |   2, 64,  1 |||
173 |          | noName   |  0.15920 | -1.24408 | h  |   2, 65,  1 |||
174 |          | noName   |  0.31437 | -0.95721 | h  |   2, 66,  1 |||
175 |          | noName   |  0.34718 | -1.41816 | h  |   2, 67,  1 |||
176 |          | noName   |  0.01391 | -2.34130 | h  |   2, 68,  1 |||
177 |          | noName   |  0.05202 | -0.02284 | h  |   2, 69,  1 |||
178 |          | noName   |  0.00856 | -1.88424 | h  |   2, 70,  1 |||
179 |          | noName   |  0.15122 | -0.58905 | h  |   2, 71,  1 |||
180 |          | noName   |  0.17219 | -1.17739 | h  |   2, 72,  1 |||
181 |          | noName   |  0.86331 | -1.63883 | h  |   2, 73,  1 |||
182 |          | noName   |  0.07397 | -0.11239 | h  |   2, 74,  1 |||
183 |          | noName   |  0.09367 | -1.41716 | h  |   2, 75,  1 |||
184 |          | noName   |  0.05175 | -1.15765 | h  |   2, 76,  1 |||
185 |          | noName   |  0.08168 | -0.35240 | h  |   2, 77,  1 |||
186 |          | noName   |  0.06971 | -0.44944 | h  |   2, 78,  1 |||
187 |          | noName   |  0.02981 | -0.19058 | h  |   2, 79,  1 |||
188 |          | noName   |  0.43608 | -1.13763 | h  |   2, 80,  1 |||
189 |          | noName   |  0.34685 | -1.58906 | h  |   2, 81,  1 |||
190 |          | noName   |  0.26446 | -0.15757 | h  |   2, 82,  1 |||
191 |          | noName   |  0.15959 |  0.19757 | h  |   2, 83,  1 |||
192 |          | noName   |  0.13543 | -2.64590 | h  |   2, 84,  1 |||
193 |          | noName   |  0.40254 | -0.65434 | h  |   2, 85,  1 |||
194 |          | noName   |  0.48678 | -0.61357 | h  |   2, 86,  1 |||
195 |          | noName   |  0.45753 | -2.60197 | h  |   2, 87,  1 |||
196 |          | noName   |  0.07380 | -1.03952 | h  |   2, 88,  1 |||
197 |          | noName   |  0.17462 | -0.79229 | h  |   2, 89,  1 |||
198 |          | noName   |  0.01825 | -2.76239 | h  |   2, 90,  1 |||
199 |          | noName   |  0.60668 | -3.95595 | h  |   2, 91,  1 |||
200 |          | noName   |  0.19802 | -1.26987 | h  |   2, 92,  1 |||
201 |          | noName   |  0.42086 |  0.66948 | h  |   2, 93,  1 |||
202 |          | noName   |  0.14744 | -0.80539 | h  |   2, 94,  1 |||
203 |          | noName   |  0.01405 |  0.35275 | h  |   2, 95,  1 |||
204 |          | noName   |  0.00686 | -0.34583 | h  |   2, 96,  1 |||
205 |          | noName   |  0.15022 |  0.38647 | h  |   2, 97,  1 |||
206 |          | noName   |  0.65457 | -0.88396 | h  |   2, 98,  1 |||
207 |          | noName   |  0.88683 | -2.26101 | h  |   2, 99,  1 |||
208 |          | noName   |  0.00838 | -0.69111 | h  |   2,100,  1 |||
209 |          | noName   |  0.00753 | -0.11299 | h  |   2,101,  1 |||
210 |          | noName   |  0.05785 | -0.92376 | h  |   2,102,  1 |||
211 |          | noName   |  0.67023 |  0.11064 | h  |   2,103,  1 |||
212 |          | noName   |  0.02194 | -2.17708 | h  |   2,104,  1 |||
213 |          | noName   |  0.00310 | -1.09619 | h  |   2,105,  1 |||
214 |          | noName   |  0.24663 | -0.14252 | h  |   2,106,  1 |||
215 |          | noName   |  0.00700 | -2.50357 | h  |   2,107,  1 |||
216 |          | noName   |  0.15464 | -2.67777 | h  |   2,108,  1 |||
217 |          | noName   |  0.06228 | -2.65901 | h  |   2,109,  1 |||
218 |          | noName   |  0.08271 | -1.64160 | h  |   2,110,  1 |||
219 |          | noName   |  0.00997 | -0.90676 | h  |   2,111,  1 |||
220 |          | noName   |  0.04036 | -0.26964 | h  |   2,112,  1 |||
221 |          | noName   |  0.07204 |  0.22726 | h  |   2,113,  1 |||
222 |          | noName   |  0.04752 | -0.27522 | h  |   2,114,  1 |||
223 |          | noName   |  0.25018 | -0.38025 | h  |   2,115,  1 |||
224 |          | noName   |  0.03537 | -2.11363 | h  |   2,116,  1 |||
225 |          | noName   |  0.05831 | -0.54725 | h  |   2,117,  1 |||
226 |          | noName   |  0.09592 | -0.02268 | h  |   2,118,  1 |||
227 |          | noName   |  0.06603 |  0.32974 | h  |   2,119,  1 |||
228 |          | noName   |  0.05135 |  0.36234 | h  |   2,120,  1 |||
229 |          | noName   |  0.67710 | -3.50268 | h  |   2,121,  1 |||
230 |          | noName   |  0.01037 |  0.00165 | h  |   2,122,  1 |||
231 |          | noName   |  0.02002 | -1.10927 | h  |   2,123,  1 |||
232 |          | noName   |  0.25065 | -0.36370 | h  |   2,124,  1 |||
233 |          | noName   |  0.68585 | -0.00201 | h  |   2,125,  1 |||
234 |          | noName   |  0.07441 |  0.95262 | h  |   2,126,  1 |||
235 |          | noName   |  0.22218 | -0.13630 | h  |   2,127,  1 |||
236 |          | noName   |  0.04787 | -1.73895 | h  |   2,128,  1 |||
237 |          | noName   |  0.16829 | -0.45190 | h  |   2,129,  1 |||
238 |          | noName   |  0.00705 |  0.31236 | h  |   2,130,  1 |||
239 |          | noName   |  0.06406 | -1.31414 | h  |   2,131,  1 |||
240 |          | noName   |  0.01141 | -0.08831 | h  |   2,132,  1 |||
241 |          | noName   |  0.17854 | -0.81216 | h  |   2,133,  1 |||
242 |          | noName   |  0.21145 | -0.15920 | h  |   2,134,  1 |||
243 |          | noName   |  0.03041 | -0.88932 | h  |   2,135,  1 |||
244 |          | noName   |  0.01126 | -0.95778 | h  |   2,136,  1 |||
245 |          | noName   |  0.07565 | -1.14780 | h  |   2,137,  1 |||
246 |          | noName   |  0.11805 | -0.65304 | h  |   2,138,  1 |||
247 |          | noName   |  0.37567 | -2.11837 | h  |   2,139,  1 |||
248 |          | noName   |  0.19552 | -0.67436 | h  |   2,140,  1 |||
249 |          | noName   |  0.15653 | -1.48071 | h  |   2,141,  1 |||
250 |          | noName   |  0.01407 |  0.05922 | h  |   2,142,  1 |||
251 |          | noName   |  0.00970 | -0.43857 | h  |   2,143,  1 |||
252 |          | noName   |  0.00098 | -1.16918 | h  |   2,144,  1 |||
253 |          | noName   |  0.08777 |  1.09643 | h  |   2,145,  1 |||
254 |          | noName   |  0.02212 | -1.44172 | h  |   2,146,  1 |||
255 |          | noName   |  0.01913 |  0.49793 | h  |   2,147,  1 |||
256 |          | noName   |  0.03400 | -1.11820 | h  |   2,148,  1 |||
257 |          | noName   |  0.06851 | -0.87538 | h  |   2,149,  1 |||
258 |          | noName   |  0.26074 | -0.16056 | h  |   2,150,  1 |||
259 |          | noName   |  0.79684 |  0.21147 | h  |   2,151,  1 |||
260 |          | noName   |  0.00454 | -0.74131 | h  |   2,152,  1 |||
261 |          | noName   |  0.10119 | -0.20394 | h  |   2,153,  1 |||
262 |          | noName   |  0.78651 | -1.63021 | h  |   2,154,  1 |||
263 |          | noName   |  0.02779 | -0.78505 | h  |   2,155,  1 |||
264 |          | noName   |  0.02036 | -0.81060 | h  |   2,156,  1 |||
265 |          | noName   |  0.02130 | -0.98103 | h  |   2,157,  1 |||
266 |          | noName   |  0.02801 | -1.95801 | h  |   2,158,  1 |||
267 |          | noName   |  0.11374 | -1.12842 | h  |   2,159,  1 |||
268 |          | noName   |  0.03245 | -0.03777 | h  |   2,160,  1 |||
269 |          | noName   |  0.09466 |  0.54715 | h  |   2,161,  1 |||
270 |          | noName   |  0.12856 | -0.55528 | h  |   2,162,  1 |||
271 |          | noName   |  0.08057 | -1.15295 | h  |   2,163,  1 |||
272 |          | noName   |  0.15339 | -0.23975 | h  |   2,164,  1 |||
273 |          | noName   |  0.03907 | -0.06431 | h  |   2,165,  1 |||
274 |          | noName   |  0.74003 | -0.77340 | h  |   2,166,  1 |||
275 |          | noName   |  0.12221 | -2.66273 | h  |   2,167,  1 |||
276 |          | noName   |  0.13509 | -0.31822 | h  |   2,168,  1 |||
277 |          | noName   |  0.04194 |  0.15340 | h  |   2,169,  1 |||
278 |          | noName   |  0.00218 |  0.09278 | h  |   2,170,  1 |||
279 |          | noName   |  0.16671 | -1.99961 | h  |   2,171,  1 |||
280 |          | noName   |  0.48558 | -2.73710 | h  |   2,172,  1 |||
281 |          | noName   |  0.01027 | -1.66589 | h  |   2,173,  1 |||
282 |          | noName   |  0.25983 | -1.20088 | h  |   2,174,  1 |||
283 |          | noName   |  0.02105 | -1.48333 | h  |   2,175,  1 |||
284 |          | noName   |  0.02913 |  0.38258 | h  |   2,176,  1 |||
285 |          | noName   |  0.40716 | -2.15290 | h  |   2,177,  1 |||
286 |          | noName   |  0.13572 |  0.12159 | h  |   2,178,  1 |||
287 |          | noName   |  0.01094 | -1.60085 | h  |   2,179,  1 |||
288 |          | noName   |  0.06970 | -0.80068 | h  |   2,180,  1 |||
289 |          | noName   |  0.37630 | -1.51571 | h  |   2,181,  1 |||
290 |          | noName   |  0.24760 | -2.01307 | h  |   2,182,  1 |||
291 |          | noName   |  0.11873 |  0.73317 | h  |   2,183,  1 |||
292 |          | noName   |  0.33067 | -0.57726 | h  |   2,184,  1 |||
293 |          | noName   |  0.39579 | -1.10182 | h  |   2,185,  1 |||
294 |          | noName   |  0.17534 | -1.21462 | h  |   2,186,  1 |||
295 |          | noName   |  0.07975 | -3.06003 | h  |   2,187,  1 |||
296 |          | noName   |  0.18536 | -1.44774 | h  |   2,188,  1 |||
297 |          | noName   |  0.03634 | -0.11854 | h  |   2,189,  1 |||
298 |          | noName   |  0.38332 | -1.45990 | h  |   2,190,  1 |||
299 |          | noName   |  0.10294 | -1.75747 | h  |   2,191,  1 |||
300 |          | noName   |  0.40042 |  0.83999 | h  |   2,192,  1 |||
301 |          | noName   |  0.16866 | -1.46641 | h  |   2,193,  1 |||
302 |          | noName   |  0.14971 | -0.08808 | h  |   2,194,  1 |||
303 |          | noName   |  0.00899 | -1.98061 | h  |   2,195,  1 |||
304 |          | noName   |  0.05837 |  0.10612 | h  |   2,196,  1 |||
305 |          | noName   |  0.12066 | -1.29307 | h  |   2,197,  1 |||
306 |          | noName   |  0.01852 | -1.23935 | h  |   2,198,  1 |||
307 |          | noName   |  0.04367 | -0.88399 | h  |   2,199,  1 |||
308 |          | noName   |  0.10578 |  0.47635 | h  |   2,200,  1 |||
309 |          | noName   |  0.23707 | -0.89209 | h  |   2,201,  1 |||
310 |          | noName   |  0.00980 | -2.40850 | h  |   2,202,  1 |||
311 |          | noName   |  0.06386 | -1.50679 | h  |   2,203,  1 |||
312 |          | noName   |  0.30776 | -1.23168 | h  |   2,204,  1 |||
313 |          | noName   |  0.08042 | -0.63793 | h  |   2,205,  1 |||
314 |          | noName   |  0.00580 | -0.86769 | h  |   2,206,  1 |||
315 |          | noName   |  0.30636 | -0.64266 | h  |   2,207,  1 |||
316 |          | noName   |  0.01043 | -0.42214 | h  |   2,208,  1 |||
317 |          | noName   |  0.09160 | -0.49728 | h  |   2,209,  1 |||
318 |          | noName   |  0.12297 | -2.62495 | h  |   2,210,  1 |||
319 |          | noName   |  0.23422 | -1.64305 | h  |   2,211,  1 |||
320 |          | noName   |  0.02422 |  0.32821 | h  |   2,212,  1 |||
321 |          | noName   |  0.04821 | -1.44991 | h  |   2,213,  1 |||
322 |          | noName   |  0.05450 |  0.34740 | h  |   2,214,  1 |||
323 |          | noName   |  0.09598 | -0.86154 | h  |   2,215,  1 |||
324 |          | noName   |  0.03155 | -2.17776 | h  |   2,216,  1 |||
325 |          | noName   |  0.61829 | -1.21599 | h  |   2,217,  1 |||
326 |          | noName   |  0.01794 |  0.52481 | h  |   2,218,  1 |||
327 |          | noName   |  0.76106 | -0.73787 | h  |   2,219,  1 |||
328 |          | noName   |  0.42862 | -1.27475 | h  |   2,220,  1 |||
329 |          | noName   |  0.25405 | -1.45342 | h  |   2,221,  1 |||
330 |          | noName   |  0.62338 | -1.46721 | h  |   2,222,  1 |||
331 |          | noName   |  0.08315 | -1.09245 | h  |   2,223,  1 |||
332 |          | noName   |  0.15050 | -2.10310 | h  |   2,224,  1 |||
333 |          | noName   |  0.01382 | -2.85747 | h  |   2,225,  1 |||
334 |          | noName   |  0.02009 | -1.14675 | h  |   2,226,  1 |||
335 |          | noName   |  0.02254 |  0.25437 | h  |   2,227,  1 |||
336 |          | noName   |  0.35969 | -0.37497 | h  |   2,228,  1 |||
337 |          | noName   |  0.25866 | -1.10625 | h  |   2,229,  1 |||
338 |          | noName   |  0.45073 | -2.12540 | h  |   2,230,  1 |||
339 |          | noName   |  0.04805 |  0.68841 | h  |   2,231,  1 |||
340 |          | noName   |  0.28137 |  0.17594 | h  |   2,232,  1 |||
341 |          | noName   |  0.12923 | -1.37742 | h  |   2,233,  1 |||
342 |          | noName   |  0.16125 | -0.72654 | h  |   2,234,  1 |||
343 |          | noName   |  0.12721 |  0.54238 | h  |   2,235,  1 |||
344 |          | noName   |  0.17714 | -1.70715 | h  |   2,236,  1 |||
345 |          | noName   |  0.10360 | -2.22828 | h  |   2,237,  1 |||
346 |          | noName   |  0.20004 | -2.14930 | h  |   2,238,  1 |||
347 |          | noName   |  0.06921 | -0.29352 | h  |   2,239,  1 |||
348 |          | noName   |  0.11384 | -2.14347 | h  |   2,240,  1 |||
349 |          | noName   |  0.03167 | -0.99620 | h  |   2,241,  1 |||
350 |          | noName   |  0.01097 | -0.42839 | h  |   2,242,  1 |||
351 |          | noName   |  0.21575 | -0.77124 | h  |   2,243,  1 |||
352 |          | noName   |  0.08558 | -0.79031 | h  |   2,244,  1 |||
353 |          | noName   |  0.02169 |  0.32406 | h  |   2,245,  1 |||
354 |          | noName   |  0.03586 | -2.23320 | h  |   2,246,  1 |||
355 |          | noName   |  0.23778 | -0.58305 | h  |   2,247,  1 |||
356 |          | noName   |  0.07931 | -0.44480 | h  |   2,248,  1 |||
357 |          | noName   |  0.33707 | -1.74736 | h  |   2,249,  1 |||
358 |          | noName   |  0.21141 | -1.28901 | h  |   2,250,  1 |||
359 |          | noName   |  0.15225 |  0.56001 | h  |   2,251,  1 |||
360 |          | noName   |  0.03803 |  0.32804 | h  |   2,252,  1 |||
361 |          | noName   |  0.06970 |  0.25206 | h  |   2,253,  1 |||
362 |          | noName   |  0.12564 | -0.76156 | h  |   2,254,  1 |||
363 |          | noName   |  0.12964 |  0.55377 | h  |   2,255,  1 |||
364 |          | noName   |  0.05385 | -0.14460 | h  |   2,256,  1 |||
365 |          | noName   |  0.36935 | -1.26827 | h  |   2,257,  1 |||
366 |          | noName   |  0.17680 | -1.75908 | h  |   2,258,  1 |||
367 |          | noName   |  0.44587 | -0.88273 | h  |   2,259,  1 |||
368 |          | noName   |  0.33023 | -1.95432 | h  |   2,260,  1 |||
369 |          | noName   |  0.27518 | -1.58360 | h  |   2,261,  1 |||
370 |          | noName   |  0.06777 | -1.46601 | h  |   2,262,  1 |||
371 |          | noName   |  0.30729 | -2.39047 | h  |   2,263,  1 |||
372 |          | noName   |  0.08735 | -1.67514 | h  |   2,264,  1 |||
373 |          | noName   |  0.06021 | -1.03045 | h  |   2,265,  1 |||
374 |          | noName   |  0.16587 | -0.30807 | h  |   2,266,  1 |||
375 |          | noName   |  0.04859 | -1.66415 | h  |   2,267,  1 |||
376 |          | noName   |  0.00638 | -1.30803 | h  |   2,268,  1 |||
377 |          | noName   |  0.56281 |  0.41835 | h  |   2,269,  1 |||
378 |          | noName   |  0.01991 | -1.11191 | h  |   2,270,  1 |||
379 |          | noName   |  0.07599 | -0.65730 | h  |   2,271,  1 |||
380 |          | noName   |  0.14964 | -0.60060 | h  |   2,272,  1 |||
381 |          | noName   |  0.08924 | -1.02704 | h  |   2,273,  1 |||
382 |          | noName   |  0.04185 | -1.39483 | h  |   2,274,  1 |||
383 |          | noName   |  0.12542 | -2.19802 | h  |   2,275,  1 |||
384 |          | noName   |  0.10434 | -0.88774 | h  |   2,276,  1 |||
385 |          | noName   |  0.08968 | -0.88584 | h  |   2,277,  1 |||
386 |          | noName   |  0.02569 | -0.85467 | h  |   2,278,  1 |||
387 |          | noName   |  0.31034 | -1.52442 | h  |   2,279,  1 |||
388 |          | noName   |  0.05268 | -1.60365 | h  |   2,280,  1 |||
389 |          | noName   |  0.02755 | -0.81634 | h  |   2,281,  1 |||
390 |          | noName   |  0.08883 | -0.19568 | h  |   2,282,  1 |||
391 |          | noName   |  0.05929 | -1.62219 | h  |   2,283,  1 |||
392 |          | noName   |  0.25521 | -1.96261 | h  |   2,284,  1 |||
393 |          | noName   |  0.00353 | -1.70995 | h  |   2,285,  1 |||
394 |          | noName   |  0.03595 | -0.76037 | h  |   2,286,  1 |||
395 |          | noName   |  0.04968 | -0.51113 | h  |   2,287,  1 |||
396 |          | noName   |  0.02217 |  0.69617 | h  |   2,288,  1 |||
397 |          | noName   |  0.19347 | -2.90386 | h  |   2,289,  1 |||
398 |          | noName   |  0.02351 | -0.77133 | h  |   2,290,  1 |||
399 |          | noName   |  0.06167 | -1.09068 | h  |   2,291,  1 |||
400 |          | noName   |  0.47527 | -1.33495 | h  |   2,292,  1 |||
401 |          | noName   |  0.23229 | -1.63750 | h  |   2,293,  1 |||
402 |          | noName   |  0.04633 | -1.64711 | h  |   2,294,  1 |||
403 |          | noName   |  0.22169 |  1.29543 | h  |   2,295,  1 |||
404 |          | noName   |  0.25148 |  0.47162 | h  |   2,296,  1 |||
405 |          | noName   |  0.75269 | -3.01680 | h  |   2,297,  1 |||
406 |          | noName   |  0.05727 | -1.33290 | h  |   2,298,  1 |||
407 |          | noName   |  0.09950 | -1.39185 | h  |   2,299,  1 |||
408 |          | noName   |  0.12857 | -1.15926 | h  |   2,300,  1 |||
409 |          | noName   |  0.07102 | -0.94557 | h  |   2,301,  1 |||
410 |          | noName   |  0.15227 | -0.07726 | h  |   2,302,  1 |||
411 |          | noName   |  0.02103 | -1.47732 | h  |   2,303,  1 |||
412 |          | noName   |  0.00662 | -1.22128 | h  |   2,304,  1 |||
413 |          | noName   |  0.31161 | -0.33638 | h  |   2,305,  1 |||
414 |          | noName   |  0.16458 | -0.80365 | h  |   2,306,  1 |||
415 |          | noName   |  0.18171 | -0.96416 | h  |   2,307,  1 |||
416 |          | noName   |  0.03319 |  0.43356 | h  |   2,308,  1 |||
417 |          | noName   |  0.06233 | -0.11325 | h  |   2,309,  1 |||
418 |          | noName   |  0.19249 |  0.28131 | h  |   2,310,  1 |||
419 |          | noName   |  0.10121 |  0.80748 | h  |   2,311,  1 |||
420 |          | noName   |  0.86190 |  0.42536 | h  |   2,312,  1 |||
421 |          | noName   |  0.01494 | -1.13608 | h  |   2,313,  1 |||
422 |          | noName   |  0.08854 |  0.68249 | h  |   2,314,  1 |||
423 |          | noName   |  0.08218 | -0.89456 | h  |   2,315,  1 |||
424 |          | noName   |  0.06892 | -1.74485 | h  |   2,316,  1 |||
425 |          | noName   |  0.08726 |  0.09112 | h  |   2,317,  1 |||
426 |          | noName   |  0.11346 | -2.38433 | h  |   2,318,  1 |||
427 |          | noName   |  0.01352 | -0.89038 | h  |   2,319,  1 |||
428 |          | noName   |  0.17514 | -1.83707 | h  |   2,320,  1 |||
429 |          | noName   |  0.05974 | -0.78572 | h  |   2,321,  1 |||
430 |          | noName   |  0.06936 | -0.64916 | h  |   2,322,  1 |||
431 |          | noName   |  0.00420 | -0.86377 | h  |   2,323,  1 |||
432 |          | noName   |  0.24592 | -2.13354 | h  |   2,324,  1 |||
433 |          | noName   |  0.02260 |  0.06711 | h  |   2,325,  1 |||
434 |          | noName   |  0.29917 |  0.53454 | h  |   2,326,  1 |||
435 |          | noName   |  0.05741 | -0.25200 | h  |   2,327,  1 |||
436 |          | noName   |  0.11030 | -3.13325 | h  |   2,328,  1 |||
437 |          | noName   |  0.16936 |  0.14230 | h  |   2,329,  1 |||
438 |          | noName   |  0.15980 | -0.31838 | h  |   2,330,  1 |||
439 |          | noName   |  0.15911 | -1.40744 | h  |   2,331,  1 |||
440 |          | noName   |  0.07852 | -0.49957 | h  |   2,332,  1 |||
441 |          | noName   |  0.60517 | -0.02895 | h  |   2,333,  1 |||
442 |          | noName   |  0.16974 | -0.94480 | h  |   2,334,  1 |||
443 |          | noName   |  0.16356 | -1.11531 | h  |   2,335,  1 |||
444 |          | noName   |  0.00000 |  1.78089 | o  |   3,  1,  1 |||
445 |          | noName   |  0.00000 |  1.98107 | o  |   3,  2,  1 |||
446 |          | noName   |  0.98696 |  0.19912 | o  |   3,  3,  1 |||
447 |          | noName   |  0.00000 |  0.53198 | o  |   3,  4,  1 |||
448 |          | noName   |  0.00665 | -0.25883 | o  |   3,  5,  1 |||
449 |          | noName   |  0.00000 |  0.40957 | o  |   3,  6,  1 |||
450 |          | noName   |  0.00000 |  0.67414 | o  |   3,  7,  1 |||
451 |          | noName   |  0.00000 |  1.74630 | o  |   3,  8,  1 |||
452 |          | noName   |  0.00000 |  0.07200 | o  |   3,  9,  1 |||
453 |          | noName   |  0.00000 | -0.48181 | o  |   3, 10,  1 |||
454 |          | noName   |  0.00002 | -0.70779 | o  |   3, 11,  1 |||
455 |          | noName   |  0.00032 | -1.19308 | o  |   3, 12,  1 |||
456 |          | noName   |  0.00000 |  0.46086 | o  |   3, 13,  1 |||
457 |          | noName   |  0.00000 | -0.62570 | o  |   3, 14,  1 |||
458 |          | noName   |  0.00000 |  0.05478 | o  |   3, 15,  1 |||
459 |          | noName   |  0.00000 | -1.05567 | o  |   3, 16,  1 |||
460 |          | noName   |  0.00000 |  0.45900 | o  |   3, 17,  1 |||
461 |          | noName   |  0.00000 |  1.88474 | o  |   3, 18,  1 |||
462 |          | noName   |  0.00002 | -0.61062 | o  |   3, 19,  1 |||
463 |          | noName   |  0.00000 |  0.07443 | o  |   3, 20,  1 |||
464 |          | noName   |  0.00000 |  0.67715 | o  |   3, 21,  1 |||
465 |          | noName   |  0.00000 |  0.84601 | o  |   3, 22,  1 |||
466 |          | noName   |  0.00000 |  0.18584 | o  |   3, 23,  1 |||
467 |          | noName   |  0.00000 |  0.54829 | o  |   3, 24,  1 |||
468 |          | noName   |  0.00000 | -0.08272 | o  |   3, 25,  1 |||
469 |          | noName   |  0.00000 | -1.27406 | o  |   3, 26,  1 |||
----|----------|----------|----------|----------|----|-------------|----------|----------|-------


connection definition section :

target | site | source:weight
-------|------|----------------------------------------------------------------------------------------------------------------
   109 |      | 108: 0.22732, 107: 0.05679, 106: 1.33447, 105: 1.11901, 104: 0.99816, 103:-0.29887, 102: 0.93399, 101:-0.93720,
                100:-0.27381,  99: 0.84694,  98:-1.82121,  97:-1.54466,  96: 1.03263,  95:-0.01951,  94: 0.13009,  93:-0.01758,
                 92:-1.18437,  91:-1.03127,  90: 0.24811,  89: 0.68590,  88: 0.78572,  87:-0.06012,  86:-0.08990,  85: 0.96945,
                 84: 0.21376,  83:-0.10263,  82: 0.72987,  81: 0.29757,  80: 0.27780,  79:-0.27774,  78: 1.51498,  77:-0.50820,
                 76: 0.52364,  75: 0.60503,  74:-1.58737,  73:-0.19790,  72: 0.01756,  71:-0.07634,  70: 0.91847,  69: 0.22094,
                 68:-0.59121,  67:-0.02594,  66:-0.99746,  65:-0.89017,  64: 0.72168,  63:-0.42935,  62:-0.31765,  61: 1.85845,
                 60:-0.12662,  59:-0.50008,  58: 0.19255,  57: 0.65373,  56: 1.56338,  55: 0.19397,  54: 1.07259,  53:-0.97258,
                 52:-0.48103,  51:-0.50154,  50: 1.49604,  49:-0.71617,  48:-1.72699,  47:-1.36692,  46: 0.55128,  45:-1.03911,
                 44: 0.05782,  43:-1.08755,  42: 0.90137,  41: 0.19457,  40:-0.79005,  39:-0.13701,  38: 0.52182,  37: 0.67500,
                 36:-0.25816,  35:-1.54687,  34:-1.35475,  33:-1.23831,  32: 0.15417,  31:-0.91851,  30: 0.43370,  29: 0.71790,
                 28: 0.16264,  27:-1.69560,  26:-2.29312,  25:-1.20140,  24:-0.26352,  23: 0.19638,  22:-0.95540,  21:-1.00180,
                 20: 0.28535,  19:-0.24015,  18:-0.50331,  17: 1.04487,  16:-0.67509,  15: 0.15910,  14:-0.78224,  13:-0.24820,
                 12:-0.72569,  11: 1.21231,  10:-1.34828,   9:-1.05094,   8: 0.29524,   7:-0.49339,   6:-0.56578,   5:-0.21680,
                  4:-0.30170,   3: 0.65335,   2: 0.56404,   1:-0.63818
   110 |      | 108: 0.61630, 107:-2.34985, 106: 0.41207, 105: 0.01977, 104:-1.16264, 103:-0.15167, 102: 0.94897, 101:-1.28854,
                100: 2.25611,  99: 0.08391,  98:-0.48955,  97:-1.25983,  96:-0.41064,  95:-0.85448,  94: 1.75564,  93:-0.97107,
                 92: 0.26914,  91: 0.81176,  90:-1.03434,  89: 0.42161,  88:-1.67231,  87:-1.11550,  86: 0.24084,  85: 1.06952,
                 84: 0.01256,  83:-0.75594,  82:-0.17426,  81: 0.24819,  80:-1.22732,  79: 0.23320,  78: 0.38261,  77:-1.04701,
                 76: 1.43456,  75: 0.92085,  74: 0.17981,  73:-0.04331,  72: 0.11090,  71: 0.10326,  70: 0.74917,  69: 1.00595,
                 68:-0.12669,  67: 0.60475,  66:-1.55559,  65:-0.17745,  64:-2.94658,  63:-1.33450,  62: 0.72227,  61: 0.78928,
                 60: 0.48157,  59: 0.55562,  58: 0.35465,  57:-0.51004,  56:-0.90858,  55: 0.16417,  54: 0.23210,  53: 0.03088,
                 52: 1.32321,  51: 1.20602,  50:-0.18420,  49: 1.35335,  48:-0.32028,  47: 0.18841,  46: 0.65079,  45:-0.91170,
                 44: 0.20777,  43: 0.58413,  42: 0.00155,  41: 0.97658,  40:-1.76971,  39: 0.22704,  38: 0.30134,  37: 0.12936,
                 36:-0.04621,  35: 0.44195,  34:-1.36486,  33:-0.85279,  32: 0.81410,  31:-0.24641,  30:-0.00686,  29: 0.90483,
                 28:-0.21981,  27: 0.40513,  26: 0.03980,  25:-0.70965,  24: 0.56595,  23: 0.33684,  22:-0.72157,  21:-0.59005,
                 20:-1.46967,  19:-2.07389,  18: 0.36155,  17: 0.55077,  16: 1.07245,  15: 0.44358,  14:-1.09322,  13:-0.44625,
                 12: 1.08405,  11: 1.05375,  10: 0.15365,   9: 1.23710,   8: 0.39406,   7:-0.53858,   6: 0.36614,   5: 0.05613,
                  4: 0.44618,   3: 0.80637,   2:-1.04290,   1: 0.94911
   111 |      | 108: 0.07832, 107:-1.44338, 106:-1.35086, 105:-0.86337, 104:-1.31996, 103: 0.11201, 102:-1.06043, 101: 1.10814,
                100:-1.24397,  99:-0.83671,  98: 0.33753,  97: 0.14690,  96:-0.12424,  95: 0.20399,  94: 0.00479,  93:-1.48793,
                 92:-1.67386,  91: 0.65251,  90: 0.35470,  89: 0.34596,  88:-0.01241,  87: 0.75284,  86: 0.14008,  85: 1.55849,
                 84:-0.51231,  83:-0.70806,  82:-1.45753,  81:-0.41926,  80: 0.07511,  79:-0.13962,  78:-1.53561,  77:-0.62235,
                 76:-0.43783,  75: 0.45499,  74:-1.44296,  73: 0.96720,  72: 0.78534,  71:-0.59327,  70: 0.34480,  69: 0.22167,
                 68:-0.96058,  67: 0.80216,  66: 0.20360,  65: 1.59315,  64:-0.83086,  63:-0.73967,  62:-0.87155,  61:-0.04644,
                 60:-0.48367,  59: 0.76394,  58:-0.51525,  57: 0.30556,  56: 1.20635,  55: 0.27838,  54: 0.57054,  53:-1.51466,
                 52:-0.71302,  51: 0.44798,  50:-0.33157,  49:-1.05407,  48:-1.50313,  47:-0.71354,  46:-1.72905,  45:-1.15252,
                 44:-0.99628,  43: 1.60801,  42: 1.17493,  41: 0.12278,  40:-1.22163,  39: 0.03722,  38: 0.86363,  37:-1.12748,
                 36: 0.32056,  35:-1.61811,  34:-0.49359,  33: 0.48212,  32: 0.50143,  31:-0.23433,  30: 0.26686,  29: 0.36183,
                 28: 1.29169,  27: 0.99315,  26:-1.09548,  25: 0.37924,  24:-0.18307,  23:-0.41679,  22:-1.61666,  21:-1.45726,
                 20:-0.79176,  19:-0.94693,  18:-1.38144,  17: 1.20818,  16:-0.48012,  15:-1.28575,  14: 0.02689,  13: 1.07540,
                 12: 0.22391,  11: 0.17229,  10:-0.62817,   9:-0.06130,   8:-0.22584,   7: 1.42221,   6: 0.45785,   5: 0.07415,
                  4: 0.08277,   3:-0.18270,   2:-0.87223,   1: 0.42707
   112 |      | 108: 1.34471, 107: 1.42040, 106: 1.63485, 105:-0.39384, 104: 0.19689, 103: 1.38790, 102: 1.15205, 101: 0.67548,
                100: 1.10274,  99:-0.96898,  98:-0.82465,  97:-0.70973,  96: 0.88822,  95: 0.17117,  94: 0.04722,  93:-0.33981,
                 92:-0.67322,  91:-0.48520,  90: 0.32734,  89:-0.28483,  88:-1.22369,  87: 0.63067,  86: 0.52394,  85:-0.80256,
                 84: 0.42911,  83: 2.25002,  82: 0.29678,  81:-1.07757,  80: 0.58597,  79:-0.49688,  78:-0.06358,  77: 0.01185,
                 76: 0.98298,  75:-2.17077,  74: 0.53444,  73:-1.21080,  72:-1.16859,  71: 1.28844,  70:-0.26067,  69:-0.69919,
                 68: 0.32027,  67:-0.24988,  66:-2.21680,  65:-1.15091,  64: 0.00605,  63: 0.09311,  62: 0.39214,  61:-0.15789,
                 60:-0.03438,  59:-0.14855,  58: 0.33709,  57: 1.13910,  56:-0.07184,  55: 0.06261,  54: 0.64411,  53: 1.32079,
                 52: 1.31289,  51:-1.02000,  50:-1.98159,  49:-1.58577,  48: 0.27513,  47:-0.54764,  46: 1.22388,  45: 1.29987,
                 44:-1.20744,  43: 0.24034,  42:-1.33820,  41:-0.21559,  40: 0.06451,  39: 0.51392,  38:-0.63321,  37: 0.46823,
                 36:-1.18003,  35: 0.92839,  34: 1.17016,  33:-0.17790,  32: 0.09973,  31:-0.52769,  30:-2.14881,  29:-0.50392,
                 28: 1.29616,  27: 1.01392,  26:-0.05555,  25:-0.60695,  24:-0.60774,  23: 1.52876,  22: 1.43805,  21: 0.07298,
                 20: 1.36581,  19:-0.76043,  18:-0.14113,  17: 0.71682,  16:-0.04616,  15: 0.32325,  14:-0.55634,  13: 0.70357,
                 12: 0.28834,  11: 0.34763,  10:-0.30675,   9:-0.17187,   8:-1.59959,   7:-0.85212,   6:-0.00145,   5: 1.95625,
                  4: 0.72876,   3: 1.13216,   2:-0.59153,   1:-0.82680
   113 |      | 108:-0.31412, 107: 1.14483, 106: 0.10063, 105: 0.39812, 104: 0.07017, 103: 0.18543, 102: 0.01462, 101:-1.15996,
                100:-0.77402,  99: 0.71740,  98:-1.04215,  97:-0.31555,  96: 0.82364,  95: 0.18785,  94: 0.03331,  93:-0.43367,
                 92:-0.76060,  91: 0.79267,  90:-0.59649,  89: 0.28011,  88: 0.83057,  87:-0.51400,  86:-1.20752,  85: 0.14980,
                 84: 0.23400,  83: 0.50642,  82:-0.18296,  81: 0.54167,  80:-0.37801,  79: 0.95134,  78: 0.15950,  77:-1.11530,
                 76:-0.34284,  75: 0.73001,  74: 0.22021,  73: 0.18867,  72: 0.83059,  71: 1.13312,  70: 0.22114,  69:-0.89601,
                 68:-0.28253,  67:-0.03674,  66: 0.07260,  65:-0.99055,  64: 1.27412,  63: 0.10994,  62:-0.10427,  61: 0.54281,
                 60:-0.69325,  59:-0.69657,  58:-0.23664,  57:-0.08305,  56: 1.17558,  55: 0.49915,  54: 0.68922,  53: 0.11109,
                 52: 0.33482,  51: 0.46559,  50:-0.15679,  49:-0.55788,  48: 0.68834,  47:-0.88523,  46: 1.01145,  45: 0.39265,
                 44:-0.16354,  43:-1.21525,  42:-0.83462,  41:-1.21566,  40: 0.01734,  39: 1.23758,  38:-0.68353,  37: 0.23495,
                 36:-0.32554,  35: 0.13918,  34: 0.64046,  33:-0.31895,  32: 0.70740,  31: 0.34213,  30: 0.25290,  29: 0.41693,
                 28: 0.13839,  27:-0.17089,  26:-0.29820,  25:-1.44856,  24:-1.63740,  23: 0.24499,  22:-0.43809,  21: 1.26236,
                 20:-0.48484,  19:-0.53355,  18: 0.18095,  17:-0.69468,  16: 0.29065,  15:-0.55565,  14: 0.94788,  13: 1.14816,
                 12:-0.66440,  11: 0.76865,  10:-0.75408,   9: 0.56946,   8: 0.12285,   7:-0.97075,   6: 0.17291,   5:-0.82026,
                  4: 1.21528,   3: 0.13039,   2:-0.80498,   1:-1.04624
   114 |      | 108: 1.95494, 107:-0.24303, 106: 0.48076, 105: 1.12019, 104:-0.26609, 103:-1.47301, 102:-0.07629, 101: 0.20070,
                100: 0.11939,  99:-0.36018,  98:-2.17686,  97: 1.16736,  96:-0.33500,  95:-2.12506,  94:-0.25719,  93:-1.25441,
                 92: 0.82135,  91: 1.57587,  90:-0.96342,  89:-0.60701,  88: 0.49894,  87:-0.08969,  86: 2.52935,  85:-1.01079,
                 84: 0.32534,  83: 0.23504,  82: 2.16620,  81: 0.42562,  80:-0.55867,  79:-0.84469,  78: 1.62162,  77:-1.18390,
                 76: 1.30068,  75:-1.39676,  74:-0.16364,  73: 0.55142,  72:-0.89506,  71:-0.50715,  70:-1.30665,  69:-1.82907,
                 68:-0.40950,  67:-1.41985,  66:-0.50429,  65:-1.83692,  64: 1.00251,  63:-0.08724,  62: 3.27808,  61:-0.26847,
                 60: 0.26612,  59:-0.26703,  58:-0.57253,  57: 0.14790,  56: 0.44961,  55: 1.63941,  54: 2.15919,  53: 1.60330,
                 52: 0.55601,  51:-0.14188,  50:-0.48189,  49:-1.09485,  48: 0.05302,  47:-0.57797,  46: 0.45362,  45:-0.71077,
                 44: 0.09311,  43:-0.37265,  42: 0.60340,  41:-0.37987,  40: 0.23028,  39:-0.93554,  38: 0.80401,  37:-0.82361,
                 36: 0.42633,  35: 0.55649,  34: 1.36088,  33: 0.98308,  32:-0.64258,  31:-0.93957,  30:-0.28067,  29:-2.08903,
                 28:-1.90470,  27:-0.01570,  26: 0.48017,  25:-1.03322,  24:-1.28317,  23:-0.67073,  22:-0.37790,  21:-1.24486,
                 20:-0.73681,  19: 0.33210,  18:-1.70803,  17:-0.04931,  16:-0.16887,  15: 1.02114,  14:-0.12838,  13:-0.76907,
                 12: 0.91959,  11: 0.91574,  10: 0.12321,   9:-0.32620,   8: 0.92939,   7: 0.59002,   6: 0.32348,   5: 0.83179,
                  4: 1.43086,   3: 1.12561,   2:-0.72960,   1: 0.39442
   115 |      | 108:-1.14559, 107: 0.09818, 106:-0.10609, 105: 0.26464, 104:-0.19989, 103: 1.52293, 102: 1.17025, 101:-0.73598,
                100: 0.39995,  99:-0.46683,  98: 0.29164,  97:-0.50777,  96: 0.28664,  95:-0.89899,  94: 0.96326,  93:-0.00573,
                 92:-0.16021,  91:-0.04280,  90:-0.89569,  89:-0.53594,  88: 0.06057,  87:-1.09940,  86: 0.63576,  85: 1.14289,
                 84:-1.01440,  83:-0.87676,  82: 0.03032,  81: 0.07554,  80:-1.20760,  79: 0.36298,  78:-0.47161,  77: 0.35294,
                 76:-0.21830,  75:-1.40706,  74: 1.60694,  73: 1.11741,  72: 1.20233,  71: 0.42125,  70: 1.53471,  69:-0.51339,
                 68: 0.10517,  67: 0.08061,  66: 0.84621,  65:-0.54947,  64:-0.37414,  63: 0.25769,  62: 0.07565,  61: 0.34399,
                 60: 0.62739,  59: 0.84705,  58:-0.95897,  57:-0.38981,  56: 1.93786,  55: 1.46388,  54: 1.56669,  53: 0.21755,
                 52:-0.96518,  51:-0.10676,  50:-0.03267,  49: 1.01916,  48:-0.16041,  47:-0.58097,  46: 0.81795,  45: 0.88040,
                 44:-0.59992,  43:-0.17141,  42:-0.50636,  41: 1.26640,  40: 0.25055,  39:-1.99424,  38:-0.67083,  37: 0.36333,
                 36: 0.36377,  35:-0.78145,  34:-0.49191,  33: 0.33681,  32:-0.57700,  31:-0.26205,  30:-0.17717,  29: 0.11961,
                 28:-0.39836,  27: 0.91320,  26:-0.52460,  25:-1.08731,  24:-1.09491,  23: 0.37918,  22:-0.11987,  21:-0.06590,
                 20:-0.82607,  19:-1.84186,  18:-1.50706,  17:-1.04955,  16:-0.37142,  15:-0.26512,  14:-0.11238,  13:-0.30254,
                 12: 0.18615,  11: 0.39300,  10: 1.84706,   9:-1.14412,   8:-0.69509,   7:-0.42718,   6:-0.81535,   5:-0.96036,
                  4: 0.08582,   3:-0.82707,   2:-1.33139,   1: 0.86508
   116 |      | 108:-0.23783, 107: 0.40225, 106: 0.82150, 105:-0.82816, 104: 0.86743, 103:-0.74437, 102:-0.37112, 101: 2.33299,
                100:-0.30695,  99:-0.62603,  98:-1.87085,  97: 0.74044,  96:-1.03882,  95:-1.70457,  94:-0.29927,  93: 0.72068,
                 92:-2.32575,  91: 1.86505,  90: 0.18437,  89:-1.12794,  88:-0.35873,  87:-0.50744,  86: 0.17797,  85: 1.01586,
                 84: 0.47357,  83: 0.83377,  82:-0.03228,  81:-0.53800,  80: 0.74926,  79: 0.20952,  78:-0.93576,  77: 0.81901,
                 76:-2.06960,  75: 1.34742,  74:-1.47993,  73: 0.10049,  72: 0.98514,  71:-0.10361,  70: 0.24206,  69: 0.14896,
                 68:-0.79377,  67: 0.32074,  66:-0.94925,  65: 0.18100,  64:-0.15757,  63:-0.19568,  62: 0.29129,  61: 0.50733,
                 60:-0.71779,  59: 1.11270,  58: 2.15470,  57: 1.43428,  56: 0.56671,  55:-0.22928,  54:-1.10234,  53:-1.11930,
                 52:-0.99306,  51:-1.27964,  50:-0.36892,  49:-2.04281,  48:-2.51918,  47:-2.29204,  46:-0.06710,  45:-0.05814,
                 44: 0.39428,  43: 0.44290,  42:-0.21619,  41: 0.33312,  40: 0.47772,  39: 0.66381,  38:-1.27910,  37:-0.91951,
                 36:-0.34703,  35:-1.24057,  34:-0.92025,  33: 1.53996,  32:-0.98609,  31:-1.66592,  30:-0.81745,  29: 1.12588,
                 28: 0.75325,  27: 0.99991,  26:-0.76575,  25:-1.18470,  24:-0.95723,  23:-0.07780,  22:-0.90515,  21:-0.15494,
                 20:-0.30848,  19:-0.83698,  18: 0.75974,  17: 0.85255,  16: 0.25127,  15:-1.13833,  14:-0.32114,  13: 1.10692,
                 12: 0.63600,  11:-0.58921,  10: 0.04631,   9:-1.08153,   8: 0.09337,   7:-0.36392,   6:-1.01734,   5: 0.12125,
                  4:-0.62881,   3: 0.16158,   2: 0.30475,   1: 0.87126
   117 |      | 108:-0.22205, 107:-0.60905, 106: 1.27382, 105: 0.43238, 104: 0.78953, 103: 1.60836, 102: 0.44010, 101: 1.14379,
                100:-0.14460,  99:-1.54476,  98: 0.80913,  97: 0.59950,  96:-0.24139,  95: 1.66884,  94:-1.85382,  93: 1.22246,
                 92:-0.51013,  91:-0.04735,  90: 0.73010,  89: 0.82911,  88: 1.45891,  87: 1.36348,  86: 0.40635,  85:-1.10356,
                 84: 1.83738,  83:-0.69350,  82: 0.53872,  81:-0.28149,  80: 0.29148,  79: 1.22822,  78: 1.27935,  77: 0.23296,
                 76:-1.01102,  75:-0.01017,  74:-0.69406,  73: 0.72566,  72:-1.73561,  71: 0.20068,  70: 0.36839,  69: 1.24171,
                 68:-0.05720,  67: 0.37484,  66: 0.61936,  65: 0.08048,  64: 1.18113,  63: 0.39762,  62: 0.59397,  61: 0.06844,
                 60: 2.25572,  59: 2.44001,  58: 0.21984,  57: 0.72830,  56: 0.30373,  55: 0.11216,  54:-1.50717,  53:-2.57218,
                 52:-2.72002,  51: 1.01177,  50: 1.29154,  49: 0.51176,  48: 1.36448,  47: 0.86930,  46: 0.05456,  45: 0.44068,
                 44:-0.39857,  43:-2.02695,  42: 0.35174,  41: 1.58119,  40:-0.04215,  39:-0.83575,  38:-0.04246,  37:-1.22849,
                 36:-0.45295,  35:-1.04735,  34:-0.48247,  33:-0.52948,  32:-1.58945,  31: 0.24793,  30: 0.15514,  29: 0.57496,
                 28: 0.33177,  27:-0.86373,  26: 0.04233,  25:-1.00049,  24:-1.50748,  23:-1.47981,  22:-1.42279,  21:-0.06957,
                 20: 0.85369,  19: 0.36665,  18:-1.04055,  17:-1.27241,  16:-0.77052,  15: 1.05526,  14:-0.50899,  13:-2.04891,
                 12:-1.36069,  11: 1.04246,  10:-0.50937,   9:-1.17561,   8:-1.81980,   7:-1.12537,   6: 0.95409,   5: 0.27274,
                  4:-0.33190,   3:-1.53442,   2: 0.05846,   1: 0.25962
   118 |      | 108:-1.01434, 107:-0.72761, 106: 1.10909, 105: 0.20005, 104: 1.15333, 103: 0.07307, 102:-1.35209, 101:-0.47681,
                100:-0.09198,  99:-0.77301,  98:-0.17377,  97:-0.21027,  96:-0.94929,  95: 0.01050,  94: 1.67837,  93: 0.67232,
                 92:-0.92027,  91: 0.33384,  90: 0.74889,  89:-0.04974,  88: 1.48492,  87: 0.50607,  86: 0.27029,  85:-1.27459,
                 84:-0.01918,  83: 0.40688,  82: 0.94792,  81: 1.86554,  80:-0.26090,  79: 0.44495,  78:-0.57367,  77:-0.30535,
                 76: 1.53506,  75: 1.23925,  74: 0.24340,  73:-0.26218,  72:-1.44748,  71: 0.81752,  70: 0.93412,  69:-1.19677,
                 68:-0.75334,  67: 0.10602,  66:-0.00213,  65:-0.30481,  64: 0.97292,  63: 0.23751,  62: 0.42202,  61: 1.22201,
                 60: 0.04167,  59: 0.44536,  58:-0.96700,  57:-0.54903,  56: 1.10076,  55: 0.74044,  54: 0.28145,  53: 0.03840,
                 52:-1.82953,  51:-0.53385,  50: 0.71779,  49:-0.31769,  48:-0.90392,  47: 0.12172,  46: 0.57531,  45:-0.85545,
                 44:-0.05916,  43:-0.98754,  42:-1.12516,  41: 0.46440,  40:-0.67908,  39:-0.73391,  38:-1.04625,  37:-1.71791,
                 36:-0.08835,  35:-0.77792,  34: 0.13637,  33: 0.75220,  32: 0.20156,  31:-0.89449,  30:-1.26856,  29: 0.02298,
                 28: 1.31532,  27: 0.13272,  26: 0.20286,  25:-0.11420,  24: 0.82095,  23: 0.53708,  22:-0.57658,  21:-0.45479,
                 20: 0.63121,  19:-0.30420,  18:-0.56195,  17:-0.04984,  16: 0.73319,  15:-0.66813,  14: 0.24625,  13:-1.93445,
                 12: 0.22772,  11: 0.96787,  10:-1.32199,   9:-1.32021,   8:-0.22290,   7:-1.01131,   6:-0.71483,   5: 0.86183,
                  4: 1.12994,   3:-1.17886,   2:-0.77460,   1:-0.74877
   119 |      | 108: 1.24899, 107: 0.32596, 106:-0.33582, 105:-0.03725, 104:-0.30062, 103: 0.46011, 102: 0.06002, 101:-0.28467,
                100:-0.55952,  99: 0.57647,  98:-0.09427,  97: 0.47781,  96:-0.48337,  95:-0.48632,  94: 0.06983,  93: 0.77067,
                 92: 0.50754,  91: 0.81538,  90: 0.40615,  89: 0.12488,  88: 1.08488,  87: 0.54574,  86:-0.33475,  85:-0.10790,
                 84: 0.43574,  83:-0.22085,  82: 0.70272,  81:-0.02971,  80:-0.85042,  79: 0.16951,  78:-0.45625,  77:-0.34419,
                 76:-0.45432,  75:-0.30864,  74:-0.05686,  73: 1.11911,  72: 0.67536,  71: 0.75594,  70: 0.59200,  69:-0.66448,
                 68: 0.23636,  67: 0.81707,  66:-0.42699,  65: 0.74550,  64: 1.11044,  63:-0.16399,  62: 0.02036,  61:-0.90862,
                 60:-0.13173,  59: 1.03716,  58:-0.02152,  57:-0.18093,  56: 1.04729,  55:-0.96295,  54: 0.43041,  53: 0.36266,
                 52:-0.33616,  51: 0.38412,  50:-1.28443,  49:-0.86909,  48: 0.50070,  47:-1.52441,  46:-1.02799,  45:-0.19941,
                 44:-0.23672,  43:-0.83392,  42:-0.52782,  41:-0.89710,  40:-0.66753,  39:-0.97951,  38:-1.54028,  37:-0.79955,
                 36:-0.04581,  35:-1.01425,  34:-0.82363,  33:-0.73739,  32:-0.94450,  31:-0.32834,  30: 0.00303,  29:-0.44316,
                 28:-0.83788,  27: 0.61759,  26: 1.06508,  25:-0.60337,  24: 0.45842,  23:-0.27287,  22: 0.31626,  21:-0.96776,
                 20: 0.05803,  19:-0.86471,  18:-0.10542,  17: 0.79730,  16:-1.18231,  15:-1.15442,  14: 0.81552,  13:-0.04634,
                 12: 0.84486,  11:-1.11618,  10: 0.86538,   9:-0.23688,   8: 0.23807,   7:-0.44657,   6:-0.29455,   5: 0.83489,
                  4:-0.23190,   3: 0.85807,   2:-1.01732,   1: 0.47690
   120 |      | 108:-0.69832, 107:-0.57553, 106:-1.40137, 105:-1.36931, 104:-0.60970, 103: 0.32385, 102:-1.02758, 101: 1.19131,
                100:-1.70237,  99: 0.29152,  98:-0.59490,  97:-0.23272,  96:-1.66967,  95: 1.24769,  94:-0.09978,  93: 0.90237,
                 92: 0.68598,  91: 0.66435,  90:-2.23248,  89:-0.80906,  88: 0.42439,  87: 0.46086,  86: 0.63675,  85: 0.10045,
                 84:-1.62690,  83:-1.26464,  82:-2.58384,  81: 0.36595,  80: 1.10169,  79:-0.00955,  78:-2.22899,  77:-0.47118,
                 76:-0.75310,  75: 0.14745,  74: 0.17970,  73: 1.84037,  72:-0.18107,  71: 1.67523,  70: 0.31563,  69: 0.14158,
                 68:-0.76308,  67:-1.59704,  66:-1.10711,  65: 1.31468,  64:-0.35603,  63: 0.31424,  62: 0.37331,  61:-0.15546,
                 60:-1.26338,  59: 0.86521,  58:-0.16528,  57:-0.84872,  56:-1.90442,  55:-1.82203,  54: 0.31246,  53:-0.67209,
                 52:-0.68222,  51: 0.51018,  50:-0.35787,  49:-0.52199,  48:-1.15283,  47:-2.06002,  46:-1.48542,  45:-1.18608,
                 44:-1.48826,  43: 0.36333,  42: 1.61640,  41: 0.17114,  40:-1.22728,  39: 0.21897,  38: 1.38195,  37: 0.84548,
                 36: 0.62713,  35: 1.25803,  34:-1.00033,  33:-2.80317,  32:-2.42704,  31: 0.29466,  30: 0.50948,  29: 0.17179,
                 28: 0.33861,  27:-1.95104,  26: 0.15426,  25:-0.57978,  24: 0.35339,  23: 0.15785,  22:-0.66015,  21:-0.08052,
                 20: 0.42446,  19: 2.17236,  18: 1.36963,  17:-0.40917,  16:-2.34411,  15:-2.08168,  14:-0.48411,  13:-1.14293,
                 12:-1.21893,  11: 0.34434,  10:-0.23152,   9:-1.21137,   8:-2.29713,   7:-1.02704,   6: 0.65111,   5: 0.26660,
                  4: 0.72546,   3: 0.56293,   2: 0.55284,   1:-0.16870
   121 |      | 108: 0.46732, 107:-0.45170, 106: 0.00661, 105:-0.44146, 104: 0.15966, 103: 0.19565, 102:-0.00521, 101: 0.59322,
                100:-0.03460,  99: 1.19287,  98:-0.79110,  97: 0.84221,  96: 0.81418,  95:-0.12170,  94:-1.79496,  93: 0.63217,
                 92:-1.05470,  91:-0.61683,  90: 0.93829,  89: 0.23170,  88:-1.22152,  87: 0.75291,  86:-1.28520,  85:-0.87499,
                 84: 0.60845,  83: 0.06249,  82:-0.78990,  81: 0.36818,  80:-0.53587,  79: 0.41452,  78:-1.05382,  77: 0.95277,
                 76:-0.55770,  75:-0.16306,  74:-0.67994,  73: 1.00367,  72: 0.43010,  71: 1.21933,  70: 0.05646,  69: 0.40457,
                 68:-1.30010,  67:-0.14287,  66: 0.13248,  65:-0.08110,  64:-0.46505,  63: 1.00463,  62: 0.08145,  61:-0.02970,
                 60:-1.15484,  59:-0.60885,  58:-0.88016,  57:-1.32189,  56: 0.02262,  55: 1.55245,  54: 0.99613,  53:-1.59915,
                 52:-1.39701,  51:-0.45502,  50:-1.93483,  49:-1.85807,  48: 0.51309,  47:-0.78704,  46:-0.46448,  45:-0.60204,
                 44:-0.57009,  43:-1.13724,  42: 0.63626,  41:-0.11965,  40:-0.49338,  39: 0.02055,  38:-1.25613,  37:-0.57261,
                 36:-0.66524,  35:-0.71363,  34:-0.32261,  33:-0.90742,  32:-0.54913,  31:-0.38439,  30:-0.27039,  29: 1.24989,
                 28: 0.74068,  27:-0.17937,  26:-1.54768,  25:-1.63859,  24: 0.42177,  23:-0.84399,  22:-2.03295,  21: 0.14152,
                 20: 0.90525,  19:-0.52130,  18: 0.23264,  17: 0.47709,  16: 1.06201,  15: 0.26248,  14:-0.33184,  13: 0.62780,
                 12: 0.15490,  11: 0.13589,  10: 0.09413,   9:-0.23376,   8: 1.14041,   7: 0.01106,   6: 1.11176,   5:-0.21519,
                  4:-1.57438,   3:-0.94620,   2: 0.38361,   1: 0.70217
   122 |      | 108:-1.38207, 107: 0.68574, 106:-0.20605, 105:-1.52742, 104: 0.90339, 103:-0.69690, 102:-0.61429, 101: 0.19904,
                100:-1.64838,  99: 0.80779,  98:-1.85737,  97:-0.36776,  96:-0.84614,  95: 1.00850,  94:-0.75027,  93: 0.48295,
                 92: 1.31285,  91:-0.70537,  90: 0.15567,  89: 1.04765,  88:-0.58579,  87: 1.19641,  86:-0.08693,  85:-0.74327,
                 84:-0.17207,  83:-0.56204,  82:-0.79275,  81:-0.26863,  80: 0.11232,  79:-0.91300,  78: 0.35768,  77:-0.72509,
                 76:-0.56386,  75:-0.50284,  74:-0.21303,  73:-1.70547,  72:-0.98335,  71:-0.46778,  70:-0.48562,  69:-0.92949,
                 68: 1.65705,  67: 1.11940,  66:-0.81647,  65: 0.54720,  64:-0.94151,  63: 1.43272,  62: 0.25662,  61: 1.49732,
                 60:-1.46251,  59:-2.23644,  58:-1.07594,  57:-1.45176,  56:-0.58271,  55: 0.70053,  54: 0.32675,  53:-0.17331,
                 52:-0.10863,  51:-0.46901,  50:-0.93159,  49: 0.04154,  48:-0.35875,  47: 1.87061,  46: 1.16361,  45: 1.41297,
                 44: 0.31329,  43: 1.32582,  42: 0.80484,  41: 0.71378,  40: 1.23104,  39: 0.47958,  38: 1.34808,  37: 0.87783,
                 36:-1.04574,  35:-1.71568,  34:-1.48685,  33:-1.27932,  32:-1.48900,  31:-1.16634,  30:-0.88446,  29:-1.13415,
                 28:-0.22209,  27: 1.15593,  26:-0.47261,  25:-1.17870,  24:-1.72852,  23: 0.53429,  22: 1.30954,  21: 1.80344,
                 20: 1.37817,  19:-0.50611,  18:-1.45643,  17:-1.52410,  16: 0.10436,  15:-0.18548,  14:-0.52316,  13:-0.26508,
                 12:-0.27525,  11:-0.63110,  10: 0.00125,   9:-0.63960,   8:-1.66676,   7:-1.23696,   6:-0.98436,   5:-0.40708,
                  4: 0.13412,   3:-0.78494,   2:-0.38771,   1: 0.33129
   123 |      | 108: 0.79221, 107: 0.58773, 106:-0.02640, 105: 0.64906, 104:-0.20613, 103:-0.87521, 102: 1.87985, 101:-0.51692,
                100:-0.19773,  99: 0.88979,  98:-0.48001,  97:-0.85080,  96: 0.79596,  95: 0.67802,  94:-0.08320,  93: 0.20722,
                 92: 0.08547,  91: 1.26082,  90:-1.40151,  89:-0.17816,  88: 2.32232,  87:-0.34260,  86: 0.60435,  85:-0.93109,
                 84:-0.78171,  83: 0.78024,  82: 0.34257,  81:-0.75212,  80:-0.93069,  79:-1.22923,  78: 0.10650,  77:-0.31862,
                 76: 0.58203,  75: 0.90589,  74: 0.17594,  73: 0.26572,  72: 0.55000,  71:-0.89847,  70:-0.99624,  69: 0.26347,
                 68: 1.22636,  67: 0.22480,  66:-0.57821,  65: 0.44480,  64: 1.21930,  63: 0.19319,  62: 0.74056,  61:-0.90290,
                 60:-1.28274,  59:-1.00862,  58: 0.46660,  57:-0.44675,  56: 0.03990,  55:-0.30979,  54:-0.76655,  53:-0.92253,
                 52:-0.27743,  51:-0.00774,  50: 0.96750,  49: 0.64399,  48: 0.85038,  47:-0.17457,  46:-0.65009,  45:-0.63093,
                 44:-0.91311,  43:-1.72348,  42: 0.12101,  41:-1.12053,  40:-1.07262,  39: 0.14478,  38: 0.96815,  37:-0.39436,
                 36: 0.93576,  35: 0.37896,  34:-0.59473,  33:-0.21530,  32: 0.61442,  31:-0.59966,  30: 0.34774,  29:-0.42621,
                 28:-0.80476,  27:-0.89010,  26:-0.33839,  25:-0.81724,  24:-0.20496,  23:-0.71244,  22: 0.02553,  21: 1.04703,
                 20:-0.66086,  19:-0.47924,  18:-1.17577,  17:-0.58529,  16:-0.96818,  15: 0.66432,  14: 0.09940,  13: 0.36190,
                 12:-1.01087,  11:-0.65393,  10:-0.46447,   9:-0.50530,   8: 0.67263,   7: 0.82558,   6: 0.10642,   5: 0.13786,
                  4:-0.99142,   3:-0.94951,   2:-1.37068,   1:-1.16514
   124 |      | 108:-0.67379, 107: 0.26371, 106: 0.43955, 105:-0.58461, 104: 0.76160, 103:-0.01382, 102: 1.15905, 101: 0.50510,
                100: 0.23069,  99: 1.39553,  98:-0.49147,  97:-0.29170,  96:-0.89191,  95:-1.38058,  94:-0.12774,  93:-1.41384,
                 92: 1.28646,  91: 1.16113,  90:-2.72239,  89: 0.33178,  88: 0.60480,  87:-0.93391,  86: 2.12460,  85: 0.70863,
                 84:-1.09819,  83:-0.33553,  82: 1.92384,  81:-0.42765,  80:-0.80781,  79:-0.81528,  78:-0.08278,  77: 0.44050,
                 76: 0.45676,  75:-0.16939,  74:-0.61953,  73: 0.44687,  72: 0.11479,  71:-0.06918,  70:-0.71516,  69:-0.83702,
                 68: 0.89516,  67: 0.10527,  66:-0.88507,  65:-1.52528,  64: 1.65973,  63: 0.43082,  62: 0.85720,  61: 1.01330,
                 60:-1.81036,  59:-2.27516,  58:-0.86647,  57:-0.74456,  56: 0.76430,  55: 1.16003,  54: 0.32037,  53:-0.81373,
                 52:-1.02128,  51:-0.33668,  50: 1.29951,  49:-0.11276,  48:-1.38623,  47: 0.91476,  46: 0.40430,  45: 0.14806,
                 44:-0.77070,  43:-0.23082,  42: 0.74705,  41:-1.05965,  40:-0.78137,  39: 1.32699,  38:-0.24754,  37: 0.49992,
                 36: 0.57500,  35: 0.01298,  34:-0.31661,  33:-0.83017,  32:-0.32235,  31:-0.38160,  30:-0.55818,  29:-0.53446,
                 28:-0.52593,  27:-1.27825,  26:-0.77483,  25:-0.24168,  24:-0.62910,  23:-0.24232,  22: 0.00267,  21:-0.16037,
                 20: 0.25662,  19:-0.89092,  18:-0.78198,  17:-2.17561,  16:-0.90943,  15: 1.05392,  14:-0.09306,  13:-0.98059,
                 12:-0.84241,  11: 0.34808,  10:-0.13779,   9: 1.20531,   8:-0.63515,   7:-0.80529,   6:-0.00727,   5: 0.07673,
                  4: 0.41176,   3:-0.32595,   2:-0.35419,   1:-1.22374
   125 |      | 108:-0.16699, 107:-0.23807, 106: 1.15122, 105: 0.12485, 104:-0.32641, 103:-0.20162, 102: 0.82227, 101: 1.23530,
                100: 0.44532,  99:-1.52064,  98:-0.19305,  97:-3.02965,  96: 1.20301,  95:-0.04062,  94:-0.01605,  93: 1.20531,
                 92: 1.25697,  91:-0.94704,  90: 1.35815,  89:-0.03299,  88:-0.26621,  87:-1.09212,  86: 0.78726,  85:-0.16527,
                 84: 0.25374,  83:-1.28299,  82:-1.25814,  81:-0.18013,  80:-0.70789,  79:-1.59421,  78:-0.67648,  77: 0.69002,
                 76:-1.48629,  75:-0.74356,  74: 1.03899,  73:-1.53291,  72: 1.50004,  71:-0.53167,  70: 0.24101,  69: 1.93664,
                 68:-0.22868,  67: 0.26652,  66:-0.58212,  65:-0.97939,  64:-0.53372,  63: 0.13038,  62: 0.46373,  61:-1.00898,
                 60:-0.12464,  59: 0.05504,  58:-0.69383,  57:-0.50534,  56:-1.00089,  55:-1.53431,  54:-1.91378,  53:-0.50513,
                 52: 1.35363,  51: 1.75717,  50: 2.45183,  49: 2.12014,  48: 0.65805,  47: 0.42273,  46:-1.79694,  45: 0.37047,
                 44: 0.09515,  43:-2.39360,  42:-1.07802,  41: 0.56924,  40:-0.32118,  39: 1.12033,  38: 0.57086,  37:-0.20263,
                 36: 1.02659,  35: 0.38718,  34: 0.77956,  33: 0.15926,  32:-0.68268,  31:-0.70246,  30: 0.26837,  29:-0.10857,
                 28:-2.53948,  27:-0.44799,  26: 0.19380,  25: 0.65494,  24: 1.26927,  23: 1.89446,  22: 2.00638,  21: 0.93767,
                 20:-1.53995,  19:-0.26149,  18:-0.64631,  17: 0.06739,  16: 1.25629,  15:-0.02043,  14: 1.14634,  13:-0.78620,
                 12:-0.91446,  11:-0.55344,  10: 0.13647,   9: 0.87394,   8: 1.13665,   7: 0.96902,   6:-1.55630,   5:-2.20019,
                  4:-0.30171,   3: 0.31495,   2: 0.62755,   1: 0.54917
   126 |      | 108: 0.95775, 107: 0.16176, 106:-0.69937, 105:-0.53346, 104: 0.72362, 103: 0.65167, 102:-0.19336, 101:-1.15559,
                100:-0.93557,  99:-2.44693,  98: 1.01178,  97:-1.41431,  96: 0.22664,  95:-1.54037,  94:-1.23968,  93: 0.86682,
                 92: 0.16470,  91: 0.19111,  90:-0.49038,  89: 0.14961,  88:-0.47832,  87:-1.88738,  86: 1.32443,  85:-0.77327,
                 84: 0.35099,  83:-0.45934,  82: 0.02924,  81:-0.21733,  80: 1.11322,  79: 0.77602,  78: 1.32324,  77:-1.97567,
                 76: 1.39413,  75:-1.91967,  74: 2.15230,  73: 0.46601,  72:-0.59729,  71:-2.25183,  70: 0.57725,  69:-1.74179,
                 68: 0.10088,  67:-1.23741,  66: 0.32915,  65: 0.87791,  64:-0.08396,  63: 0.76702,  62: 0.53271,  61:-1.65738,
                 60: 0.08188,  59:-0.64468,  58: 1.10974,  57: 0.11484,  56: 1.23813,  55: 0.42722,  54:-1.96576,  53:-0.06613,
                 52:-0.11612,  51: 0.75150,  50: 0.17834,  49:-0.68489,  48:-1.60147,  47: 0.68863,  46: 1.13939,  45: 0.67887,
                 44:-0.12882,  43:-1.90311,  42:-1.15077,  41:-0.23763,  40:-0.51057,  39:-0.39365,  38:-0.74712,  37: 0.52979,
                 36: 0.34827,  35:-0.65186,  34: 0.59331,  33: 0.41316,  32: 0.59385,  31: 0.52648,  30:-0.13115,  29:-0.74440,
                 28:-0.02744,  27:-0.33647,  26:-1.39251,  25: 0.06320,  24: 0.09479,  23:-0.07033,  22:-0.62039,  21:-0.39859,
                 20:-0.98348,  19: 0.01851,  18: 0.11746,  17: 0.79326,  16:-0.72563,  15:-1.39341,  14:-0.04288,  13: 0.59021,
                 12:-1.52723,  11:-0.79322,  10:-0.21954,   9: 1.22752,   8: 0.34858,   7:-0.27224,   6:-0.96902,   5:-0.10967,
                  4: 0.18023,   3:-0.79751,   2:-1.41257,   1:-0.28584
   127 |      | 108:-0.07791, 107: 0.93923, 106: 0.00127, 105:-1.97377, 104:-0.44104, 103:-1.55357, 102:-0.33230, 101:-2.70351,
                100:-0.90312,  99:-0.89929,  98:-0.49939,  97: 1.99072,  96: 0.40325,  95:-1.47442,  94: 0.10997,  93: 0.03213,
                 92:-2.23365,  91:-1.13613,  90: 2.18522,  89:-0.46178,  88:-0.23724,  87: 1.06558,  86:-1.08875,  85: 0.25879,
                 84:-0.42887,  83: 1.05257,  82:-1.97660,  81:-0.83960,  80:-0.28518,  79:-0.14760,  78:-1.09687,  77: 0.65847,
                 76:-0.60840,  75:-0.25051,  74:-0.27637,  73: 0.14228,  72:-1.30309,  71:-1.54802,  70: 0.04655,  69: 1.03496,
                 68:-1.94377,  67:-1.27748,  66: 0.68100,  65: 0.06106,  64:-0.56644,  63:-1.38060,  62:-2.62592,  61:-2.19107,
                 60: 0.86188,  59: 2.61744,  58: 0.70449,  57:-0.92142,  56:-1.32255,  55: 0.85596,  54: 0.97027,  53: 0.49776,
                 52:-0.31679,  51:-0.65041,  50:-0.07805,  49: 0.73453,  48: 2.27745,  47:-0.21263,  46:-0.10305,  45:-0.83941,
                 44:-1.19322,  43: 0.54643,  42:-0.57801,  41: 0.87201,  40: 0.40280,  39:-0.67539,  38:-0.96749,  37: 0.26110,
                 36: 1.53617,  35: 1.60333,  34: 1.32634,  33:-1.01889,  32: 0.34088,  31: 0.39867,  30: 0.93301,  29: 1.85807,
                 28: 1.41394,  27: 0.06832,  26: 0.35805,  25: 0.58170,  24: 1.74325,  23: 0.71520,  22: 0.04826,  21: 0.18173,
                 20: 0.68453,  19:-1.02809,  18:-0.36386,  17: 0.36482,  16: 0.92025,  15: 0.34288,  14: 0.06263,  13:-0.49059,
                 12: 1.60416,  11: 2.84286,  10:-1.09153,   9:-0.65508,   8: 1.18832,   7:-0.92551,   6:-1.02570,   5: 0.18298,
                  4: 0.56252,   3: 1.74282,   2:-0.06861,   1: 0.86491
   128 |      | 108:-0.49499, 107: 0.60375, 106:-0.04712, 105:-0.24026, 104:-0.31484, 103:-0.41275, 102:-0.20282, 101: 0.01398,
                100: 0.08676,  99: 0.48002,  98:-0.63037,  97:-0.03523,  96:-0.54988,  95: 1.26763,  94:-0.52684,  93: 0.22199,
                 92:-1.23479,  91: 0.58893,  90: 0.89223,  89: 0.12580,  88:-0.04066,  87: 0.88319,  86:-1.17886,  85: 0.71739,
                 84: 1.14642,  83: 1.27886,  82:-0.56258,  81:-1.21624,  80: 0.71677,  79: 0.40602,  78:-0.71359,  77:-0.84998,
                 76:-1.81316,  75: 0.92547,  74:-0.42431,  73:-0.34985,  72:-0.31564,  71:-0.20577,  70: 0.43030,  69: 0.08184,
                 68:-1.32788,  67:-0.34681,  66:-0.19207,  65: 0.08656,  64:-0.86956,  63: 1.35849,  62:-2.07894,  61: 0.64966,
                 60: 0.09516,  59:-0.11072,  58:-0.23228,  57: 0.55755,  56: 0.83167,  55: 0.91673,  54:-1.08710,  53:-1.41865,
                 52: 0.33506,  51: 0.90439,  50:-0.21341,  49:-0.51986,  48:-0.08918,  47: 0.18203,  46: 0.77366,  45: 0.23353,
                 44: 0.85796,  43: 0.60417,  42:-0.71699,  41: 0.00443,  40:-0.31083,  39:-1.14332,  38:-0.07051,  37: 0.34517,
                 36:-0.38301,  35: 0.06871,  34: 0.12525,  33:-0.49035,  32: 0.76310,  31:-0.36061,  30:-0.30750,  29: 1.46412,
                 28: 1.85425,  27:-0.44290,  26:-0.34340,  25:-0.08676,  24:-0.62421,  23:-0.02292,  22:-0.26483,  21:-1.32075,
                 20:-0.33306,  19:-0.89913,  18:-0.76482,  17:-0.34117,  16:-0.72989,  15:-0.19834,  14: 0.84494,  13:-0.16663,
                 12: 0.07314,  11: 0.42504,  10:-0.26907,   9:-1.16473,   8: 0.43928,   7: 1.01243,   6:-0.05254,   5: 1.06178,
                  4:-0.04749,   3:-0.63685,   2: 0.98371,   1:-0.39432
   129 |      | 108:-1.13661, 107:-0.88937, 106: 0.18524, 105: 0.40384, 104:-0.92419, 103:-0.62378, 102:-1.47322, 101:-1.12535,
                100: 0.06975,  99:-2.07611,  98: 0.03577,  97:-0.14918,  96: 1.25908,  95: 0.60542,  94: 0.12966,  93: 0.43292,
                 92:-0.62629,  91:-0.58481,  90: 0.07374,  89:-0.92941,  88: 0.72729,  87: 0.39351,  86: 1.10149,  85:-0.41948,
                 84:-0.13711,  83:-0.05966,  82:-1.16115,  81:-0.88357,  80:-0.46712,  79:-1.04226,  78:-0.74170,  77:-0.01022,
                 76:-1.64673,  75:-1.83802,  74: 0.14364,  73:-0.05744,  72:-0.57443,  71: 0.79395,  70: 1.15868,  69: 0.95101,
                 68: 0.76232,  67:-0.07472,  66:-0.62676,  65: 0.39975,  64: 0.41459,  63: 1.87920,  62:-1.28085,  61:-0.63015,
                 60:-1.14482,  59: 0.33093,  58:-1.47349,  57:-1.56278,  56:-0.41986,  55:-0.89189,  54:-0.32718,  53:-0.36770,
                 52: 1.28421,  51:-0.90310,  50:-0.93721,  49: 0.60487,  48: 1.26053,  47: 0.21673,  46: 0.13279,  45:-0.90958,
                 44: 1.25698,  43: 1.83303,  42: 1.25554,  41:-0.19289,  40: 1.78213,  39: 0.09071,  38:-0.04826,  37: 0.94088,
                 36: 1.11679,  35: 0.37702,  34: 0.19246,  33:-1.26335,  32: 0.16318,  31: 1.46298,  30: 0.25482,  29:-0.12531,
                 28:-0.45218,  27: 0.39074,  26:-0.92238,  25:-0.77065,  24:-0.97691,  23: 0.77238,  22:-0.90387,  21:-0.20795,
                 20:-0.77011,  19: 0.99117,  18: 0.98833,  17: 0.74080,  16: 1.18663,  15: 0.39662,  14:-0.44705,  13: 1.33966,
                 12: 1.78849,  11: 0.35937,  10: 0.15814,   9: 0.39801,   8:-0.01583,   7: 0.80024,   6: 0.34490,   5: 0.54550,
                  4:-0.34861,   3:-0.64951,   2:-0.99832,   1:-1.20011
   130 |      | 108:-0.21913, 107: 1.29042, 106: 1.65051, 105: 0.84113, 104: 0.30039, 103:-0.51876, 102: 0.98135, 101:-1.15720,
                100: 0.74645,  99: 0.83087,  98: 0.57053,  97: 0.25646,  96:-0.14890,  95: 0.37400,  94:-0.07708,  93:-0.00702,
                 92:-0.67341,  91: 0.49759,  90:-0.38617,  89:-0.14406,  88: 1.16066,  87: 0.79483,  86:-0.61912,  85:-0.49450,
                 84:-0.43212,  83:-0.52612,  82: 0.89835,  81: 0.99976,  80:-0.71717,  79:-0.82499,  78:-0.59850,  77: 1.06296,
                 76:-0.85892,  75: 1.20480,  74:-0.82641,  73: 0.22931,  72:-2.09618,  71: 1.09983,  70:-0.75086,  69: 0.48013,
                 68:-0.36913,  67: 1.32833,  66: 0.62157,  65: 0.52269,  64: 0.81957,  63:-0.44232,  62: 0.57399,  61:-0.42788,
                 60:-0.75521,  59:-0.63738,  58:-0.49182,  57: 0.98618,  56: 1.42816,  55:-0.70007,  54:-1.08301,  53:-1.36196,
                 52:-1.71409,  51:-0.79468,  50: 0.61231,  49: 0.48094,  48: 0.15252,  47:-1.51369,  46:-0.89501,  45:-0.17023,
                 44:-0.69994,  43: 0.10140,  42:-1.04457,  41:-0.45088,  40: 0.12612,  39:-0.43544,  38:-0.37606,  37: 0.40500,
                 36: 1.32395,  35: 1.29726,  34: 0.37086,  33: 0.06599,  32: 0.27220,  31:-0.00075,  30:-0.33953,  29: 0.16386,
                 28: 0.67439,  27: 0.49654,  26:-0.99753,  25: 0.26796,  24:-0.94162,  23: 0.02407,  22: 0.02865,  21:-0.66096,
                 20: 1.27408,  19:-1.00033,  18:-1.09778,  17:-1.68759,  16:-1.25946,  15:-1.19269,  14:-0.56283,  13: 0.10972,
                 12:-0.66127,  11: 0.42655,  10: 0.94861,   9: 0.49098,   8: 0.59975,   7: 0.50629,   6:-2.07529,   5:-1.78279,
                  4:-1.70962,   3:-1.13613,   2:-1.82760,   1: 0.09300
   131 |      | 108: 1.19394, 107: 0.99181, 106: 0.47711, 105:-0.94907, 104:-0.39641, 103: 0.86218, 102:-0.31845, 101: 0.55443,
                100: 0.91050,  99: 0.18813,  98: 1.33140,  97:-0.69217,  96: 0.17275,  95:-0.33727,  94:-1.13438,  93: 0.40282,
                 92:-0.03946,  91:-0.60327,  90:-0.25725,  89: 1.17759,  88:-0.78748,  87:-0.11524,  86:-1.42184,  85:-1.48133,
                 84: 0.93114,  83: 1.27811,  82:-0.36589,  81:-0.57611,  80:-0.34652,  79:-0.89573,  78: 0.59714,  77:-0.75261,
                 76:-1.50067,  75: 0.49082,  74:-0.56328,  73:-0.54794,  72:-0.64280,  71:-0.75494,  70: 0.37029,  69:-1.22811,
                 68: 0.36662,  67:-0.68595,  66:-0.32066,  65:-0.63949,  64: 0.04003,  63: 0.38426,  62:-1.61058,  61:-1.08797,
                 60: 1.34097,  59: 1.29742,  58:-0.76845,  57: 0.94417,  56:-1.15095,  55:-0.27388,  54:-0.94341,  53:-0.57072,
                 52:-0.64031,  51:-0.66768,  50: 1.34044,  49:-0.09167,  48:-0.28608,  47:-0.69604,  46: 0.61082,  45: 0.34760,
                 44:-0.13052,  43: 0.87709,  42:-0.16896,  41: 0.46917,  40: 0.02080,  39:-0.74488,  38:-0.80023,  37:-0.23709,
                 36: 0.02537,  35: 0.90206,  34:-0.27262,  33:-0.03413,  32:-0.67182,  31: 0.21529,  30: 0.04368,  29: 0.70889,
                 28:-0.07272,  27: 0.57628,  26:-0.59918,  25: 1.06721,  24: 1.38219,  23: 1.25292,  22:-0.56253,  21: 0.91643,
                 20: 0.02118,  19:-1.40126,  18:-0.18309,  17: 0.71565,  16: 1.34660,  15: 0.47503,  14: 0.62387,  13: 0.32580,
                 12:-0.88358,  11:-1.38457,  10:-1.04606,   9:-0.38105,   8: 0.56170,   7: 0.01553,   6:-0.39287,   5: 1.24100,
                  4: 1.18889,   3: 0.63538,   2: 0.36575,   1: 0.09166
   132 |      | 108:-1.00860, 107: 0.32735, 106: 0.32577, 105:-0.70094, 104:-0.49223, 103:-0.33204, 102:-0.55586, 101:-0.04119,
                100:-0.82755,  99: 0.14005,  98: 0.97121,  97:-0.17987,  96:-0.29816,  95:-2.04465,  94:-0.45692,  93:-0.24940,
                 92:-1.12890,  91:-1.08896,  90:-0.86360,  89: 0.43209,  88: 0.20068,  87: 1.38007,  86:-0.60997,  85: 0.27984,
                 84:-0.41000,  83:-0.74522,  82: 0.79637,  81: 0.16768,  80:-0.59970,  79:-0.61592,  78:-1.79345,  77: 0.39795,
                 76:-0.95182,  75: 0.25491,  74:-0.69633,  73: 0.84738,  72:-1.38328,  71: 0.39265,  70: 0.72671,  69:-0.98669,
                 68: 0.87472,  67:-0.28319,  66: 1.23312,  65:-0.29872,  64: 0.69577,  63: 0.80749,  62: 1.69088,  61: 0.16652,
                 60: 0.18980,  59: 1.17920,  58: 0.64253,  57: 1.06868,  56: 0.44135,  55: 0.92727,  54:-0.42402,  53: 0.43958,
                 52:-1.44173,  51:-1.09996,  50: 0.92758,  49:-0.68204,  48:-0.78387,  47:-1.31605,  46:-0.42968,  45: 1.02597,
                 44: 1.31162,  43: 0.20674,  42: 0.64882,  41: 0.81673,  40:-0.62562,  39: 0.69261,  38:-0.48350,  37:-0.22930,
                 36:-0.48099,  35: 0.38898,  34: 0.41788,  33: 0.14905,  32:-1.02967,  31: 0.65599,  30: 0.43582,  29:-0.09296,
                 28:-0.44784,  27:-1.31883,  26:-0.69769,  25: 0.92023,  24:-0.85868,  23:-1.14165,  22:-0.96440,  21:-0.52885,
                 20:-0.37394,  19: 1.17772,  18: 0.23774,  17: 0.72222,  16:-1.19254,  15:-0.87864,  14:-1.96182,  13:-2.26556,
                 12:-0.09841,  11: 1.11814,  10: 0.44358,   9:-0.83476,   8: 0.00723,   7:-0.31008,   6: 0.21668,   5: 0.08154,
                  4:-1.45531,   3:-0.25870,   2:-0.40217,   1: 0.13956
   133 |      | 108: 0.84406, 107: 1.56964, 106:-0.69845, 105:-0.82927, 104: 0.67084, 103:-1.57061, 102: 2.20478, 101: 0.90164,
                100: 2.28613,  99: 0.27851,  98: 1.04963,  97:-2.88368,  96: 0.57516,  95:-2.85191,  94:-0.93318,  93: 0.92884,
                 92: 0.11313,  91: 1.67800,  90:-1.79670,  89:-0.45239,  88: 0.09741,  87: 0.54694,  86:-0.21180,  85: 0.52917,
                 84: 0.91894,  83: 0.71057,  82: 0.28504,  81: 0.22252,  80:-1.12106,  79:-1.69060,  78: 0.16170,  77: 1.79571,
                 76: 1.26891,  75:-0.58084,  74:-1.33638,  73:-1.15955,  72: 1.16034,  71: 0.69362,  70:-0.76301,  69: 1.54418,
                 68:-0.12959,  67: 0.18348,  66:-1.22601,  65: 0.93907,  64:-2.06724,  63: 0.82680,  62: 1.65691,  61: 0.17345,
                 60:-0.57868,  59:-0.42666,  58: 1.62337,  57: 1.40831,  56: 0.04671,  55:-0.93013,  54: 0.52250,  53: 2.22177,
                 52: 0.46647,  51:-0.56900,  50:-1.03270,  49:-1.78185,  48:-1.46367,  47: 0.01653,  46:-0.00167,  45: 1.15774,
                 44:-0.33916,  43:-3.74598,  42:-0.60242,  41: 0.29348,  40:-0.35284,  39:-0.90838,  38: 0.06394,  37:-0.59740,
                 36: 0.49022,  35:-0.41938,  34:-1.58684,  33:-2.14219,  32:-3.11939,  31:-0.44085,  30:-1.91327,  29:-0.90351,
                 28: 0.36144,  27: 1.37779,  26: 1.57162,  25:-0.49468,  24:-0.58626,  23:-2.01036,  22: 0.02460,  21: 0.31626,
                 20: 1.28764,  19: 1.72006,  18:-0.50760,  17: 1.04773,  16:-0.11120,  15:-1.22539,  14:-0.65215,  13: 1.02542,
                 12: 0.63368,  11:-0.00260,  10: 1.41299,   9: 0.76332,   8:-1.67492,   7:-1.61624,   6:-3.72890,   5:-2.18105,
                  4:-0.57439,   3: 0.46060,   2: 1.39773,   1: 0.84966
   134 |      | 108:-0.52586, 107: 0.12562, 106: 0.29978, 105: 0.37948, 104: 0.09836, 103: 1.70928, 102: 1.48102, 101: 0.11095,
                100: 0.19648,  99: 0.25846,  98: 0.88601,  97: 0.78460,  96: 0.24165,  95: 0.47458,  94:-0.17629,  93: 0.46994,
                 92:-0.34119,  91: 0.71065,  90: 1.00568,  89: 0.74383,  88: 2.75381,  87: 0.64676,  86:-0.58313,  85:-0.62368,
                 84:-0.49689,  83: 1.08618,  82:-1.81409,  81:-0.73287,  80:-1.33245,  79: 0.67094,  78:-0.59774,  77: 0.59122,
                 76:-0.25525,  75:-0.21801,  74:-1.46203,  73: 1.01828,  72:-0.92862,  71: 0.99448,  70: 0.82232,  69: 1.07698,
                 68: 0.76191,  67: 0.71557,  66:-0.34235,  65: 0.92048,  64:-0.16104,  63: 0.47075,  62:-1.12573,  61:-0.62205,
                 60: 2.02941,  59: 0.39383,  58: 1.08015,  57:-0.07658,  56: 0.88798,  55:-0.66857,  54:-1.15987,  53:-2.39683,
                 52:-2.03217,  51:-0.20869,  50:-0.43830,  49: 1.12649,  48: 0.85148,  47: 0.93315,  46: 0.01251,  45:-0.19180,
                 44:-0.41910,  43: 0.43025,  42: 0.81404,  41:-0.16901,  40:-0.87373,  39:-0.08936,  38:-0.13972,  37:-1.43498,
                 36:-0.97100,  35:-0.99713,  34:-0.54370,  33:-1.91050,  32:-1.94695,  31:-0.49308,  30: 1.00402,  29:-1.04083,
                 28: 1.23797,  27: 1.92806,  26: 1.55505,  25:-0.63108,  24: 0.93063,  23:-0.77822,  22:-0.89465,  21:-0.43279,
                 20:-1.61879,  19:-1.12800,  18: 0.35724,  17:-0.21124,  16:-0.12263,  15: 1.64017,  14: 0.44043,  13:-1.02245,
                 12:-0.95078,  11:-1.35924,  10: 1.67626,   9:-0.37921,   8:-2.06108,   7:-1.13161,   6: 0.41260,   5:-0.14746,
                  4:-0.89060,   3: 0.43098,   2:-0.38157,   1: 0.42804
   135 |      | 108:-0.33574, 107: 0.35556, 106: 0.58065, 105: 0.41270, 104: 0.08716, 103: 0.70671, 102:-0.11857, 101:-0.91822,
                100:-0.32873,  99:-1.35215,  98: 1.03155,  97: 0.39318,  96:-0.57039,  95: 0.97780,  94:-0.57339,  93:-0.24424,
                 92: 0.58806,  91:-0.64084,  90: 0.36327,  89:-0.42817,  88: 2.71681,  87: 0.33080,  86:-2.35667,  85:-1.71849,
                 84:-0.97788,  83: 0.90712,  82:-0.34506,  81: 0.78315,  80:-2.22994,  79:-0.88975,  78:-0.48498,  77: 0.50653,
                 76:-2.55615,  75: 0.77564,  74: 0.72468,  73: 0.49716,  72:-0.27945,  71:-1.13084,  70:-0.02136,  69: 0.62975,
                 68: 1.19885,  67: 2.03512,  66:-1.06555,  65: 0.32865,  64:-1.31161,  63:-0.58628,  62:-0.88813,  61:-1.20660,
                 60:-0.49431,  59:-1.31778,  58:-0.19388,  57: 1.77962,  56: 2.00649,  55:-0.89995,  54:-0.40227,  53:-1.43242,
                 52:-0.67043,  51:-1.55134,  50:-1.95997,  49: 0.60460,  48: 0.76616,  47: 0.24633,  46: 0.76457,  45: 1.08925,
                 44:-1.46731,  43:-1.55363,  42:-0.64354,  41:-0.91885,  40:-0.98503,  39: 0.97446,  38:-0.00589,  37: 0.61311,
                 36: 0.35939,  35: 0.05645,  34:-0.83325,  33:-0.32793,  32:-0.46567,  31: 0.16339,  30:-0.12808,  29: 0.81049,
                 28: 1.85784,  27: 1.29107,  26:-0.48319,  25: 0.17241,  24: 0.10055,  23: 1.10854,  22: 0.24513,  21:-0.71732,
                 20:-0.48493,  19:-0.74730,  18: 0.21720,  17: 0.42676,  16:-0.36517,  15: 0.09437,  14: 1.59239,  13: 0.52107,
                 12: 0.93897,  11:-0.82099,  10:-1.67542,   9:-0.93687,   8: 0.99683,   7:-0.48308,   6:-0.66811,   5: 0.07291,
                  4:-1.02674,   3:-1.49744,   2: 0.49179,   1: 0.04239
   136 |      | 108: 1.11108, 107: 0.63850, 106:-0.38972, 105: 1.14957, 104:-0.23428, 103: 0.28976, 102: 0.04939, 101: 0.78255,
                100: 0.37387,  99:-1.12944,  98:-1.38688,  97: 0.24603,  96: 0.31825,  95: 0.94642,  94:-0.55126,  93: 0.48322,
                 92:-0.03566,  91:-0.05236,  90:-0.39320,  89: 0.53260,  88: 1.16187,  87: 0.99593,  86:-1.39324,  85:-1.17155,
                 84: 1.23933,  83: 0.15470,  82: 0.39403,  81: 0.87439,  80: 0.70394,  79: 0.09385,  78: 1.09768,  77:-0.47570,
                 76:-0.36057,  75:-1.41554,  74:-1.55895,  73: 0.74071,  72:-1.31302,  71: 0.25299,  70: 0.25138,  69: 0.18096,
                 68: 0.06631,  67: 0.10531,  66: 0.23268,  65:-1.20033,  64:-0.50121,  63: 0.55382,  62:-0.09792,  61: 0.27480,
                 60:-0.55542,  59: 0.12544,  58:-1.41213,  57: 0.49641,  56: 0.89638,  55: 0.63021,  54: 1.00453,  53: 0.21225,
                 52:-0.26192,  51: 0.28712,  50:-0.15319,  49:-0.36656,  48: 0.20108,  47: 0.75551,  46:-0.23899,  45: 0.97410,
                 44: 0.67705,  43: 1.12853,  42:-0.24686,  41:-0.48141,  40:-0.43411,  39:-1.18670,  38:-0.93368,  37:-0.67702,
                 36: 0.04918,  35:-0.49996,  34: 0.72941,  33: 0.17370,  32: 0.15387,  31: 0.85708,  30: 0.52876,  29: 1.41455,
                 28: 1.24790,  27:-0.90975,  26: 0.45973,  25: 0.55248,  24:-0.80817,  23:-0.89528,  22:-0.06132,  21:-0.96749,
                 20:-1.32915,  19:-0.61210,  18:-0.48558,  17:-1.04766,  16:-0.44305,  15: 0.10379,  14: 0.01215,  13:-0.34053,
                 12: 0.29631,  11: 0.76993,  10: 0.03521,   9:-0.13229,   8:-0.43136,   7: 0.14491,   6: 0.08140,   5: 0.43069,
                  4: 0.05951,   3:-1.15239,   2: 0.06543,   1: 0.35333
   137 |      | 108:-0.42593, 107:-0.46588, 106:-0.25364, 105: 1.09310, 104:-0.89540, 103:-0.64170, 102: 0.49159, 101:-1.16676,
                100:-0.18359,  99: 0.24725,  98: 1.72132,  97:-0.39151,  96: 1.42447,  95: 0.76676,  94:-0.67564,  93: 0.33367,
                 92:-0.17066,  91: 0.74906,  90: 0.79701,  89: 1.13335,  88:-1.82537,  87:-2.79294,  86:-0.41497,  85: 1.90967,
                 84:-0.50962,  83:-0.96163,  82: 2.10484,  81:-0.87395,  80:-0.83575,  79:-0.46028,  78:-0.07653,  77: 0.97245,
                 76: 1.81474,  75: 1.02298,  74: 0.25006,  73:-0.45793,  72: 1.05983,  71:-1.27262,  70:-2.43962,  69: 1.19335,
                 68: 0.30461,  67:-0.76368,  66:-0.26162,  65:-1.77270,  64:-2.07080,  63:-0.26744,  62: 1.40902,  61: 0.80137,
                 60: 1.72740,  59: 1.17143,  58:-1.78288,  57:-0.75901,  56:-1.90778,  55:-2.02714,  54: 0.28920,  53: 0.95779,
                 52: 1.14670,  51: 0.59499,  50:-0.14927,  49:-0.21023,  48:-0.84891,  47:-0.97677,  46:-0.84358,  45: 1.03256,
                 44:-1.10873,  43:-1.04724,  42: 0.01450,  41:-0.90684,  40:-1.43299,  39:-0.27870,  38:-0.43928,  37:-1.17962,
                 36: 0.14712,  35:-0.16997,  34:-0.40617,  33:-0.58926,  32:-0.38049,  31: 0.84589,  30: 0.46471,  29: 0.14621,
                 28: 0.61494,  27: 0.59660,  26: 1.64894,  25:-0.48334,  24:-1.30967,  23:-1.07144,  22:-0.52824,  21: 0.53731,
                 20:-0.53547,  19:-0.42924,  18: 0.25300,  17: 0.41458,  16:-0.90063,  15:-0.01490,  14: 0.18420,  13:-0.09315,
                 12: 0.86629,  11:-0.40388,  10: 0.00630,   9:-0.61028,   8: 1.12779,   7:-0.89665,   6:-0.92192,   5: 0.72581,
                  4: 0.82905,   3:-0.32203,   2: 0.00387,   1:-0.88591
   138 |      | 108: 0.35577, 107:-2.32280, 106:-1.44719, 105:-0.77931, 104:-0.10907, 103:-0.13666, 102: 1.68520, 101: 0.68742,
                100:-2.23879,  99:-0.20693,  98:-1.14295,  97: 0.53402,  96:-1.22348,  95: 1.36473,  94:-1.67443,  93:-0.69876,
                 92: 0.07312,  91:-0.75240,  90:-0.57858,  89:-0.63515,  88: 2.88271,  87: 0.20472,  86: 1.50016,  85: 0.25182,
                 84: 1.59345,  83:-1.19658,  82:-0.23764,  81:-0.57401,  80: 0.81314,  79:-1.82376,  78: 0.39606,  77: 1.64093,
                 76:-1.62395,  75:-2.29952,  74: 1.14734,  73:-1.40033,  72:-0.27050,  71:-1.04038,  70: 0.03361,  69:-1.31479,
                 68: 0.01654,  67:-0.68642,  66: 0.89428,  65:-0.34328,  64: 2.67850,  63: 2.31421,  62: 1.09404,  61:-0.84271,
                 60: 0.24388,  59:-2.37191,  58:-3.13115,  57:-1.93383,  56: 0.59645,  55: 0.10224,  54:-1.28173,  53:-1.87936,
                 52:-0.28197,  51: 2.63760,  50: 1.77967,  49: 0.68433,  48: 0.96133,  47: 1.65682,  46: 0.78481,  45: 0.48643,
                 44: 2.82836,  43: 2.24560,  42:-0.54371,  41:-1.57575,  40:-0.25742,  39:-0.03529,  38: 0.95229,  37: 1.18727,
                 36: 0.92318,  35: 0.13136,  34: 1.65902,  33: 2.12549,  32: 1.07020,  31: 0.59505,  30: 0.82415,  29: 1.39980,
                 28:-0.94066,  27:-2.09550,  26:-2.17701,  25:-0.84851,  24: 0.73451,  23: 0.78085,  22: 0.67351,  21: 1.92943,
                 20:-2.02572,  19:-1.15388,  18:-0.61119,  17:-0.10571,  16: 0.73866,  15:-0.18499,  14:-0.92129,  13:-0.54016,
                 12:-0.64975,  11:-1.13706,  10:-2.19271,   9:-0.67049,   8: 0.20080,   7: 0.60948,   6: 0.66566,   5: 0.64771,
                  4:-0.84790,   3:-0.79911,   2:-0.41307,   1:-0.33993
   139 |      | 108: 0.71734, 107:-0.15346, 106: 0.93687, 105: 0.51509, 104:-0.67968, 103: 0.03921, 102:-0.02125, 101: 0.32990,
                100: 0.19418,  99: 1.15839,  98:-0.20109,  97: 0.35516,  96: 0.06428,  95:-0.51082,  94: 0.51506,  93:-0.38114,
                 92: 0.17624,  91:-0.31873,  90: 1.06772,  89:-0.33135,  88: 1.53092,  87: 0.62549,  86:-0.24465,  85: 0.66479,
                 84: 0.68072,  83:-0.09984,  82: 0.01911,  81:-0.03076,  80:-2.17468,  79: 0.20802,  78:-0.11955,  77: 0.56738,
                 76: 0.10245,  75:-0.20943,  74: 0.35140,  73: 0.28507,  72:-0.32638,  71:-0.89912,  70: 0.72178,  69: 0.88877,
                 68: 0.18049,  67: 0.87733,  66: 1.24392,  65: 0.70291,  64: 0.44078,  63:-0.73218,  62: 0.42219,  61:-0.60909,
                 60: 0.24572,  59: 1.58678,  58: 0.68379,  57: 0.14870,  56: 1.20213,  55: 1.64182,  54: 1.78325,  53:-0.58985,
                 52:-1.43921,  51:-2.36791,  50: 0.85565,  49:-0.58353,  48:-0.24790,  47:-0.53936,  46: 1.54237,  45: 0.14625,
                 44:-0.79822,  43:-0.28391,  42: 1.73051,  41:-0.01228,  40:-1.58414,  39:-1.28383,  38: 0.77433,  37:-0.46975,
                 36:-1.86390,  35:-0.63037,  34: 0.96144,  33:-0.72423,  32: 0.15058,  31:-0.94399,  30: 0.49359,  29:-0.56534,
                 28:-0.38619,  27: 1.65236,  26:-0.72947,  25: 0.17051,  24: 0.10111,  23: 0.10281,  22:-0.43860,  21:-0.19878,
                 20:-0.49529,  19:-1.53404,  18:-2.54018,  17:-0.85581,  16: 0.59565,  15:-0.26377,  14: 0.20082,  13:-1.17023,
                 12:-0.36747,  11:-1.64445,  10:-0.57416,   9: 0.37298,   8:-0.05986,   7: 0.35477,   6: 0.96755,   5: 0.45510,
                  4:-0.38900,   3:-0.18676,   2:-1.31744,   1:-1.70033
   140 |      | 108: 1.30090, 107: 0.54817, 106: 0.11058, 105:-0.07637, 104:-1.08666, 103: 0.12754, 102: 0.53459, 101:-0.67056,
                100:-0.92060,  99:-0.48623,  98:-1.00879,  97: 0.53651,  96:-0.32829,  95:-0.29050,  94: 1.27755,  93: 0.94724,
                 92: 0.28574,  91: 0.31145,  90:-1.30582,  89:-0.19025,  88: 1.00236,  87:-0.15582,  86: 0.28794,  85:-2.10130,
                 84:-0.44419,  83:-1.02357,  82: 0.72493,  81: 0.31114,  80:-1.15421,  79: 0.07098,  78: 1.40975,  77: 0.28998,
                 76:-2.76120,  75: 0.15823,  74:-0.46127,  73: 0.21506,  72: 0.72802,  71: 2.08549,  70:-0.45405,  69:-0.24621,
                 68:-1.05291,  67:-1.53533,  66: 0.85915,  65: 0.79075,  64: 1.09688,  63: 0.16367,  62:-0.39559,  61:-0.19076,
                 60: 0.63360,  59: 0.42278,  58: 1.45680,  57: 1.53566,  56:-0.54295,  55:-0.50386,  54:-0.20152,  53:-0.34175,
                 52: 0.84456,  51: 0.85060,  50: 1.11776,  49:-0.21704,  48: 0.04468,  47:-0.70480,  46:-1.30620,  45:-0.78757,
                 44: 0.36009,  43: 0.22793,  42: 0.70444,  41: 0.30772,  40: 0.62028,  39: 1.20279,  38:-0.45912,  37:-0.75757,
                 36:-0.06037,  35: 0.69677,  34:-0.72232,  33: 0.93174,  32:-0.52465,  31:-0.21133,  30: 0.00395,  29: 1.18870,
                 28:-0.78999,  27:-1.37538,  26:-0.32157,  25: 0.24686,  24:-0.55561,  23:-0.11242,  22:-0.13319,  21: 1.01519,
                 20: 0.34981,  19:-0.11059,  18: 0.41444,  17:-0.70682,  16: 0.41305,  15: 1.36508,  14: 1.37912,  13: 1.78898,
                 12:-0.60329,  11:-0.61597,  10: 1.33188,   9:-0.92259,   8:-0.21216,   7: 0.26121,   6:-0.16331,   5: 0.03253,
                  4:-0.37239,   3: 0.51516,   2:-0.40501,   1:-0.60855
   141 |      | 108:-0.69559, 107:-0.85596, 106: 0.48118, 105: 0.91772, 104: 1.18128, 103:-0.25266, 102:-0.87028, 101:-0.13267,
                100:-2.23201,  99:-0.79558,  98: 0.70583,  97: 1.26033,  96:-0.30242,  95: 1.32793,  94:-1.63261,  93: 0.13061,
                 92: 1.35987,  91:-2.20370,  90: 0.27957,  89:-0.11196,  88:-0.20724,  87:-0.26688,  86:-0.95291,  85:-1.48804,
                 84:-0.31712,  83: 0.39307,  82:-1.32814,  81:-0.25545,  80: 1.46616,  79: 1.14215,  78:-0.04905,  77:-0.44409,
                 76: 0.34611,  75:-2.71399,  74: 0.95369,  73:-0.69683,  72:-0.36141,  71:-1.89135,  70: 0.82810,  69:-0.33823,
                 68:-0.30121,  67: 0.54536,  66:-1.06175,  65:-0.58254,  64: 0.06962,  63: 0.20817,  62: 1.54423,  61:-0.18071,
                 60: 0.31614,  59:-1.02743,  58:-1.13813,  57:-2.16148,  56:-1.42388,  55:-1.11680,  54: 0.90119,  53: 0.67630,
                 52: 0.31133,  51: 1.24381,  50: 0.23788,  49: 0.80742,  48:-1.03563,  47:-1.38761,  46: 1.12777,  45: 2.08102,
                 44: 0.76013,  43: 1.31448,  42:-0.57671,  41:-1.47997,  40: 2.73011,  39: 0.24252,  38:-0.19510,  37: 0.61616,
                 36: 0.23023,  35: 0.28720,  34: 1.37290,  33: 1.66854,  32: 0.29757,  31:-0.50962,  30:-0.71224,  29:-1.52286,
                 28:-1.52513,  27:-1.19918,  26:-0.43574,  25: 1.65632,  24: 0.81339,  23: 2.34085,  22: 2.02121,  21: 1.35305,
                 20:-2.54949,  19:-0.85626,  18: 1.73277,  17: 0.87012,  16:-1.05495,  15:-0.40696,  14:-1.05281,  13: 0.23753,
                 12: 0.00648,  11:-1.13903,  10:-0.26583,   9:-0.57518,   8:-0.89332,   7:-0.19763,   6: 1.81103,   5: 1.24621,
                  4: 0.51615,   3:-0.91757,   2:-0.33563,   1:-1.14169
   142 |      | 108: 0.08404, 107: 0.49205, 106:-0.13532, 105:-1.26851, 104:-0.40398, 103:-0.74715, 102: 0.73809, 101:-0.48897,
                100:-0.79258,  99:-0.44796,  98:-0.50409,  97: 0.04662,  96: 0.48988,  95: 1.60922,  94:-0.26469,  93: 0.50320,
                 92: 1.11306,  91: 1.54470,  90: 0.46980,  89:-1.38742,  88:-0.06845,  87:-1.04632,  86:-0.95411,  85:-0.16417,
                 84: 1.00506,  83: 0.36850,  82:-0.19431,  81: 0.57101,  80:-0.07547,  79:-0.15875,  78:-0.91966,  77: 0.61026,
                 76:-0.50121,  75: 0.29672,  74: 0.14282,  73:-0.25341,  72:-0.31060,  71: 0.46449,  70:-1.09908,  69:-1.09615,
                 68: 0.09878,  67: 0.95635,  66: 1.66672,  65:-0.42387,  64:-0.54260,  63:-0.00092,  62:-1.76003,  61:-1.09891,
                 60: 0.46683,  59:-0.86934,  58:-2.31882,  57:-1.07376,  56:-0.12644,  55: 0.61128,  54: 0.50679,  53:-0.05718,
                 52:-1.30119,  51: 0.25361,  50:-0.21879,  49:-0.12278,  48: 0.23982,  47: 0.91938,  46:-0.66415,  45:-0.77083,
                 44:-0.24999,  43:-0.56627,  42: 0.97987,  41: 1.07187,  40:-1.20580,  39: 0.97467,  38:-0.33316,  37:-0.75087,
                 36: 1.18621,  35:-0.47150,  34: 1.02663,  33: 1.04770,  32: 0.14705,  31:-0.54481,  30: 1.00671,  29: 1.46467,
                 28:-0.12406,  27: 0.73859,  26:-0.37317,  25: 0.12037,  24: 0.17126,  23:-0.89426,  22:-0.22215,  21: 1.08058,
                 20:-0.62556,  19:-1.15013,  18:-0.95484,  17:-0.72742,  16:-0.88680,  15: 1.19367,  14: 1.24589,  13:-0.50113,
                 12:-0.25823,  11: 0.78572,  10:-0.28904,   9:-0.96223,   8: 0.49736,   7: 0.22221,   6: 1.26352,   5: 0.60956,
                  4:-0.66007,   3: 0.24585,   2:-0.90529,   1:-1.53574
   143 |      | 108: 1.49943, 107: 0.27835, 106: 0.56176, 105:-0.24110, 104:-1.27162, 103:-0.13857, 102:-0.00800, 101: 0.48454,
                100: 0.36152,  99: 0.16417,  98: 1.31422,  97: 0.11397,  96: 0.04212,  95: 0.41262,  94: 0.56527,  93:-0.06788,
                 92: 1.56129,  91: 0.26051,  90:-0.68757,  89:-3.50416,  88: 0.17841,  87:-0.41809,  86:-1.57914,  85:-0.36999,
                 84:-0.52925,  83:-0.53796,  82:-0.36989,  81: 1.55596,  80:-0.96687,  79: 1.22099,  78: 0.47214,  77: 2.29871,
                 76:-0.30316,  75: 0.49679,  74: 0.56337,  73: 0.32738,  72:-0.92913,  71: 0.67553,  70: 1.09842,  69:-1.05958,
                 68:-1.04846,  67:-1.32057,  66:-2.06718,  65:-2.80553,  64: 1.55989,  63:-0.36722,  62:-0.79364,  61:-2.32609,
                 60:-2.00856,  59:-0.78607,  58: 1.10034,  57: 1.51217,  56: 1.96154,  55: 1.75667,  54: 2.23241,  53: 0.26841,
                 52:-1.02139,  51:-1.71191,  50:-1.65009,  49:-1.81544,  48:-1.45313,  47:-1.90013,  46: 0.03955,  45:-0.05396,
                 44: 0.19545,  43: 0.72358,  42:-0.13217,  41:-1.60098,  40:-0.35424,  39:-0.95912,  38:-0.35878,  37:-0.96446,
                 36: 0.76304,  35:-0.35157,  34: 1.15703,  33: 0.89363,  32:-0.48673,  31:-1.05700,  30:-2.59241,  29:-2.11745,
                 28: 0.00428,  27: 0.55318,  26: 0.54345,  25: 1.26459,  24: 0.38568,  23:-0.55435,  22:-0.25563,  21:-1.92624,
                 20: 0.64501,  19: 1.94336,  18: 0.19936,  17:-0.12515,  16:-0.86559,  15: 0.16123,  14:-1.08245,  13: 0.26677,
                 12: 0.38674,  11: 1.38754,  10:-0.01832,   9: 0.44241,   8: 1.24804,   7: 0.29268,   6:-1.63879,   5: 0.13582,
                  4: 1.37583,   3:-0.42618,   2: 0.13080,   1: 2.11452
   144 |      | 108: 0.64108, 107:-2.64228, 106:-0.20440, 105:-1.35266, 104: 1.37818, 103:-0.40132, 102: 0.57227, 101: 0.37704,
                100: 0.09820,  99:-0.49005,  98:-1.14419,  97: 1.40507,  96: 0.46326,  95: 0.13561,  94:-2.98551,  93: 0.96040,
                 92:-0.99862,  91: 0.80394,  90:-0.27540,  89:-1.69334,  88:-1.16977,  87:-0.98611,  86:-1.58094,  85: 0.54924,
                 84: 0.77389,  83:-1.43751,  82: 1.80234,  81:-0.04359,  80: 1.02402,  79:-0.30306,  78: 1.31274,  77:-0.23347,
                 76:-0.84393,  75: 0.64382,  74: 0.16999,  73:-0.59655,  72:-1.33593,  71:-0.05864,  70:-2.45473,  69:-0.69463,
                 68:-0.41218,  67:-0.45794,  66: 1.07044,  65: 1.37143,  64:-0.31820,  63:-0.16149,  62: 0.43166,  61:-0.34098,
                 60: 0.65748,  59: 0.72178,  58: 0.58937,  57: 0.49364,  56:-1.30850,  55:-2.71538,  54:-1.62554,  53:-1.24505,
                 52: 0.49193,  51:-0.17887,  50: 0.86942,  49: 0.88358,  48:-1.73094,  47:-2.28000,  46:-1.95605,  45:-1.95608,
                 44:-0.96457,  43: 1.41319,  42: 0.93197,  41:-1.15954,  40:-0.58198,  39:-0.47941,  38: 0.38852,  37: 0.51489,
                 36: 1.27817,  35: 0.75162,  34:-0.30635,  33: 0.79617,  32: 0.88179,  31:-0.44662,  30: 0.06793,  29: 1.13688,
                 28: 1.71894,  27:-0.13040,  26:-0.32639,  25: 0.06201,  24:-0.19482,  23:-0.11883,  22: 0.58894,  21:-0.74030,
                 20:-0.94720,  19:-0.40958,  18: 0.61365,  17:-0.12509,  16:-1.26382,  15:-1.20219,  14:-0.10917,  13: 0.77173,
                 12: 0.96169,  11: 1.19151,  10:-0.57590,   9:-0.91644,   8:-0.80172,   7:-0.14768,   6:-1.33262,   5: 0.19417,
                  4: 0.50622,   3: 0.05249,   2: 1.48685,   1:-0.18348
   145 |      | 108: 0.45468, 107:-0.26109, 106:-0.18260, 105: 0.52082, 104:-0.27110, 103: 0.20380, 102:-0.66074, 101: 0.39114,
                100:-0.23203,  99: 0.09441,  98: 0.37552,  97: 0.11032,  96:-0.80962,  95:-0.63947,  94:-1.32916,  93:-0.67432,
                 92:-0.84785,  91: 0.51113,  90:-0.21014,  89:-1.12260,  88: 0.83194,  87:-1.41785,  86:-0.07959,  85: 0.02427,
                 84:-0.94543,  83:-0.44085,  82: 0.42277,  81: 0.25860,  80:-0.20039,  79: 1.83633,  78:-0.05549,  77: 0.87104,
                 76:-0.87858,  75: 0.01991,  74:-0.30707,  73:-0.16136,  72:-0.81001,  71:-1.23458,  70:-1.32665,  69:-1.44583,
                 68: 0.53384,  67: 0.55541,  66: 0.20875,  65: 0.27878,  64: 0.03037,  63:-1.06234,  62:-0.02280,  61:-0.42529,
                 60:-0.81288,  59: 0.48863,  58: 0.77594,  57: 0.58242,  56:-0.15181,  55:-1.60337,  54:-1.10945,  53: 0.71672,
                 52: 0.80729,  51:-0.08111,  50: 0.60433,  49: 0.85597,  48:-0.30736,  47:-0.98772,  46:-1.77354,  45:-1.90018,
                 44:-0.26924,  43: 1.09800,  42: 1.53106,  41:-0.88698,  40:-0.46836,  39:-1.45408,  38:-0.67533,  37:-0.10363,
                 36: 0.49727,  35: 0.72327,  34:-0.12382,  33: 0.99238,  32:-0.39010,  31:-0.33367,  30: 0.67446,  29:-0.78443,
                 28: 0.55293,  27:-0.25182,  26: 0.51414,  25: 0.45058,  24:-0.40435,  23:-0.78951,  22: 0.06639,  21:-0.01428,
                 20: 0.38171,  19:-0.36352,  18:-0.16694,  17:-0.71850,  16:-0.55105,  15:-0.32482,  14:-1.35224,  13: 0.56488,
                 12: 0.58759,  11: 0.17755,  10: 0.58588,   9:-1.13851,   8:-1.70527,   7:-0.50023,   6: 0.83911,   5:-1.17661,
                  4:-0.60756,   3:-1.22125,   2:-0.98750,   1:-0.63995
   146 |      | 108:-1.42459, 107: 1.52273, 106:-1.20555, 105:-1.68368, 104:-1.31969, 103:-0.99110, 102:-1.00279, 101: 1.27484,
                100: 1.67798,  99: 0.85096,  98:-0.13389,  97: 0.26268,  96:-0.84484,  95:-0.69619,  94: 2.29233,  93: 0.98596,
                 92: 1.89936,  91: 0.50617,  90: 0.04865,  89:-1.42888,  88:-0.01377,  87:-0.88173,  86:-1.33202,  85: 0.04850,
                 84:-0.28347,  83: 1.27206,  82:-0.00794,  81: 0.02981,  80: 0.71351,  79:-0.14769,  78:-0.79247,  77:-0.01647,
                 76:-0.86768,  75: 0.01820,  74:-0.56539,  73: 1.29334,  72: 1.43147,  71:-1.03123,  70: 2.71447,  69: 0.24338,
                 68: 0.81598,  67:-0.87200,  66: 1.81144,  65:-1.78077,  64:-1.80629,  63:-1.23195,  62:-0.52953,  61:-0.86947,
                 60:-1.26609,  59: 1.44081,  58: 2.42385,  57: 1.14143,  56: 0.13675,  55:-0.60951,  54:-0.66240,  53:-1.53046,
                 52:-0.87240,  51: 0.93845,  50:-1.95215,  49:-3.72902,  48:-2.75607,  47:-0.80770,  46: 0.00790,  45: 0.49163,
                 44: 1.38862,  43:-0.33364,  42:-2.11220,  41:-1.89250,  40:-0.63009,  39: 1.12175,  38: 1.25421,  37:-0.50663,
                 36:-3.12791,  35:-0.61765,  34: 0.63236,  33: 1.15418,  32: 0.35564,  31:-1.12724,  30:-1.65092,  29:-0.78678,
